{"version": "0.5.4", "metadata": {"date": {"year": 2025, "month": 12, "day": 8, "hour": 17, "minute": 21, "second": 23}, "loudness": -27.754735946655273, "gain": 0.7950040314053902, "training": {"settings": {"ignore_checks": true}, "data": {"latency": {"manual": 0, "calibration": {"algorithm_version": 1, "delays": [], "safety_factor": 1, "recommended": null, "warnings": {"matches_lookahead": false, "disagreement_too_high": false, "not_detected": true}}}, "checks": {"version": 3, "passed": false}}, "validation_esr": null}}, "architecture": "WaveNet", "config": {"layers": [{"input_size": 1, "condition_size": 1, "head_size": 8, "channels": 16, "kernel_size": 3, "dilations": [1, 2, 4, 8, 16, 32, 64, 128, 256, 512], "activation": "Tanh", "gated": false, "head_bias": false}, {"input_size": 16, "condition_size": 1, "head_size": 1, "channels": 8, "kernel_size": 3, "dilations": [1, 2, 4, 8, 16, 32, 64, 128, 256, 512], "activation": "Tanh", "gated": false, "head_bias": true}], "head": null, "head_scale": 0.02}, "weights": [-0.056577831506729126, 0.5410987734794617, -0.8493261933326721, -0.7477830648422241, -0.4096304476261139, 0.23501156270503998, -0.02571588195860386, 0.8344289660453796, -0.12666094303131104, 0.26155996322631836, -0.3240928053855896, -0.23062527179718018, -0.9319526553153992, -0.6861441135406494, -0.43716713786125183, 0.08819880336523056, 0.06987591087818146, -0.0012180199846625328, -0.09102331846952438, -0.040708545595407486, 0.17534735798835754, 0.1447465717792511, -0.053931042551994324, -0.016207391396164894, -0.052078764885663986, -0.009174580685794353, 0.006334804929792881, -0.16198021173477173, -0.1113693043589592, -0.1578676849603653, -0.08079632371664047, 0.14439380168914795, 0.023537470027804375, -0.043646614998579025, -0.09342401474714279, -0.22155579924583435, -0.07399952411651611, 0.14878703653812408, 0.18915477395057678, 0.09833353757858276, -0.006612459197640419, -0.18620726466178894, 0.01206272840499878, -0.1162155345082283, 0.013755387626588345, -0.05515297129750252, 0.07152097672224045, -0.03419043496251106, -0.08612644672393799, -0.020288977771997452, -0.02150454744696617, 0.12279284745454788, 0.03207993507385254, -0.10578466951847076, 0.06804873049259186, -0.10885576158761978, -0.09698614478111267, -0.1396075040102005, -0.12167534232139587, -0.19604921340942383, 0.04016824811697006, 0.051948633044958115, 0.0034179973881691694, 0.04152678698301315, 0.046482332050800323, 0.08497617393732071, -0.03626514971256256, 0.025393612682819366, -0.05714073032140732, 0.135260209441185, -0.09989874064922333, 0.0951879546046257, 0.06328112632036209, 0.13031701743602753, 0.27329427003860474, 0.1331505924463272, 0.03593439236283302, 0.019349271431565285, 0.015960296615958214, -0.09411254525184631, -0.27060890197753906, 0.1281452625989914, 0.0735495537519455, -0.053383395075798035, -0.010770720429718494, -0.036179184913635254, -0.17234107851982117, -0.07181765139102936, 0.05355853959918022, 0.04495098069310188, 0.03876705840229988, 0.06997612863779068, -0.036491043865680695, 0.05599411576986313, -0.13789449632167816, 0.047299548983573914, 0.07097465544939041, 0.031106270849704742, 0.022269632667303085, -0.08584164083003998, 0.1473182737827301, 0.24591104686260223, -0.056350164115428925, -0.025487491860985756, 0.009797360748052597, 0.002932189265266061, -0.10032515972852707, 0.032691650092601776, -0.005161740817129612, 0.03622199967503548, -0.17160744965076447, 0.11225058883428574, -0.12168456614017487, -0.019833287224173546, 0.2194328010082245, -0.047651614993810654, 0.12693984806537628, -0.062246955931186676, -0.05551889166235924, -0.1289874166250229, 0.11812950670719147, -0.06713885068893433, -0.2331998348236084, 0.13310322165489197, -0.210825115442276, -0.24808581173419952, 0.03278500959277153, -0.003392445854842663, 0.10021426528692245, -0.18910253047943115, -0.0559854656457901, -0.09518501907587051, 0.02941931039094925, 0.06893455237150192, 0.2668249309062958, -0.07937388122081757, -0.054363593459129333, -0.16206659376621246, 0.1300329715013504, 0.1581238955259323, 0.29346317052841187, 0.011819281615316868, 0.06864769756793976, -0.1669108122587204, -0.05480995401740074, -0.13277582824230194, -0.052359551191329956, 0.07136911153793335, -0.148397296667099, -0.27457284927368164, -0.07176755368709564, -0.19708864390850067, -0.19205377995967865, 0.1442469209432602, 0.005517828278243542, -0.29990139603614807, 0.15846511721611023, -0.0716080591082573, 0.09798014909029007, -0.15879805386066437, -0.02130914106965065, 0.05205053463578224, -0.12115930020809174, -0.16875988245010376, -0.14454519748687744, -0.05357610434293747, -0.019011659547686577, 0.17786496877670288, -0.07054594159126282, 0.03662832826375961, 0.25029054284095764, -0.0007613121997565031, 0.1727033108472824, 0.17239263653755188, -0.07647401094436646, 0.05077771842479706, -0.13229627907276154, -0.1151094064116478, 0.12349174916744232, -0.03752320259809494, 0.01742779091000557, -0.07723180949687958, -0.020910216495394707, -0.018356792628765106, 0.10388778895139694, 0.16081398725509644, 0.001554650953039527, -0.06916575133800507, -0.23446691036224365, 0.03156139329075813, 0.15556518733501434, 0.21571843326091766, -0.05137436091899872, 0.043157149106264114, 0.010367668233811855, -0.030873345211148262, -0.036936379969120026, 0.17376744747161865, -0.02697627991437912, 0.042779143899679184, 0.12909221649169922, 0.15047892928123474, -0.0655674859881401, 0.021470636129379272, -0.029612576588988304, 0.08350469172000885, -0.13976816833019257, 0.09897942841053009, 0.11944877356290817, 0.09827274084091187, -0.007524638902395964, -0.11081305891275406, -0.07223594188690186, -0.03277206793427467, 0.08384136110544205, 0.11095599830150604, -0.10923777520656586, 0.00953785702586174, 0.20946849882602692, -0.11353206634521484, 0.07172033935785294, 0.23328520357608795, 0.052941031754016876, -0.07863699644804001, -0.2159574180841446, 0.06789524108171463, -0.028398020192980766, 0.04666144773364067, -0.04445486143231392, -0.10683582723140717, -0.09157256036996841, 0.11536306142807007, 0.10028126835823059, 0.22048354148864746, 0.0883488655090332, -0.17183759808540344, -0.024274496361613274, -0.1007467731833458, 0.021554265171289444, 0.13334672152996063, 0.049005765467882156, 0.1875074952840805, 0.04092666134238243, 0.0004810800601262599, 0.15976764261722565, -0.04626837745308876, 0.10831340402364731, -0.03442167118191719, 0.09480717778205872, -0.020868392661213875, 0.007442851085215807, 0.11076366901397705, 0.12184324115514755, -0.10945327579975128, -0.16256961226463318, -0.0427655354142189, -0.12539544701576233, -0.08800095319747925, 0.0012149427784606814, -0.05523376539349556, 0.08694646507501602, 0.08047167211771011, 0.03193411976099014, -0.05937507748603821, 0.04946977272629738, -0.09156420826911926, -0.21011771261692047, 0.04291101172566414, 0.07911168783903122, -0.13082119822502136, -0.0643104612827301, -0.03255997598171234, 0.020821360871195793, 0.023334087803959846, -0.06613360345363617, -0.26063379645347595, 0.19721533358097076, -0.049565915018320084, 0.15402868390083313, 0.041055645793676376, -0.01762738823890686, -0.2528621554374695, -0.07646579295396805, 0.14913374185562134, 0.18914207816123962, 0.10621580481529236, -0.08417517691850662, -0.12170650064945221, -0.022793082520365715, -0.03733331337571144, -0.2447091042995453, 0.05792400613427162, 0.001009755884297192, -0.17405156791210175, -0.03370755538344383, -0.1320088803768158, -0.06987634301185608, -0.1063096895813942, 0.018954230472445488, -0.21621964871883392, -0.06493125110864639, 0.03087276965379715, 0.05685269460082054, -0.0065269977785646915, 0.06188305839896202, -0.2198064923286438, 0.1148643046617508, 0.09748876094818115, 0.18308791518211365, -0.08688949793577194, -0.15817144513130188, -0.1490248292684555, 0.11505576223134995, -0.09047843515872955, -0.07026784121990204, 0.1639004349708557, -0.10964387655258179, -0.12489084899425507, 0.12811607122421265, 0.03840998560190201, 0.12398138642311096, -0.05470653995871544, -0.08244778960943222, -0.07592056691646576, 0.19423876702785492, 0.16843068599700928, 0.21058174967765808, -0.0489509217441082, 0.060045842081308365, -0.17430980503559113, -0.024293890222907066, -0.09828642010688782, 0.2629656195640564, 0.014621545560657978, -0.1279231607913971, -0.06212274357676506, 0.18360096216201782, 0.12036728113889694, 0.012061608023941517, 0.18304182589054108, -0.07235481590032578, -0.177174374461174, 0.18529674410820007, 0.043601468205451965, -0.21210350096225739, 0.19790196418762207, 0.03572680801153183, -0.04474211111664772, -0.020643820986151695, 0.03510797768831253, 0.04336715489625931, 0.02480608969926834, -0.028863390907645226, -0.07068432867527008, 0.029733672738075256, 0.11309865117073059, 0.11646012216806412, 0.12228352576494217, -0.1556192934513092, -0.13487857580184937, -0.15368536114692688, -0.19655579328536987, -0.2826148271560669, 0.06003306806087494, 0.02760307863354683, -0.029069164767861366, 0.06570800393819809, -0.08122750371694565, 0.057811737060546875, 0.021996894851326942, -0.09974012523889542, -0.013220365159213543, -0.09863325208425522, -0.015457693487405777, 0.028293225914239883, -0.028232254087924957, 0.0804036408662796, -0.03077109344303608, 0.08349128067493439, 0.15731622278690338, 0.28725266456604004, 0.0040113115683197975, 0.015724917873740196, -0.03192101791501045, 0.003282300429418683, 0.10077068209648132, -0.08051159977912903, 0.04514763876795769, -0.10579118877649307, -0.09864959865808487, -0.03859664872288704, -0.08846357464790344, -0.24788586795330048, -0.1337265968322754, -0.16264566779136658, -0.06703172624111176, 0.05351836606860161, 0.00437986571341753, 0.048242393881082535, 0.12396525591611862, 0.06082707270979881, -0.1728072613477707, 0.04194677621126175, 0.220298632979393, 0.2553306519985199, -0.16400045156478882, 0.047511644661426544, -0.08682988584041595, -0.003913033287972212, -0.008152782917022705, -0.2776719033718109, 0.029364362359046936, 0.03688153997063637, -0.1905442327260971, -0.04723373055458069, 0.03064911812543869, 0.14217989146709442, -0.08491694927215576, -0.014370014891028404, -0.02426888234913349, 0.11077190935611725, 0.0007045521051622927, 0.20365986227989197, 0.017049843445420265, 0.006418063770979643, -0.3107716739177704, 0.06324601173400879, -0.02837325446307659, 0.12893415987491608, -0.012168564833700657, -0.18351522088050842, -0.13589641451835632, 0.18375316262245178, -0.06707799434661865, -0.27935299277305603, 0.006679142825305462, -0.05886638164520264, -0.3069498836994171, 0.12205890566110611, -0.21965691447257996, -0.3344017565250397, -0.08797744661569595, -0.11464069038629532, -0.09642983227968216, -0.08139167726039886, 0.17073117196559906, 0.1027972623705864, -0.04252462089061737, -0.03989574313163757, -0.27969929575920105, 0.2092844694852829, 0.13557463884353638, 0.2745712697505951, -0.016273129731416702, -0.15328817069530487, -0.010945355519652367, 0.09330058097839355, 0.01113981194794178, -0.24583348631858826, 0.04599034786224365, -0.1995019167661667, -0.18933656811714172, 0.11814386397600174, -0.06413605064153671, 0.16891367733478546, -0.008223955519497395, -0.013776993378996849, -0.2123693972826004, -0.023805102333426476, 0.012148567475378513, 0.19440247118473053, 0.05461990088224411, 0.042499836534261703, -0.1388753205537796, 0.1509837508201599, -0.08933199197053909, 0.005606678780168295, -0.024577178061008453, -0.13204175233840942, -0.059256188571453094, -0.011222808621823788, -0.12096573412418365, -0.24689942598342896, 0.16023266315460205, -0.07305113226175308, -0.019747786223888397, 0.1761426329612732, 0.022650588303804398, -0.1262931227684021, 0.04209723323583603, -0.08742047846317291, -0.11176527291536331, 0.15806910395622253, -0.07126408815383911, 0.2512129545211792, -0.10361684113740921, -0.2629426121711731, -0.050734829157590866, 0.14498791098594666, 0.25286030769348145, -0.18280218541622162, 0.05125056579709053, -0.0478595532476902, 0.13212205469608307, 0.17111414670944214, -0.19899716973304749, 0.0916537418961525, 0.10675818473100662, -0.16349828243255615, 0.09526831656694412, 0.005782290827482939, 0.20935526490211487, -0.07895767688751221, -0.09469021111726761, -0.09596384316682816, 0.07070361822843552, -0.06450352817773819, 0.1329907774925232, 0.037658900022506714, -0.06186176463961601, -0.08300911635160446, -0.0028008962981402874, 0.07972751557826996, 0.015600533224642277, -0.129875048995018, -0.11768603324890137, 0.011689425446093082, 0.004756593145430088, 0.0446472093462944, -0.19098666310310364, 0.1858794391155243, 0.18584945797920227, -0.22936977446079254, -0.07052333652973175, -0.06164867803454399, -0.12126766890287399, 0.008457508869469166, -0.048231326043605804, -0.17182154953479767, 0.0714256539940834, -0.030769385397434235, 0.1501404345035553, -0.06219218298792839, -0.10612084716558456, 0.07241212576627731, 0.32145920395851135, -0.2198791801929474, -0.0872221440076828, -0.26376426219940186, 0.23250487446784973, -0.041647106409072876, 0.07174030691385269, 0.05657659098505974, 0.00333323422819376, 0.23724131286144257, -0.10086537897586823, 0.06089438870549202, 0.17797131836414337, 0.0011239262530580163, -0.07611703872680664, -0.33499467372894287, 0.006039437837898731, -0.00920084211975336, 0.23812666535377502, -0.21724368631839752, 0.04167090728878975, -0.24226154386997223, 0.0629366785287857, 0.18488183617591858, 0.264255166053772, 0.0034795929677784443, -0.000937300268560648, -0.24784959852695465, 0.002838467014953494, 0.07474362850189209, 0.3223505914211273, -0.14439547061920166, -0.05191459134221077, 0.256741464138031, 0.0491991750895977, 0.05445215478539467, 0.09138959646224976, -0.2180473804473877, 0.1297028660774231, 0.19854673743247986, -0.16156089305877686, 0.11940700560808182, 0.26198068261146545, 0.023892564699053764, 0.06122753396630287, -0.1931387037038803, -0.012860913760960102, -0.22314681112766266, 0.19425489008426666, -0.04850636422634125, 0.11716507375240326, -0.19451987743377686, 0.22175905108451843, 0.08382351696491241, 0.19718612730503082, -0.20995566248893738, -0.10870692878961563, -0.03244119510054588, 0.04762270301580429, -0.11770621687173843, 0.0023531904444098473, -0.013144103810191154, -0.008507846854627132, -0.13015078008174896, 0.07586956769227982, -0.10599827766418457, -0.06870473176240921, 0.016654733568429947, -0.01012754999101162, -0.01543036662042141, 0.21489012241363525, -0.0010315085528418422, 0.07444293797016144, 0.0170235987752676, 0.07623381167650223, -0.13485713303089142, 0.22507618367671967, -0.02367841638624668, -0.07580766826868057, -0.13350488245487213, -0.15591993927955627, 0.19035109877586365, -0.11327649652957916, -0.18493513762950897, 0.05797204375267029, 0.002766374032944441, -0.016491753980517387, 0.11212722212076187, -0.0750604122877121, -0.002154935384169221, 0.029849069193005562, -0.1467558890581131, -0.07117975503206253, -0.16610148549079895, 0.15992800891399384, -0.09915844351053238, 0.1259191334247589, -0.01686856523156166, -0.02420968748629093, -0.23169876635074615, 0.13654100894927979, -0.04555393382906914, 0.2583344578742981, -0.10788020491600037, 0.0024579393211752176, 0.21736925840377808, -0.05496648699045181, 0.15468692779541016, 0.03797231242060661, -0.12149176746606827, -0.09482133388519287, -0.10356778651475906, 0.13888019323349, -0.08499199151992798, 0.1428319364786148, -0.10526689141988754, -0.06982934474945068, -0.03363319858908653, -0.11636684089899063, 0.0365641824901104, 0.2587358057498932, -0.0521220900118351, 0.08393481373786926, -0.1754143387079239, 0.12620995938777924, -0.10864736884832382, 0.1109936311841011, -0.03172292187809944, 0.07325749099254608, 0.18267804384231567, 0.10326330363750458, 0.01661030948162079, 0.13413240015506744, 0.10425090044736862, -0.0018677101470530033, 0.2653000056743622, -0.09286018460988998, 0.01899912767112255, 0.1284954845905304, 0.06360222399234772, 0.08888158947229385, -0.1261480748653412, -0.08422476053237915, 0.11514150351285934, -0.04681633785367012, 0.12859760224819183, -0.06965522468090057, 0.21494385600090027, 0.10400597006082535, -0.010872893035411835, -0.257683664560318, 0.13002385199069977, -0.1284099519252777, -0.08822313696146011, 0.052480682730674744, -0.085251085460186, -0.07111961394548416, -0.09622454643249512, 0.04422546550631523, 0.01626894436776638, -0.054070860147476196, 0.06280933320522308, 0.04736464098095894, 0.004824766889214516, 0.11490118503570557, 0.10358032584190369, -0.09997475892305374, -0.12260368466377258, -0.23337216675281525, 0.19981442391872406, -0.02527005784213543, 0.1217542290687561, -0.0011845113476738334, 0.08504210412502289, 0.009266767650842667, 0.155753031373024, -0.1145748719573021, -0.13037706911563873, -0.04633666202425957, -0.1050768569111824, -0.08846278488636017, 0.16583192348480225, -0.13650372624397278, -0.03361093997955322, -0.04281992465257645, -0.04569399356842041, -0.003861886914819479, 0.0018800216494128108, -0.005683558061718941, -0.021870490163564682, 0.06125495210289955, 0.10843416303396225, -0.15744276344776154, 0.07704297453165054, -0.19733068346977234, -0.024504689499735832, 0.03437589854001999, 0.20542263984680176, -0.13237150013446808, 0.03847354277968407, 0.215189591050148, 0.004193266853690147, -0.10392298549413681, 0.07702205330133438, -0.1350528746843338, -0.139719158411026, -0.08708015829324722, 0.19503913819789886, 0.1458456963300705, 0.12334558367729187, -0.019721249118447304, -0.030932754278182983, 0.019579559564590454, 0.03243531659245491, -0.071067675948143, 0.11135543882846832, 0.002508222358301282, -0.14043624699115753, 0.03817552328109741, 0.1385909467935562, -0.08161922544240952, 0.0603649728000164, 0.03596937656402588, -0.1352510154247284, 0.05130564048886299, -0.03635775297880173, -0.14800266921520233, 0.1690635234117508, -0.01708678901195526, 0.060693997889757156, -0.0026569124311208725, 0.05234146490693092, -0.11293909698724747, 0.23292553424835205, -0.22834494709968567, -0.1533702313899994, -0.008220830000936985, 0.08260532468557358, 0.016961075365543365, -0.07748804241418839, -0.1257694661617279, -0.056295379996299744, -0.12412349134683609, 0.06450316309928894, 0.038527775555849075, -0.012956250458955765, 0.01688096672296524, 0.10907629877328873, 0.09244412183761597, -0.045206692069768906, -0.04206698387861252, -0.09697864204645157, -0.06600993126630783, -0.02113570086658001, -0.00930771790444851, 0.4770873785018921, -0.4385475218296051, 0.7402045726776123, -0.7654743790626526, -0.0024426341988146305, 0.9063536524772644, 0.9318770170211792, -0.5185044407844543, 0.1333225518465042, 0.032602112740278244, -0.5191832184791565, -0.2625464200973511, 0.35698550939559937, -0.708103597164154, 0.13938598334789276, 0.4650036096572876, -0.11901923269033432, 0.21365009248256683, -0.06655324250459671, 0.11035329103469849, 0.20044299960136414, -0.10768552124500275, 0.085301972925663, -0.06392055749893188, -0.059252019971609116, -0.08582936227321625, 0.10383220762014389, -0.05678329989314079, 0.11253378540277481, 0.030702808871865273, 0.10431887209415436, -0.08407556265592575, 0.021123742684721947, -0.11228562891483307, -0.2027658224105835, 0.08500290662050247, 0.07300137728452682, -0.08125001937150955, -0.07228139787912369, 0.08968187123537064, -0.023938661441206932, 0.17339953780174255, -0.0506131537258625, 0.059407565742731094, 0.06463849544525146, -0.08546237647533417, 0.1173919141292572, 0.18255719542503357, -0.003981483168900013, 0.11199479550123215, -0.02233879454433918, 0.23379813134670258, -0.16285718977451324, -0.22138656675815582, 0.04721703380346298, -0.1672644019126892, -0.0531766377389431, -0.17413508892059326, 0.2549593448638916, -0.1863791048526764, 0.1420927196741104, 0.3171851336956024, 0.040663450956344604, -0.04910401999950409, 0.20267409086227417, -0.13017863035202026, -0.0718923807144165, -0.133668914437294, -0.006641335319727659, 0.09345041960477829, 0.009316084906458855, -0.05209488421678543, -0.225625678896904, 0.045073896646499634, -0.06383675336837769, 0.014233731664717197, 0.1708889752626419, 0.22502298653125763, -0.20375193655490875, -0.03683262690901756, -0.13136409223079681, -0.28947633504867554, -0.2194240689277649, 0.1673542857170105, 0.17759962379932404, 0.1326398402452469, 0.10674122720956802, -0.1617998331785202, 0.06700188666582108, 0.2293851375579834, -0.1593436598777771, 0.20878922939300537, -0.019841572269797325, 0.14058621227741241, -0.1312313973903656, 0.08666153252124786, -0.20556522905826569, -0.041130151599645615, 0.09228646755218506, 0.048403915017843246, 0.2564902603626251, 0.2544988691806793, 0.21553300321102142, 0.1078488901257515, 0.1979856789112091, -0.014342387206852436, -0.23458850383758545, -0.08910319954156876, -0.042237844318151474, -0.16309240460395813, 0.12172996997833252, 0.11973240226507187, 0.0987856313586235, 0.13968637585639954, 0.20389211177825928, 0.17092791199684143, -0.21774709224700928, -0.22381934523582458, 0.05430597439408302, -0.06309715658426285, 0.021351676434278488, -0.35434389114379883, -0.17085915803909302, 0.24212773144245148, 0.2857731878757477, -0.1362982839345932, 0.02835765667259693, -0.15010559558868408, 0.27345049381256104, 0.029203426092863083, 0.3538147807121277, -0.29823872447013855, -0.25974807143211365, 0.2504083514213562, 0.3381657898426056, 0.15827037394046783, 0.21296241879463196, -0.13693144917488098, 0.16059714555740356, -0.26879796385765076, 0.0739763006567955, -0.23107443749904633, -0.0010470548877492547, 0.08664999902248383, -0.15707406401634216, 0.03719542175531387, -0.33629223704338074, -0.15270672738552094, 0.1565151959657669, -0.15934166312217712, -0.26296618580818176, -0.17519427835941315, -0.29692310094833374, -0.30604368448257446, 0.16190095245838165, 0.19353264570236206, 0.04720015451312065, -0.040430765599012375, -0.053568825125694275, -0.0278528593480587, -0.1658545732498169, 0.05773669853806496, 0.24430160224437714, -0.23249183595180511, -0.3072182536125183, 0.03516381233930588, 0.24189728498458862, -0.010361251421272755, 0.05855882912874222, 0.22446946799755096, 0.13185302913188934, 0.03355523943901062, 0.228948175907135, 0.1604006290435791, -0.050729624927043915, -0.05596788227558136, 0.06894010305404663, 0.2697775661945343, -0.33061230182647705, 0.18320153653621674, -0.0593731626868248, -0.32686111330986023, -0.045053429901599884, -0.1286800652742386, -0.018777897581458092, -0.23051466047763824, -0.14792048931121826, 0.0255126915872097, -0.07990383356809616, 0.21521461009979248, -0.05447482317686081, 0.15679281949996948, 0.005867395084351301, -0.06335267424583435, 0.13607023656368256, 0.022668926045298576, 0.002938436344265938, -0.1303280144929886, -0.027391083538532257, 0.03782310336828232, -0.021000875160098076, -0.17296816408634186, 0.047408729791641235, -0.22872738540172577, -0.07821393013000488, 0.16193465888500214, -0.16253617405891418, -0.2049299031496048, -0.032147642225027084, -0.011985278688371181, 0.04473571106791496, 0.1039295420050621, 0.08157481253147125, -0.1825309842824936, -0.02435978315770626, 0.060890521854162216, 0.1536904275417328, -0.08703730255365372, -0.141338512301445, 0.11615362018346786, 0.20722681283950806, -0.10411456972360611, -0.1522769033908844, 0.16693785786628723, -0.033948685973882675, -0.19685877859592438, -0.19206196069717407, 0.13923075795173645, -0.055346712470054626, 0.14712423086166382, 0.12528757750988007, -0.06845225393772125, -0.0655580386519432, -0.15129496157169342, -0.039554305374622345, 0.08851596713066101, -0.16914059221744537, -0.011085599660873413, -0.27156952023506165, 0.18097595870494843, -0.16737696528434753, 0.25546687841415405, -0.11038924753665924, -0.11402755975723267, 0.10643458366394043, -0.008663480170071125, 0.0951279029250145, 0.11857859045267105, -0.27607420086860657, 0.09261050820350647, -0.030957503244280815, -0.07770883291959763, 0.14908450841903687, 0.21874628961086273, -0.24804435670375824, -0.005174709018319845, 0.28106361627578735, 0.042082641273736954, 0.27833741903305054, -0.12837731838226318, -0.14314523339271545, 0.33414673805236816, 0.18966864049434662, 0.19784396886825562, -0.06415174901485443, -0.1306498497724533, -0.11998751014471054, -0.2676672339439392, 0.11008703708648682, 0.10627584904432297, 0.10417249798774719, 0.05778754875063896, 0.15358157455921173, -0.1453191488981247, 0.2069132775068283, -0.21004872024059296, -0.12197016179561615, -0.057117853313684464, 0.11495859175920486, 0.011425129137933254, 0.0896795243024826, -0.18403908610343933, 0.08706311136484146, -0.014016758650541306, 0.03907383233308792, 0.15866243839263916, 0.1021161898970604, -0.02518663927912712, 0.010337973944842815, -0.044427596032619476, -0.13749893009662628, 0.08667737990617752, -0.06404461711645126, 0.09936783462762833, -0.012497512623667717, 0.029208777472376823, -0.10040116310119629, -0.1216968223452568, 0.009179442189633846, -0.04376246780157089, -0.019487963989377022, -0.027157694101333618, 0.052559684962034225, 0.026762861758470535, -0.2069830298423767, 0.26156681776046753, -0.10257319360971451, -0.10098730027675629, -0.011481259949505329, -0.049143508076667786, -0.14674444496631622, 0.03525496646761894, 0.019410111010074615, 0.1520843654870987, -0.2408396601676941, -0.14186342060565948, 0.010597840882837772, -0.06536196172237396, -0.05073175206780434, 0.056800294667482376, -0.16687490046024323, -0.07193205505609512, -0.014720230363309383, -0.09965405613183975, -0.10625471919775009, 0.021661696955561638, -0.19283658266067505, -0.09016233682632446, 0.06930768489837646, -0.14458312094211578, -0.07274479418992996, 0.14156700670719147, -0.10908553749322891, 0.07472965121269226, -0.12879088521003723, 0.036694638431072235, -0.02049168199300766, 0.015425060875713825, 0.1606169193983078, -0.16379739344120026, -0.039684731513261795, 0.03341913968324661, -0.04786870256066322, -0.01830737292766571, 0.1589803844690323, -0.12433504313230515, 0.043697018176317215, -0.09312666952610016, 0.05733290687203407, -0.136320561170578, 0.09556767344474792, -0.12578220665454865, -0.13123489916324615, -0.07181176543235779, 0.12093542516231537, -0.10885214805603027, -0.05192670598626137, 0.1006302610039711, -0.07430234551429749, -0.050975263118743896, -0.10257784277200699, -0.008280879817903042, 0.002034893725067377, 0.09198805689811707, 0.0383487232029438, -0.1385863721370697, 0.03811894729733467, 0.031128477305173874, 0.03268803283572197, -0.11171728372573853, -0.04485809803009033, 0.1724441796541214, -0.03347865492105484, -0.03180685266852379, 0.04259457811713219, 0.03782754763960838, 0.0649695172905922, 0.03704613819718361, -0.012204935774207115, -0.04631781205534935, 0.057214412838220596, -0.06446144729852676, 0.10435821861028671, -0.20856593549251556, -0.051266252994537354, -0.14412295818328857, -0.008020457811653614, 0.14547450840473175, 0.15918496251106262, -0.10540860146284103, -0.014734798111021519, 0.02388383448123932, 0.07154317200183868, 0.12407789379358292, -0.0019716033712029457, -0.0679912194609642, 0.12904015183448792, -0.045629385858774185, 0.0926685556769371, -0.03359784930944443, 0.16209423542022705, 0.04133594036102295, 0.1327141672372818, -0.1570759266614914, -0.08329755067825317, -0.075554259121418, -0.011207046918570995, 0.06528348475694656, -0.008726363070309162, -0.17168483138084412, -0.03456855192780495, -0.060402434319257736, 0.09030722081661224, -0.11251785606145859, -0.1137121319770813, -0.22742976248264313, 0.11335190385580063, 0.1326519250869751, -0.09108040481805801, 0.13020803034305573, 0.0783393457531929, -0.03922983258962631, -0.012036878615617752, -0.020692775025963783, -0.05298608914017677, 0.05951976031064987, -0.08559416979551315, 0.011344315484166145, 0.09623316675424576, -0.10937149822711945, 0.1803349256515503, 0.12069563567638397, 0.009674634784460068, -0.07665702700614929, 0.10481777042150497, -0.044924166053533554, 0.11168581247329712, 0.06669928878545761, 0.09863091260194778, -0.2038193792104721, -0.08590567857027054, 0.09705899655818939, 0.06520025432109833, -0.08060438930988312, 0.011460390873253345, -0.1033039316534996, -0.03538137674331665, -0.05484741926193237, 0.2679174542427063, -0.03569134324789047, 0.08700137585401535, 0.0894489586353302, 0.10350939631462097, -0.15900613367557526, 0.17082710564136505, 0.0088168540969491, 0.1320209950208664, -0.2429966926574707, 0.12326634675264359, 0.12527355551719666, -0.08877155929803848, 0.017106492072343826, 0.1335999071598053, -0.2317153513431549, 0.034026410430669785, 0.11966463923454285, -0.009669728577136993, 0.2093413770198822, 0.08116360008716583, 0.026617098599672318, 0.0013548865681514144, 0.08284790813922882, -0.1984858214855194, -0.0915716215968132, -0.009207909926772118, -0.1313435584306717, 0.15195433795452118, 0.029659181833267212, 0.17619124054908752, 0.0704912543296814, -0.09385880827903748, -0.026975121349096298, 0.03518764302134514, 0.04995739087462425, 0.08338567614555359, -0.05062790587544441, -0.08635329455137253, 0.07621986418962479, -0.034883640706539154, -0.13196519017219543, 0.0726424977183342, 0.08542552590370178, -0.06435668468475342, -0.05667638033628464, -0.11871656775474548, -0.08537733554840088, 0.10962703824043274, -0.12407500296831131, 0.11594267189502716, -0.11823748052120209, 0.014174861833453178, 0.05819230154156685, 0.17537978291511536, 0.09620417654514313, 0.0549938939511776, 0.0005819484940730035, -0.031712085008621216, -0.07844816893339157, -0.10721278935670853, 0.012893429026007652, 0.1041925922036171, -0.11686056852340698, 0.03062301315367222, -0.13333892822265625, 0.002563065616413951, 0.11018120497465134, -0.20524530112743378, -0.15167053043842316, 0.12313494086265564, 0.005322309210896492, -0.02856050245463848, 0.028200536966323853, -0.05257822200655937, -0.1496351808309555, -0.12240353971719742, 0.12759658694267273, 0.044532518833875656, -0.06840617209672928, -0.08493025600910187, -0.06683788448572159, -0.1246996745467186, -0.10324027389287949, 0.13318152725696564, 0.1045272946357727, -0.0790799930691719, -0.0075845783576369286, -0.02427445352077484, -0.001376271597109735, 0.08623673021793365, 0.0556754432618618, -0.06612037122249603, 0.0996372401714325, 0.03057907335460186, 0.09039284288883209, -0.17447011172771454, 0.06381016224622726, 0.045689091086387634, -0.16327370703220367, -0.06739912182092667, 0.12852779030799866, -0.17661385238170624, 0.20224769413471222, 0.10278306156396866, 0.192184180021286, -0.10206792503595352, 0.19594959914684296, -0.02391272410750389, 0.013184263370931149, 0.024463985115289688, 0.10264571011066437, -0.020562101155519485, 0.20412376523017883, 0.06648702174425125, 0.07796739786863327, 0.014226268976926804, 0.0884752869606018, -0.022596558555960655, -0.09361224621534348, -0.13346657156944275, 0.06674408167600632, -0.09162607043981552, 0.14791423082351685, -0.22263747453689575, -0.005498174112290144, -0.07862107455730438, 0.08293460309505463, 0.08125456422567368, -0.043395109474658966, 0.08720040321350098, 0.10029377788305283, 0.17576034367084503, -0.10483964532613754, -0.005237133242189884, -0.18558846414089203, 0.25803548097610474, 0.1480841338634491, -0.010501649230718613, 0.014820781536400318, -0.0071660056710243225, 0.07433338463306427, 0.061740126460790634, 0.13758449256420135, 0.29616132378578186, -0.007418456953018904, 0.1626996546983719, -0.14373251795768738, 0.13890708982944489, -0.1061086431145668, 0.2377505898475647, -0.15456338226795197, 0.05323028191924095, -0.2765326499938965, -0.05088839679956436, 0.02589012309908867, 0.08428138494491577, -0.024766184389591217, 0.14191238582134247, -0.23792625963687897, 0.14958198368549347, -0.0549473874270916, -0.10195006430149078, 0.10543046146631241, 0.10435757786035538, 0.024450670927762985, 0.2626340389251709, -0.008010986261069775, 0.012275035493075848, -0.12347030639648438, -0.05602248013019562, -0.12461753934621811, 0.10613663494586945, -0.1538025587797165, 0.11510983109474182, -0.13603325188159943, -0.10992807149887085, -0.02802363410592079, 0.11615105718374252, 0.096379354596138, -0.05788346007466316, -0.11823686212301254, -0.12196812033653259, -0.029626287519931793, 0.13306541740894318, -0.06016694754362106, -0.08743595331907272, -0.0718882605433464, 0.01174202375113964, -0.16285419464111328, -0.12042603641748428, 0.10623712092638016, 0.009066086262464523, -0.1051676794886589, -0.03467315807938576, -0.16425615549087524, 0.012997044250369072, 0.010743075050413609, 0.03718047961592674, -0.07371719181537628, 0.033648304641246796, -0.22666426002979279, 0.16723233461380005, 0.11826478689908981, 0.13061340153217316, -0.04926135763525963, 0.11930191516876221, -0.2370598167181015, 0.022027606144547462, -0.045760270208120346, -0.1232074722647667, 0.05432579293847084, -0.08958878368139267, -0.058787569403648376, 0.013719986192882061, -0.1438182294368744, -0.0457739420235157, -0.10953974723815918, 0.10333196073770523, 0.010730475187301636, 0.16807731986045837, -0.07739635556936264, 0.09401600062847137, 0.0027271141298115253, 0.14398296177387238, 0.20864027738571167, -0.11815521866083145, -0.15495595335960388, -0.11129169166088104, -0.04824075475335121, 0.15548299252986908, 0.119615837931633, 0.06321164220571518, 0.11952400207519531, 0.030853692442178726, -0.11062094569206238, 0.1008153110742569, 0.1578792780637741, 0.012681802734732628, -0.12353935837745667, -0.007185535971075296, 0.042426761239767075, 0.09577373415231705, 0.1440429985523224, 0.07010641694068909, -0.1277284473180771, -0.19358904659748077, 0.13793040812015533, -0.01242618728429079, 0.020097211003303528, 0.12169288098812103, 0.02560029923915863, 0.07383830845355988, -0.07883434742689133, 0.0629260316491127, 0.08681615442037582, -0.07721558213233948, 0.049086377024650574, 0.05831899121403694, 0.08232762664556503, -0.018129773437976837, 0.17814432084560394, -0.04489564150571823, -0.035342488437891006, -0.04291718080639839, -0.16931740939617157, -0.036630090326070786, -0.034819282591342926, -0.07406940311193466, -0.0199274979531765, -0.1541445255279541, -0.06156904250383377, 0.035027261823415756, 0.08175086230039597, -0.026260195299983025, -0.07123935967683792, 0.06830310821533203, 0.10471288859844208, -0.17324483394622803, -0.001298111630603671, 0.027433380484580994, -0.05992984026670456, 0.13300028443336487, -0.010178432799875736, 0.0806012824177742, -0.015376362949609756, -0.012010973878204823, -0.024815276265144348, -0.09272762387990952, 0.014719733968377113, 0.04615127295255661, -0.00279836799018085, 0.11617371439933777, -0.0436614491045475, 0.016880223527550697, 0.07809615880250931, -0.08075980097055435, 0.13400357961654663, 0.033827412873506546, -0.1014283299446106, -0.08432672917842865, 0.03792983293533325, -0.1468731313943863, 0.04116925597190857, 0.16928426921367645, -0.04746238887310028, -0.027012065052986145, 0.030037563294172287, -0.09023323655128479, -0.08428959548473358, -0.06152312830090523, -0.1179581731557846, 0.04116908833384514, 0.04615571349859238, -0.12098876386880875, -0.12211260944604874, 0.11412640661001205, 0.006546379067003727, -0.011371247470378876, -0.13239595293998718, 0.05120963603258133, 0.09721651673316956, -0.1272483915090561, -0.13786748051643372, 0.10060423612594604, -0.1146945208311081, 0.09234210103750229, -0.038987621665000916, 0.04538354650139809, -0.11710461229085922, -0.05064927786588669, -0.02505568414926529, 0.03840864077210426, 0.027118338271975517, -0.16059648990631104, -0.08114928007125854, 0.059889838099479675, 0.03148891031742096, -0.014022625051438808, 0.12382323294878006, 0.11346910148859024, -0.17817234992980957, 0.062079641968011856, 0.12076985836029053, 0.08246191591024399, 0.012346536852419376, 0.08770451694726944, -0.13151316344738007, -0.2060113102197647, -0.044994037598371506, 0.24621175229549408, -0.005729475058615208, -0.11631458252668381, 0.23200829327106476, 0.021094519644975662, -0.07870854437351227, 0.1283089816570282, -0.015471518971025944, -0.020084306597709656, 0.09861531853675842, -0.04161013662815094, 0.02213568240404129, 0.15491092205047607, 0.03967529162764549, -0.07272332161664963, -0.15013054013252258, -0.16684143245220184, 0.06127336993813515, 0.19361846148967743, -0.01860084943473339, -0.05642400309443474, -0.039515722543001175, -0.03296780213713646, -0.17721666395664215, -0.03787221759557724, 0.07211703807115555, 0.1257558912038803, 0.02428293041884899, 0.017246447503566742, -0.002410582033917308, 0.09304394572973251, 0.027910815551877022, -0.09261610358953476, -0.017052220180630684, 0.2562890946865082, 0.05779441446065903, -0.047978103160858154, -0.13049696385860443, 0.11892487853765488, 0.10921750217676163, 0.2526355981826782, 0.08827172964811325, 0.16603738069534302, -0.2015523761510849, -0.09737807512283325, -0.23968085646629333, 0.06735650449991226, -0.059728480875492096, -0.01346618216484785, -0.04919646680355072, -0.08020182698965073, -0.04645607993006706, -0.057903386652469635, -0.01663578301668167, -0.05516327917575836, -0.1474982351064682, 0.08007793873548508, 0.17975027859210968, 0.03532574325799942, -0.032442305237054825, 0.13167832791805267, -0.04239308461546898, -0.12084115296602249, -0.18509142100811005, 0.08575764298439026, 0.08739292621612549, -0.038476500660181046, 0.0838782861828804, -0.09162651747465134, 0.12728987634181976, 0.10033214092254639, 0.026766337454319, 0.12277952581644058, 0.08991054445505142, -0.07538440078496933, 0.029877448454499245, 0.05967727303504944, -0.02327929623425007, 0.16313111782073975, -0.028779741376638412, -0.1152239590883255, -0.0895225778222084, -0.13969816267490387, 0.15122325718402863, -0.07458100467920303, -0.10461432486772537, -0.04310711473226547, -0.15076205134391785, -0.13464069366455078, 0.08012646436691284, -0.05658175051212311, 0.11284949630498886, 0.08838047832250595, -0.028338532894849777, 0.04424387961626053, -0.08314114809036255, 0.14612625539302826, 0.1897251456975937, 0.016823457553982735, 0.1662178337574005, -0.1289525330066681, -0.029578469693660736, 0.10150278359651566, -0.08273475617170334, 0.061061084270477295, -0.01849369704723358, -0.030212733894586563, -0.11484263837337494, 0.10457392781972885, -0.062463052570819855, -0.022861581295728683, 0.011706527322530746, 0.055499546229839325, 0.029281340539455414, -0.07903601974248886, -0.06041242927312851, 0.037651240825653076, 0.03263549879193306, 0.1262807697057724, 0.06053081154823303, 0.10196342319250107, -0.10628427565097809, 0.0849137008190155, -0.044361475855112076, -0.011800129897892475, 0.02099940925836563, -0.024279961362481117, 0.04410874471068382, 0.12415359169244766, -0.09235653281211853, -0.014765202067792416, -0.14593541622161865, -0.0009600343182682991, 0.1103421002626419, 0.05937587842345238, 0.10813876986503601, 0.02033279277384281, -0.03285612910985947, 0.03201421722769737, -0.028339384123682976, 0.10862520337104797, 0.0823432132601738, -0.10342983156442642, 0.13695399463176727, -0.0071581266820430756, 0.028923334553837776, -0.04199858009815216, -0.025438517332077026, 0.04986967146396637, -0.06500673294067383, -0.12800027430057526, -0.053671713918447495, -0.03471111133694649, 0.10499893128871918, 0.1061820238828659, -0.09802986681461334, -0.021930886432528496, -0.02894541248679161, -0.1089523658156395, 0.0005248315865173936, -0.06067269295454025, 0.11648310720920563, -0.11493479460477829, -0.11093626916408539, -0.021836133673787117, 0.05528051406145096, 0.16000942885875702, -0.028926020488142967, -0.10493000596761703, 0.027797088027000427, 0.1610710322856903, -0.004584685433655977, -0.02193746529519558, 0.06893360614776611, 0.054097555577754974, 0.0896449014544487, 0.1073807030916214, 0.1817014366388321, 0.07419001311063766, -0.20274430513381958, 0.01794455014169216, 0.0011535774683579803, 0.15075771510601044, 0.012140542268753052, 0.13731154799461365, -0.2606007158756256, 0.039148155599832535, -0.2875734269618988, 0.05721898004412651, -0.0804753229022026, -0.0457252599298954, 0.08563277870416641, -0.011211931705474854, -0.08182457089424133, 0.2411300390958786, 0.050466138869524, 0.011731607839465141, 0.12155505269765854, 0.02828679420053959, -0.014560526236891747, 0.1865536868572235, -0.07265827804803848, -0.0788666158914566, -0.009242787957191467, -0.16081564128398895, -0.12314610928297043, -0.001068802084773779, 0.12663710117340088, 0.12135692685842514, -0.12004127353429794, -0.15973025560379028, 0.11365345865488052, -0.11121854186058044, 0.07625386863946915, 0.06447401642799377, 0.10719935595989227, -0.026119982823729515, 0.1139223650097847, 0.12244211882352829, 0.0493004247546196, 0.08692432194948196, -0.08093203604221344, -0.0660112127661705, 0.030975976958870888, 0.046666890382766724, 0.006457318551838398, -0.2357039600610733, -0.08613267540931702, 0.034393083304166794, 0.13250833749771118, -0.1574510633945465, 0.11101824045181274, -0.23240545392036438, -0.21929004788398743, -0.1561228632926941, 0.01937991753220558, 0.059679679572582245, -0.0758475512266159, 0.12090706080198288, 0.13454106450080872, -0.061352744698524475, 0.18062643706798553, -0.0029588299803435802, -0.10906645655632019, 0.06588525325059891, 0.07703423500061035, -0.12197507172822952, -0.07312615215778351, 0.07123832404613495, 0.012476206757128239, 0.13068591058254242, -0.0708218440413475, -0.02584461122751236, -0.030594011768698692, 0.08174573630094528, 0.08220256119966507, 0.08672694116830826, 0.0636867955327034, 0.1266077160835266, 0.08987823873758316, -0.021162481978535652, 0.08429417014122009, -0.07638868689537048, 0.0986427515745163, 0.11129643023014069, 0.13275429606437683, -0.069755919277668, -0.06410859525203705, 0.054990917444229126, 0.09481368958950043, 0.06652211397886276, 0.048106055706739426, 0.04022710397839546, -0.055642690509557724, -0.05533803999423981, 0.1806992143392563, 0.1928606480360031, -0.6319371461868286, 0.06072763353586197, -0.6221832633018494, -0.5938462018966675, -0.508229672908783, 1.0089526176452637, -0.9730316400527954, -0.5399137735366821, -0.9165536165237427, 0.272169828414917, -0.7847543358802795, 0.01881580427289009, -0.7491931915283203, -0.13111811876296997, -0.07914923131465912, 0.0025533358566462994, 0.1889738291501999, 0.22162340581417084, 0.022752346470952034, -0.25675153732299805, -0.021901866421103477, -0.2097744196653366, -0.07771029323339462, 0.047093939036130905, 0.12356501817703247, 0.016522536054253578, 0.15136194229125977, -0.023560740053653717, 0.012508396059274673, 0.06930695474147797, -0.09859777241945267, 0.017260544002056122, 0.029225071892142296, -0.1633165180683136, 0.09263599663972855, 0.03881203383207321, -0.10842694342136383, 0.1214655339717865, -0.17654813826084137, 0.08443888276815414, 0.2917774021625519, -0.136908158659935, 0.029953986406326294, 0.15547144412994385, 0.1155892089009285, -0.05715683475136757, -0.19503344595432281, 0.031052572652697563, 0.23524028062820435, 0.06767869740724564, 0.11057491600513458, 0.04957402125000954, 0.12694086134433746, -0.0971670150756836, 0.04013170301914215, -0.24088889360427856, -0.10113734751939774, -0.06068819388747215, 0.10789403319358826, 0.19633404910564423, 0.03985396772623062, 0.09173133969306946, 0.07053542137145996, -0.1748386174440384, -0.11803131550550461, -0.19192653894424438, -0.057216230779886246, -0.0688314288854599, -0.05364353954792023, -0.03979181870818138, 0.05662175267934799, 0.11053124815225601, 0.26936429738998413, 0.24342258274555206, -0.19207973778247833, 0.03645513579249382, -0.029433470219373703, 0.2883545458316803, 0.016811976209282875, -0.15640996396541595, -0.16129128634929657, 0.18327823281288147, 0.011441025882959366, -0.08956146240234375, 0.25367259979248047, 0.13497118651866913, -0.07059813290834427, -0.07508919388055801, 0.23701228201389313, -0.16074194014072418, -0.11135229468345642, -0.1322023868560791, -0.14760364592075348, -0.15847328305244446, -0.06661836057901382, -0.26961544156074524, -0.11743629723787308, 0.07358568161725998, -0.1484510600566864, -0.05023069679737091, -0.08065573871135712, 0.09182079136371613, 0.19845610857009888, -0.04104486107826233, -0.13496629893779755, -0.19727079570293427, -0.08284903317689896, 0.051672086119651794, 0.06554307043552399, 0.09995900839567184, -0.11868821084499359, 0.14539185166358948, -0.2894798815250397, 0.09019472450017929, 0.29665833711624146, -0.3316743075847626, -0.20360609889030457, 0.05479930713772774, -0.012823930010199547, -0.16833315789699554, 0.07522350549697876, 0.007497506681829691, -0.05722763389348984, -0.040424544364213943, 0.2839706242084503, 0.07225827127695084, 0.06788497418165207, 0.038554996252059937, 0.10167638957500458, 0.19797369837760925, -0.05640226602554321, -0.0467211939394474, 0.08789297193288803, -0.10647031664848328, 0.2565745711326599, -0.2586430013179779, 0.06044575944542885, -0.20858033001422882, 0.1485045999288559, 0.1942652314901352, 0.06324180215597153, 0.0383034311234951, 0.11034359782934189, -0.20308861136436462, -0.23254698514938354, -0.25876519083976746, -0.10437005758285522, -0.11475635319948196, -0.13822230696678162, 0.06506989151239395, 0.05066254734992981, 0.2627323567867279, -0.13690611720085144, 0.017257893458008766, 0.1303652971982956, -0.13999015092849731, 0.27904072403907776, -0.1637982428073883, -0.07674582302570343, 0.03825367987155914, 0.22807122766971588, 0.15826790034770966, -0.2217378169298172, 0.21709130704402924, 0.015684792771935463, 0.004790547303855419, -0.045257337391376495, 0.15315543115139008, 0.3311997354030609, 0.0968523770570755, 0.0006843845476396382, 0.13035964965820312, -0.20937564969062805, -0.08348935097455978, -0.10473547130823135, -0.15610474348068237, 0.07172276824712753, 0.009320448152720928, -0.055533770471811295, -0.06514612585306168, 0.0025297836400568485, 0.1864478588104248, 0.21519649028778076, -0.15720397233963013, 0.10692572593688965, 0.10483717918395996, 0.022771025076508522, -0.05158716067671776, 0.06828179210424423, 0.05642154812812805, 0.2027847170829773, -0.1727675497531891, -0.009870755486190319, -0.09905999153852463, -0.08986207097768784, 0.19303864240646362, 0.2318205088376999, -0.30075234174728394, 0.11263852566480637, 0.20346710085868835, -0.0019042073981836438, -0.15525807440280914, -0.03755130618810654, 0.1435852348804474, -0.10258150845766068, -0.14931465685367584, -0.2619389593601227, -0.16662324965000153, 0.17871302366256714, -0.014041809365153313, -0.03102988936007023, -0.17341046035289764, 0.12430119514465332, -0.13166704773902893, -0.060847144573926926, -0.25533056259155273, -0.22458454966545105, 0.2185482382774353, -0.23568977415561676, -0.02788715250790119, -0.035900045186281204, 0.1074315682053566, 0.020922953262925148, -0.17558220028877258, 0.18405909836292267, -0.21777337789535522, 0.05317847803235054, -0.14054347574710846, -0.0805673748254776, 0.17964981496334076, 0.17377889156341553, 0.06429550051689148, -0.08989349007606506, 0.2139967978000641, 0.038295771926641464, 0.0014935550279915333, -0.08440031856298447, 0.04102450609207153, 0.16922281682491302, 0.048676393926143646, -0.05107758194208145, -0.15647661685943604, -0.0958368331193924, 0.15319083631038666, 0.015304576605558395, -0.07769256830215454, 0.07507578283548355, -0.16058313846588135, 0.03333647921681404, -0.15051954984664917, 0.02938910387456417, 0.20779098570346832, 0.16694708168506622, 0.1680944710969925, -0.19761396944522858, -0.1531803011894226, -0.06469181180000305, -0.3027559518814087, 0.1044044941663742, -0.3392353355884552, -0.04021499305963516, 0.3502511978149414, -0.19298386573791504, 0.2376493662595749, -0.08277394622564316, 0.09280592203140259, -0.033198874443769455, -0.32052692770957947, -0.20196978747844696, -0.09177632629871368, 0.016955619677901268, 0.020581668242812157, -0.053774479776620865, -0.11881563067436218, -0.014398525469005108, 0.12681208550930023, 0.14483577013015747, 0.12610837817192078, 0.04417179524898529, 0.06898954510688782, -0.17817141115665436, 0.04483616724610329, -0.24826888740062714, -0.1070808544754982, -0.07533363252878189, 0.1268025040626526, -0.09807959944009781, 0.012458834797143936, 0.01292136125266552, -0.08645142614841461, -0.058842990547418594, 0.1179179698228836, -0.11083292961120605, 0.0925113782286644, 0.1235082671046257, -0.1086176335811615, -0.04758543148636818, 0.175789475440979, 0.01711442321538925, -0.0009510535164736211, 0.1247355043888092, 0.1681452989578247, -0.061822064220905304, 0.022795090451836586, -0.06692086905241013, 0.05745135620236397, -0.07237357646226883, 0.13204249739646912, -0.15626151859760284, -0.008690871298313141, 0.009025112725794315, 0.01637381874024868, -0.08448423445224762, 0.09505642205476761, -0.03611317276954651, 0.018658123910427094, -0.07532048225402832, -0.022253775969147682, -0.005244110245257616, -0.16576170921325684, 0.0691167488694191, 0.03568238019943237, -0.08965137600898743, 0.030749011784791946, 0.0034785547759383917, 0.06457209587097168, -0.10719695687294006, 0.25458627939224243, -0.1567934900522232, -6.480603042291477e-05, 0.018357401713728905, 0.20098388195037842, -0.09907140582799911, 0.006823108531534672, -0.07393179088830948, 0.11326026916503906, -0.10251310467720032, 0.10472378879785538, -0.1207212433218956, 0.19668740034103394, 0.0719127282500267, 0.16046647727489471, -0.05020352080464363, -0.09035852551460266, -0.11172164976596832, 0.1364520788192749, -0.03886691853404045, 0.01418375689536333, -0.049921151250600815, 0.03297073766589165, -0.12116248160600662, 0.11576573550701141, -0.0894206315279007, 0.1306733340024948, -0.04829521104693413, -0.09477195143699646, -0.036737922579050064, 0.02502838522195816, -0.014833975583314896, -0.14907608926296234, 0.12042438238859177, 0.1036832183599472, 0.05168861895799637, 0.1581006795167923, 0.044156234711408615, -0.009560715407133102, -0.05744634196162224, -0.2132222205400467, -0.1391373574733734, -0.01650339923799038, 0.10014133155345917, -0.07273415476083755, -0.05703876167535782, -0.016111575067043304, -0.12874673306941986, 0.025557540357112885, 0.1323949694633484, 0.14399808645248413, -0.01985151134431362, 0.07980816811323166, 0.04520144313573837, 0.0174527820199728, -0.09883177280426025, -0.09632836282253265, 0.08732402324676514, 0.005313843954354525, -0.1129264384508133, 0.05339683219790459, -0.03866240382194519, 0.13314461708068848, -0.14464344084262848, 0.04057604819536209, 0.12059397995471954, -0.03434709459543228, -0.13086065649986267, 0.06333330273628235, 0.09992992877960205, -0.019309213384985924, -0.08611129969358444, 0.03594288229942322, 0.10994842648506165, 0.006703216582536697, -0.03716740384697914, 0.07200038433074951, 0.02040567435324192, 0.0653301477432251, 0.0048463549464941025, 0.038753483444452286, -0.061862267553806305, 0.03684147819876671, -0.13348352909088135, -0.17191754281520844, 0.05012079328298569, -0.027242017909884453, -0.02612382173538208, 0.002656238153576851, 0.10819324105978012, 0.08448663353919983, 0.03549719974398613, 0.11557050794363022, -0.032554034143686295, 0.04110168665647507, 0.10266285389661789, 0.08428972959518433, -0.18934498727321625, -0.031178489327430725, -0.04564962908625603, 0.17754822969436646, -0.03139583393931389, -0.011523447930812836, -0.08438953012228012, 0.19721288979053497, -0.10752635449171066, 0.09388881921768188, 0.0023893150500953197, 0.1460895985364914, 0.09949351847171783, -0.09739267081022263, 0.10761921107769012, 0.028830865398049355, -0.16629262268543243, 0.06947111338376999, -0.009698568843305111, -0.03811196982860565, -0.07923144102096558, -0.03709295764565468, 0.14251774549484253, 0.153594970703125, -0.002216241555288434, -0.17717699706554413, -0.06432968378067017, -0.013571693561971188, 0.13637840747833252, 0.049030620604753494, 0.04895449057221413, -0.026195868849754333, -0.13558751344680786, -0.14666827023029327, -0.11680005490779877, 0.11078321188688278, 0.05986541137099266, -0.05401044338941574, 0.2048937976360321, -0.0990641787648201, -0.11982005834579468, 0.05271746218204498, -0.038685526698827744, -0.08539631217718124, 0.17562803626060486, 0.002061874372884631, 0.05841832607984543, 0.1298983097076416, -0.05223286151885986, 0.11456979066133499, -0.2605501711368561, 0.14368462562561035, -0.009026055224239826, -0.03336142748594284, -0.11139776557683945, -0.0013977924827486277, -0.010909222066402435, 0.07176241278648376, 0.062039051204919815, -0.07543905824422836, 0.1307971179485321, 0.020976228639483452, 0.03052419237792492, 0.1407371312379837, 0.005242002196609974, -0.14408767223358154, -0.0013094872701913118, -0.03250139206647873, 0.019645610824227333, 0.04477560892701149, -0.07360131293535233, -0.17924414575099945, -0.14367619156837463, 0.1465548425912857, -0.03639725223183632, -0.07350991666316986, -0.04843266308307648, -0.01066567562520504, -0.15091370046138763, 0.21884706616401672, 0.15081797540187836, 0.20997482538223267, 0.02516193687915802, -0.07109735906124115, -0.05203663185238838, 0.17636162042617798, -0.11729859560728073, 0.13207237422466278, -0.044675495475530624, -0.07099132984876633, 0.06500165909528732, 0.09425351023674011, -0.04959508776664734, -0.13838884234428406, 0.19203400611877441, -0.12956126034259796, -0.11864420771598816, 0.23010508716106415, 0.472099244594574, -0.25343409180641174, -0.11505412310361862, 0.23868687450885773, -0.00823106337338686, -0.0574282631278038, 0.07563848048448563, -0.02841486595571041, -0.03244251385331154, 0.04087567701935768, -0.15811169147491455, -0.10193615406751633, -0.040493179112672806, -0.15984661877155304, 0.004117787349969149, 0.05354028940200806, -0.03317728266119957, 0.056323837488889694, -0.16056229174137115, 0.0364217609167099, 0.15560954809188843, -0.069332554936409, 0.09793215245008469, -0.03732677549123764, -0.15848946571350098, -0.1148802861571312, 0.17586790025234222, 0.13040906190872192, -0.043192654848098755, -0.2458736151456833, -0.15953341126441956, -0.029161125421524048, 0.0641232430934906, 0.16767236590385437, 0.04189730063080788, -0.10546846687793732, 0.12178800255060196, 0.009613478556275368, 0.015905043110251427, 0.1391395479440689, -0.07694830000400543, -0.15536201000213623, 0.06431008130311966, 0.06772787123918533, -0.039616990834474564, 0.1447955071926117, -0.09701533615589142, -0.15597563982009888, -0.11630121618509293, 0.13955460488796234, -0.03863897919654846, -0.2444184273481369, -0.16679294407367706, -0.0777762234210968, 0.03899959474802017, -0.05782065913081169, -0.035878077149391174, 0.012781874276697636, -0.14316995441913605, -0.13066308200359344, -0.052027784287929535, 0.138885498046875, 0.0937667265534401, -0.0408250130712986, -0.07585780322551727, 0.047940339893102646, 0.010994789190590382, 0.09394828230142593, -0.015704749152064323, 0.026702843606472015, 0.052117910236120224, -0.013033377006649971, 0.17901238799095154, 0.11078192293643951, -0.15202432870864868, -0.1911482810974121, -0.0646202489733696, 0.16321201622486115, -0.030411964282393456, 0.18630918860435486, -0.12043534964323044, -0.2421628087759018, 0.002319931285455823, -0.06882212311029434, -0.07340411096811295, -0.0878172442317009, -0.012763092294335365, -0.1487412303686142, -0.1503417193889618, 0.1295526921749115, -0.06874833256006241, -0.12358223646879196, 0.03484547883272171, -0.24170082807540894, -0.029643109068274498, 0.061755891889333725, 0.2682829201221466, -0.07327073812484741, 0.08200427144765854, 0.0598330944776535, 0.03648092597723007, -0.1623336374759674, 0.03705867752432823, 0.12094172090291977, 0.09217480570077896, -0.060419660061597824, 0.04680197313427925, 0.040224503725767136, -0.15004396438598633, 0.007914477027952671, 0.039612334221601486, -0.0591157041490078, 0.07476554811000824, -0.052362795919179916, -0.018830934539437294, 0.04492750018835068, -0.045919861644506454, -0.01801866479218006, 0.06463667005300522, 0.03789803013205528, -0.05981162562966347, 0.03579859808087349, -0.005809782072901726, 0.01776864565908909, 0.1257539987564087, -0.13276730477809906, -0.16929933428764343, 0.0025084540247917175, -0.0819905623793602, 0.12464620918035507, -0.06137119233608246, -0.02776913531124592, -0.019798992201685905, -0.11477340012788773, -0.09277071058750153, 0.02065258100628853, 0.06458129733800888, 0.0988914892077446, -0.14141669869422913, -0.012292942963540554, -0.013099794276058674, 0.1253952831029892, -0.0758557915687561, -0.0734541118144989, -0.2518776059150696, 0.1484409123659134, -0.27494892477989197, -0.04296736419200897, 0.12257563322782516, -0.012372073717415333, 0.1841254085302353, -0.07505232095718384, 0.11574738472700119, -0.11319057643413544, 0.38878533244132996, -0.15895213186740875, 0.007214659824967384, 0.0789671391248703, 0.06591396033763885, -0.11159151047468185, 0.036743201315402985, 0.05346476286649704, -0.037029560655355453, -0.09145457297563553, 0.049430422484874725, 0.08739757537841797, -0.077583447098732, 0.03560900315642357, 0.01671752892434597, -0.09632717818021774, 0.006304496433585882, 0.07646259665489197, -0.09806489199399948, 0.0395948551595211, 0.043978337198495865, 0.14601768553256989, 0.1087527871131897, 0.053117554634809494, 0.08632255345582962, -0.1260862797498703, -0.10125114768743515, 0.35438480973243713, -0.10782106965780258, -0.18380901217460632, 0.07537928223609924, -0.1338147521018982, 0.060737818479537964, -0.07596617192029953, 0.09691120684146881, 0.03762428089976311, 0.3322606384754181, -0.06520766764879227, 0.23692694306373596, -0.4692842364311218, -0.03764251619577408, -0.19010257720947266, 0.0052758087404072285, -0.13436712324619293, 0.10456956177949905, 0.07770925015211105, 0.08441419154405594, -0.09888377040624619, 0.14546529948711395, 0.062498126178979874, -0.04385557398200035, -0.05127258598804474, -0.05879751220345497, -0.0701085701584816, 0.006801374722272158, 0.06208668276667595, -0.11817381531000137, -0.10411673784255981, -0.11724600940942764, -0.17289038002490997, -0.0519656240940094, -0.12913696467876434, 0.03681998699903488, -0.129432812333107, -0.19235080480575562, -0.06331133097410202, -0.17249715328216553, 0.1867452710866928, 0.19540277123451233, -0.003027358092367649, -0.030470028519630432, 0.036718741059303284, 0.012675688602030277, 0.04557761177420616, -0.24231471121311188, 0.29614755511283875, -0.14173531532287598, -0.02810617722570896, 0.019320011138916016, -0.0029217309784144163, -0.059890128672122955, -0.19435332715511322, 0.05903075635433197, -0.2008199691772461, 0.1276153028011322, -0.06983736902475357, 0.487778902053833, -0.33888813853263855, 0.07638881355524063, 0.023927168920636177, 0.0541975237429142, -0.09178918600082397, 0.03961644321680069, 0.04044858366250992, 0.16045010089874268, 0.045624516904354095, 0.2479967474937439, -0.09945021569728851, 0.036008160561323166, 0.07877059280872345, 0.07681754231452942, 0.14186562597751617, -0.10320684313774109, 0.054942525923252106, 0.022194193676114082, 0.0569937601685524, 0.0579146072268486, 0.044093623757362366, 0.14639213681221008, -0.13898685574531555, 0.06533306837081909, 0.04334225878119469, 0.04112144187092781, -0.04100341722369194, 0.14213703572750092, -0.045198068022727966, 0.009071293286979198, -0.07434248924255371, 0.047616757452487946, 0.007747593801468611, 0.06991954147815704, -0.012786711566150188, 0.07753114402294159, 0.18095771968364716, -0.008710464462637901, 0.06536927819252014, 0.04382161423563957, -0.05303804948925972, 0.08362241834402084, -0.10552562773227692, -0.007718824315816164, -0.08236659318208694, 0.37403976917266846, -0.3167312741279602, -0.019575607031583786, -0.5987322926521301, 0.2865273058414459, -0.09032254666090012, -0.04114224761724472, 0.02613588236272335, 0.04609691724181175, -0.0950525626540184, 0.09286554157733917, -0.10375791043043137, 0.12960828840732574, 0.1447163075208664, -0.10214518010616302, 0.0459647998213768, 0.1798495203256607, -0.0006126847583800554, -0.047074563801288605, 0.026351014152169228, -0.11621680110692978, -0.3233073353767395, -0.1461060494184494, -0.08654604852199554, 0.031838469207286835, 0.15395528078079224, 0.13156288862228394, -0.06469915062189102, -0.23500193655490875, -0.17196057736873627, 0.06701329350471497, 0.02640790306031704, -0.05265792831778526, 0.020051050931215286, -0.17499865591526031, -0.1072295755147934, -0.05443783476948738, 0.07251356542110443, -0.06585589796304703, 0.11535562574863434, 0.17560233175754547, -0.017689714208245277, -0.00288018980063498, 0.06535723805427551, -0.09629480540752411, -0.10402663052082062, 0.2590545117855072, -0.147293820977211, -0.02636735513806343, 0.26998063921928406, 0.4940168559551239, -0.5487830638885498, -0.2247980237007141, 0.01630340702831745, -0.09518449753522873, 0.23464421927928925, 0.07690103352069855, 0.009586760774254799, -0.16829481720924377, 0.04105209559202194, -0.2235395610332489, 0.05804985389113426, -0.02972695231437683, -0.046039704233407974, -0.12900449335575104, 0.13362939655780792, 0.12455131113529205, 0.061319500207901, -0.03171883895993233, 0.08439760655164719, 0.05089724436402321, -0.06442733854055405, 0.15368781983852386, -0.13240061700344086, 0.033354464918375015, -0.08035366237163544, 0.07972900569438934, 0.08426874130964279, -0.16324970126152039, -0.05129440128803253, -0.16846808791160583, -0.01718914322555065, 0.02493176981806755, 0.1797517091035843, 0.1188306137919426, -0.055135052651166916, 0.08994989842176437, -0.14389178156852722, 0.07642658799886703, -0.06029367446899414, 0.028146514669060707, -0.15835393965244293, 0.14647483825683594, 0.09969345480203629, -0.02384268492460251, 0.11204887926578522, 0.00808730162680149, -0.1628669947385788, -0.09638066589832306, 0.18343164026737213, -0.0411851666867733, -0.10373519361019135, -0.08592935651540756, -0.12908317148685455, 0.08696397393941879, -0.08714630454778671, -0.018660709261894226, 0.09826761484146118, 0.03611501678824425, -0.19025833904743195, -0.1375860571861267, -0.003954645711928606, 0.18528063595294952, -0.1192392036318779, 0.08295460045337677, 0.09066838026046753, 0.007841717451810837, -0.01792621985077858, -0.05621745437383652, -0.05547308549284935, 0.021514659747481346, 0.017709987238049507, 0.10987584292888641, 0.006581865716725588, -0.05805761739611626, -0.06206408515572548, 0.0913485437631607, 0.002928463974967599, 0.10465016961097717, -0.10842465609312057, 0.12424018234014511, -0.10546519607305527, 0.015399104915559292, -0.15100188553333282, -0.015356401912868023, 0.06738703697919846, -0.02992922067642212, -0.0720861405134201, 0.12316061556339264, 0.023184040561318398, -0.03182119503617287, 0.16246122121810913, -0.05308970436453819, -0.09217224270105362, -0.02914004772901535, -0.11057648807764053, -0.0904468223452568, 0.015997808426618576, 0.2098974585533142, 0.02023136615753174, 0.0267120823264122, 0.10664010792970657, 0.021269280463457108, 0.026275411248207092, 0.03207968547940254, 0.0503462478518486, -0.1278105229139328, 0.12182009965181351, -0.08079300075769424, -0.059165678918361664, 0.08855187147855759, -0.032042331993579865, -0.08247587084770203, -0.13193701207637787, 0.12982693314552307, 0.006335086654871702, -0.11342023313045502, -0.05225621536374092, 0.025179004296660423, -0.07686689496040344, -0.0019231847254559398, -0.010939386673271656, -0.020325733348727226, 0.07077909260988235, -0.12709203362464905, 0.10869935899972916, 0.06868354976177216, 0.025152835994958878, 0.04771045595407486, -0.02277466654777527, 0.012866582721471786, 0.09855158627033234, -0.005074388813227415, -0.02988467551767826, -0.09119148552417755, -0.03257179260253906, -0.05363677069544792, 0.011646130122244358, -0.03929596021771431, -0.04176587611436844, 0.11124001443386078, 0.05979708209633827, -0.2419612556695938, 0.044242072850465775, -0.0032152323983609676, 0.39077311754226685, -0.09254031628370285, -0.1595451831817627, 0.01588769443333149, 0.009814850054681301, 0.047275859862565994, 0.04624849557876587, 0.17926938831806183, -0.24239681661128998, 0.04971841350197792, 0.07374409586191177, -0.07898654043674469, 0.06853070855140686, 0.16561348736286163, -0.03128144145011902, 0.07349258661270142, 0.016223207116127014, 0.10371968150138855, -0.10097625106573105, -0.18071573972702026, 0.05708479881286621, -0.04045029729604721, 0.08852970600128174, 0.004592982120811939, 0.053921181708574295, 0.012011032551527023, 0.019691359251737595, -0.0455368235707283, 0.07670174539089203, -0.05790094658732414, 0.09217074513435364, -0.012305792421102524, -0.007555888965725899, -0.11094450205564499, 0.15451960265636444, -0.18220148980617523, 0.18028007447719574, 0.22770021855831146, -0.14528511464595795, 0.10577282309532166, -0.0816589891910553, 0.022194940596818924, 0.08828846365213394, 0.03740307316184044, 0.08903718739748001, 0.003966371063143015, 0.06294643878936768, 0.18587873876094818, -0.20789681375026703, 0.041334088891744614, 0.06574219465255737, 0.01879371888935566, 0.03992585465312004, -0.10621032118797302, 0.05156916379928589, 0.003600423689931631, -0.048707373440265656, -0.037410344928503036, 0.06495915353298187, 0.03752559423446655, 0.045592933893203735, -0.0035949330776929855, -0.09180927276611328, 0.018913190811872482, -0.019794242456555367, 0.02107580564916134, -0.4172108769416809, -0.5451544523239136, 0.7494933605194092, 0.329595148563385, -0.567345142364502, 0.2329772710800171, -0.2359224408864975, -0.12441340833902359, 0.7404814958572388, -0.8938644528388977, 1.271263837814331, 0.536919355392456, 0.02218036539852619, -0.3488808572292328, 0.13845311105251312, -0.7694833874702454, 0.15238843858242035, -0.13023099303245544, 0.06500379741191864, -0.35675954818725586, 0.24972280859947205, -0.04830561950802803, 0.29936349391937256, 0.00829005055129528, 0.09342409670352936, 0.18437710404396057, 0.20839974284172058, 0.21171842515468597, -0.2636403441429138, 0.09019636362791061, 0.0012462821323424578, -0.11859173327684402, 0.08715540170669556, -0.03002464957535267, 0.0427810363471508, 0.03467890992760658, 0.23573654890060425, -0.03658891096711159, 0.03628912568092346, -0.1658969223499298, -0.30165567994117737, 0.0737205296754837, -0.05397193878889084, -0.1035814955830574, 0.04384598881006241, 0.2609407603740692, 0.138175830245018, -0.023532619699835777, 0.06288186460733414, -0.05800774693489075, 0.014261163771152496, -0.1402217447757721, 0.12564730644226074, -0.03752608224749565, -0.10925517976284027, -0.20563127100467682, -0.1183573454618454, -0.03126852959394455, -0.26142457127571106, 0.024126417934894562, 0.24174727499485016, -0.23858006298542023, -0.045263588428497314, 0.04928617179393768, 0.3004540503025055, -0.023305214941501617, 0.14196929335594177, 0.08387397229671478, -0.18400238454341888, 0.23287120461463928, -0.3160834312438965, 0.17372819781303406, 0.29725897312164307, -0.09815181791782379, 0.14962303638458252, 0.1671755462884903, 0.11844077706336975, 0.09644119441509247, 0.08494163304567337, -0.11897717416286469, 0.06330102682113647, -0.12980465590953827, 0.2405349165201187, -0.27311772108078003, 0.25312721729278564, -0.3246767818927765, 0.22239255905151367, -0.0017638338031247258, 0.07061129063367844, 0.059101223945617676, -0.10923933982849121, 0.16420453786849976, -0.2684161365032196, -0.11494885385036469, 0.1875227391719818, -0.11049803346395493, -0.15490786731243134, -0.09777157008647919, -0.055483072996139526, -0.19128763675689697, -0.025654995813965797, -0.15462563931941986, 0.2901591658592224, 0.0403723381459713, -0.10805072635412216, -0.12506194412708282, 0.01292402483522892, 0.1405099332332611, -0.02549159526824951, 0.16273818910121918, 0.1691354662179947, 0.10591632127761841, -0.02345016784965992, 0.06294728815555573, -0.11099769175052643, 0.027392622083425522, 0.21067938208580017, -0.11255784332752228, 0.04224978759884834, -0.017987238243222237, -0.22497883439064026, 0.23007243871688843, 0.21352142095565796, -0.12642471492290497, 0.10072173178195953, 0.12983427941799164, 0.05624421313405037, 0.0849914625287056, 0.1377214938402176, 0.22117879986763, -0.16377563774585724, -0.09092004597187042, 0.14770346879959106, -0.1519315093755722, 0.042188484221696854, -0.06764843314886093, 0.04760613292455673, 0.05926903337240219, -0.10619230568408966, 0.16697463393211365, -0.02645084448158741, 0.06626138836145401, 0.06380543112754822, -0.0006893170066177845, -0.11446372419595718, 0.21421851217746735, -0.10148648172616959, 0.17337077856063843, 0.18628229200839996, -0.00034998485352844, -0.2158713936805725, -0.011821678839623928, -0.14110636711120605, 0.149942085146904, -0.06489308178424835, 0.2556838393211365, -0.22885683178901672, -0.00952032208442688, 0.051703356206417084, 0.014071272686123848, 0.11996948719024658, -0.056710682809352875, -0.09417375177145004, 0.2884446978569031, -0.05324220657348633, 0.3125806152820587, -0.24482834339141846, -0.12739746272563934, -0.03339182212948799, -0.10414005815982819, 0.046026259660720825, -0.28244373202323914, 0.0019389997469261289, -0.10645455867052078, 0.1334444284439087, -0.11921844631433487, 0.30374979972839355, -0.09683527052402496, -0.14790397882461548, -0.19610579311847687, 0.22227022051811218, -0.181339830160141, 0.09312307089567184, -0.060983724892139435, 0.2276456505060196, 0.1181732788681984, -0.17108231782913208, 0.07138625532388687, 0.044333990663290024, -0.23409289121627808, 0.07132425904273987, 0.22126220166683197, 0.0945461317896843, 0.08401590585708618, -0.03342658281326294, 0.1398225724697113, -0.16561979055404663, 0.25457763671875, 0.16606886684894562, 0.13373872637748718, -0.23770329356193542, -0.26243144273757935, -0.24753829836845398, 0.13750702142715454, -0.17159505188465118, -0.22849252820014954, 0.05888901650905609, 0.060695771127939224, -0.21924534440040588, -0.23958423733711243, 0.0019370686495676637, 0.0011098673567175865, 0.11365364491939545, 0.15213871002197266, -0.25894129276275635, -0.17671898007392883, 0.21335871517658234, -0.016245903447270393, -0.13029208779335022, 0.028154611587524414, -0.002007101895287633, 0.05210442468523979, 0.048656195402145386, -0.1318056285381317, -0.1608016937971115, 0.06368343532085419, -0.1432422697544098, -0.06228258088231087, -0.01818489283323288, -0.15999875962734222, 0.17231379449367523, -0.14041189849376678, 0.0006894885445944965, 0.059220194816589355, 0.22760865092277527, -0.19830428063869476, 0.029927710071206093, 0.18138760328292847, -0.12483920156955719, -0.07736627012491226, -0.0507950522005558, 0.15489991009235382, -0.011662459932267666, -0.07659204304218292, -0.07971496134996414, -0.11530766636133194, 0.14338813722133636, -0.16987092792987823, 0.08899618685245514, 0.22123600542545319, 0.15037024021148682, 0.21468909084796906, -0.10125022381544113, 0.1206451952457428, 0.05971663445234299, -0.2488049566745758, -0.09661136567592621, -0.06382013112306595, -0.08030810952186584, -0.18175506591796875, -0.06464208662509918, -0.021378913894295692, -0.06765889376401901, -0.1681061089038849, 0.17203326523303986, 0.19686971604824066, 0.3610604405403137, 0.2780669331550598, -0.22381016612052917, -0.11098341643810272, -0.19316335022449493, 0.05212932452559471, 0.06321857869625092, 0.04835052415728569, 0.09152714908123016, 0.14845813810825348, -0.05838250741362572, 0.12325681746006012, 0.11445450782775879, -0.04372240975499153, -0.18074709177017212, -0.1194911003112793, 0.07114477455615997, 0.08416736871004105, 0.14085116982460022, 0.12477219849824905, 0.08540665358304977, -0.022734735161066055, 0.23156531155109406, -0.26084449887275696, 0.12783558666706085, -0.011804441921412945, -0.060682982206344604, 0.09925466030836105, 0.1318095624446869, -0.11662009358406067, 0.1617143750190735, -0.16377918422222137, 0.15035220980644226, 0.17822639644145966, 0.18124699592590332, -0.37393662333488464, -0.009736818261444569, 0.23924539983272552, -0.18236538767814636, 0.11609473824501038, 0.11661473661661148, -0.20272992551326752, -0.05541792884469032, -0.08011120557785034, 0.07982440292835236, -0.040987566113471985, 0.00852049607783556, -0.24910186231136322, 0.05364520847797394, -0.0928010493516922, 0.2725323736667633, -0.18019407987594604, -0.003120989305898547, -0.3375054895877838, 0.2680096924304962, -0.013176271691918373, -0.0985100194811821, -0.13396528363227844, -0.17317382991313934, 0.008041797205805779, -0.059024833142757416, 0.06987843662500381, -0.2883898913860321, -0.015780748799443245, -0.005846184678375721, -0.4462004005908966, -0.02909534052014351, 0.1689900904893875, -0.17343997955322266, 0.10082506388425827, -0.09922818839550018, 0.15005147457122803, -0.018974555656313896, 0.14654259383678436, -0.039106301963329315, -0.0827968642115593, 0.057336486876010895, -0.09413644671440125, -0.0015570801915600896, -0.011031403206288815, 0.0965271070599556, 0.04079679399728775, -0.05047256126999855, 0.08104593306779861, 0.20668776333332062, -0.002560585970059037, -0.10540880262851715, 0.10945771634578705, -0.1353965550661087, 0.16547523438930511, -0.09382262080907822, -0.12354975938796997, -0.17048415541648865, 0.006306199822574854, 0.09841286391019821, 0.22885479032993317, -0.1339023858308792, 0.027916137129068375, 0.05764610320329666, 0.16980645060539246, -0.0036706221289932728, 0.24460609257221222, -0.04781750589609146, 0.16653119027614594, -0.08422766625881195, -0.21884267032146454, -0.0032166941091418266, 0.023155726492404938, 0.0257863849401474, -0.13003024458885193, 0.25732025504112244, -0.2288096696138382, 0.08285008370876312, 0.26222363114356995, -0.014335616491734982, -0.17608553171157837, 0.11672621220350266, -0.030076181516051292, -0.036823570728302, -0.055681683123111725, 0.011445648036897182, 0.1080312579870224, -0.040715161710977554, -0.15126095712184906, -0.20483554899692535, -0.019400859251618385, 0.1306576132774353, -0.13035187125205994, 0.03444238752126694, 0.013104614801704884, 0.160504549741745, -0.034743715077638626, -0.08972660452127457, -0.058957088738679886, -0.08063719421625137, -0.18632742762565613, 0.01239519938826561, 0.07675305753946304, -0.07821512222290039, 0.10844136774539948, 0.12443698197603226, 0.04475335031747818, -0.17506945133209229, -0.08879540860652924, 0.10667726397514343, 0.06532595306634903, -0.014299130067229271, 0.05735645815730095, -0.11367925256490707, -0.025808699429035187, -0.014942360110580921, -0.14569498598575592, -0.0219810139387846, 0.06159629300236702, -0.08652665466070175, 0.029752984642982483, -0.0027652992866933346, -0.0795578882098198, -0.0828884169459343, -0.009201164357364178, 0.1093311458826065, -0.16162152588367462, -0.0365678146481514, 0.08610600233078003, 0.06688936054706573, -0.08671803772449493, 0.023203672841191292, 0.14185971021652222, 0.07881446182727814, -0.0320623554289341, 0.08035014569759369, 0.15947198867797852, 0.09801606833934784, 0.09171181172132492, -0.052462056279182434, 0.11906327307224274, 0.0947728157043457, -0.08879615366458893, 0.08727549016475677, 0.1233830451965332, 0.005732803139835596, -0.0560922808945179, -0.18691270053386688, 0.20433220267295837, 0.11400952190160751, -0.04165704920887947, -0.00896455068141222, -0.09080560505390167, -0.08564315736293793, 0.12714676558971405, 0.17545554041862488, -0.07073323428630829, -0.17028263211250305, -0.20629927515983582, 0.012254901230335236, 0.03711520507931709, 0.15242953598499298, 0.18397703766822815, -0.03326566889882088, 0.027374593541026115, 0.2293936014175415, -0.03225545585155487, 0.017136862501502037, 0.11286560446023941, -0.11650199443101883, 0.22051511704921722, 0.04463330656290054, -0.1662607192993164, -0.10229508578777313, 0.0398540198802948, -0.10406793653964996, 0.006461650133132935, -0.10786272585391998, 0.003278284100815654, -0.14624112844467163, 0.26584678888320923, -0.17235282063484192, 0.02019413933157921, 0.0960085317492485, -0.006075682584196329, -0.16542093455791473, 0.3326272666454315, -0.016136566177010536, 0.1610596925020218, -0.13778212666511536, -0.016148000955581665, 0.04880240187048912, 0.15480650961399078, -0.14354006946086884, -0.20558007061481476, 0.2897886037826538, 0.08393349498510361, -0.08230557292699814, 0.08672500401735306, 0.03690490499138832, 0.06172279641032219, 0.08110812306404114, 0.09780275076627731, -0.13561208546161652, 0.15142424404621124, -0.31558775901794434, -0.03981920704245567, -0.3259690999984741, 0.22613754868507385, -0.03065178170800209, 0.3062194585800171, -0.24416521191596985, -0.11589136719703674, -0.05519874393939972, 0.127393901348114, -0.10077205300331116, 0.01193518191576004, -0.03917255997657776, -0.21018460392951965, 0.07016202807426453, -0.1847739964723587, -0.23381058871746063, 0.20057663321495056, -0.018218355253338814, 0.15837207436561584, 0.038096342235803604, -0.2678728699684143, -0.1421758532524109, 0.08982330560684204, -0.0833321362733841, -0.12601618468761444, 0.13232457637786865, -0.04987236484885216, 0.011234686709940434, 0.19706952571868896, 0.06661855429410934, 0.030217889696359634, 0.019425485283136368, -0.16947387158870697, 0.07372205704450607, 0.03999859839677811, -0.08980252593755722, -0.224882110953331, -0.04704606160521507, 0.05942709743976593, -0.032202962785959244, 0.16721811890602112, -0.033150482922792435, -0.14960776269435883, -0.1316402703523636, -0.028883716091513634, -0.04145094379782677, 0.19730208814144135, -0.15251511335372925, -0.0209224671125412, -0.08486860245466232, 0.011613152921199799, -0.017774958163499832, 0.05971171706914902, -0.16860951483249664, 0.13479779660701752, -0.030543435364961624, 0.09947386384010315, 0.06118103116750717, -0.006439247168600559, -0.14960147440433502, 0.004885475151240826, 0.10794886201620102, -0.1380157470703125, -0.13054510951042175, 0.1910812258720398, -0.12121620774269104, -0.021730925887823105, 0.19999442994594574, 0.045321058481931686, 0.08686176687479019, 0.09640956670045853, -0.25680509209632874, -0.12595777213573456, -0.0769922137260437, -0.0033638926688581705, -0.000840803375467658, 0.1415756791830063, 0.023361725732684135, -0.10751393437385559, -0.09544368833303452, -0.06357639282941818, -0.09320724755525589, 0.08074112981557846, -0.12347269058227539, -0.13118238747119904, -0.03742070123553276, -0.10721401125192642, -0.12188734114170074, -0.07034280151128769, -0.0358833484351635, 0.18621481955051422, 0.06861630827188492, -0.067511647939682, -0.1554618775844574, 0.012083524838089943, -0.02122032642364502, 0.07160267978906631, 0.009944872930645943, 0.06644286960363388, 0.020755939185619354, -0.030605772510170937, 0.04064984992146492, -0.017359253019094467, -0.06207392364740372, 0.05816877633333206, 0.18515771627426147, -0.038996484130620956, -0.020529167726635933, -0.1736893206834793, -0.008347423747181892, -0.07468148320913315, -0.12476688623428345, 0.11912082880735397, 0.06420467048883438, 0.057409223169088364, -0.0069892811588943005, -0.24701173603534698, -0.11316094547510147, -0.09406092017889023, -0.008921673521399498, 0.0857810527086258, 0.06268366426229477, 0.2062705010175705, -0.13921643793582916, -0.022193731740117073, 0.0970550924539566, -0.002954796189442277, 0.060408856719732285, -0.05114765465259552, -0.13740050792694092, 0.2096458077430725, 0.1150597482919693, -0.15361838042736053, -0.12642672657966614, 0.0039194682613015175, -0.004091673530638218, -0.162415012717247, -0.014362987130880356, -0.26366063952445984, -0.06486836820840836, -0.03746974468231201, 0.23057319223880768, 0.1227930560708046, -0.031018057838082314, -0.04898223280906677, -0.11484362185001373, 0.020078953355550766, 0.011499091982841492, 0.02180100418627262, -0.20430180430412292, -0.050898291170597076, 0.016260266304016113, -0.006046791095286608, 0.10444939881563187, -0.037255581468343735, 0.04197820648550987, 0.16665317118167877, -0.09615844488143921, -0.12498456239700317, -0.015902500599622726, -0.015480725094676018, -0.026142865419387817, -0.008213181979954243, -0.21837131679058075, 0.08028673380613327, -0.14976833760738373, 0.1991323083639145, 0.006700413767248392, 0.10095813870429993, -0.025295626372098923, 0.026269366964697838, -0.02575051784515381, -0.23231717944145203, 0.05800541117787361, -0.1461707502603531, -0.05102932080626488, 0.06777943670749664, -0.14703720808029175, 0.08515383303165436, -0.0002856397186405957, 0.017388207837939262, 0.22314734756946564, -0.17734657227993011, -0.07382464408874512, -0.019017290323972702, -0.02823539637029171, 0.0801987498998642, -0.06381025165319443, -0.14973649382591248, -0.19998350739479065, -0.10011981427669525, -0.02665947750210762, 0.2159973829984665, 0.09624946862459183, -0.06334846466779709, -0.14149247109889984, -0.10402338206768036, 0.03370652720332146, 0.18783284723758698, -0.17891255021095276, 0.00454673683270812, 0.09601864218711853, -0.014242375269532204, -0.0659216120839119, -0.30494120717048645, 0.1487971544265747, 0.0795852318406105, -0.05277758836746216, 0.07724897563457489, -0.026806127279996872, -0.08274684101343155, 0.23505064845085144, 0.09960690140724182, 0.03052562102675438, 0.07021713256835938, 0.015235074795782566, 0.07407208532094955, -0.1735735833644867, -0.029416972771286964, 0.042490020394325256, -0.03799263387918472, 0.058438390493392944, -0.01343380007892847, -0.1258135437965393, 0.0429316908121109, 0.11423660069704056, -0.007318981923162937, 0.027936210855841637, 0.0891495943069458, 0.05051609128713608, -0.16075004637241364, -0.011925471015274525, -0.11451462656259537, 0.1562536656856537, 0.15181340277194977, 0.19708767533302307, 0.043153081089258194, -0.09013916552066803, -0.14862783253192902, 0.04138713702559471, -0.1543530821800232, 0.10999049246311188, -0.04933452978730202, -0.18224047124385834, -0.013489398173987865, 0.060581475496292114, -0.10919123888015747, -0.06875985115766525, -0.018678460270166397, 0.027182379737496376, -0.05583430454134941, -0.01938021555542946, -0.10272807627916336, -0.04343989118933678, 0.03270846977829933, 0.11339688301086426, -0.020645922049880028, -0.09086866676807404, 0.2655108869075775, -0.057059239596128464, 0.06418973207473755, 0.05818145349621773, -0.13151659071445465, 0.14919452369213104, 0.06888497620820999, 0.02706894651055336, 0.14956647157669067, -0.14656050503253937, 0.05673003941774368, 0.1500362902879715, 0.19699367880821228, 0.0006506018689833581, -0.21112525463104248, -0.16851076483726501, -0.11004394292831421, 0.04090530797839165, 0.023837517946958542, 0.012793735601007938, 0.13773001730442047, 0.13449130952358246, 0.12489420175552368, -0.09845238924026489, -0.17084915935993195, -0.06675407290458679, 0.06748063117265701, 0.14374086260795593, 0.17303866147994995, 0.04579628258943558, -0.05863117054104805, 0.026405543088912964, -0.0237320177257061, 0.1366281360387802, 0.14928367733955383, -0.07376611232757568, -0.10191535949707031, 0.1211705133318901, -0.24266517162322998, 0.11523131281137466, -0.11104036122560501, 0.08977632969617844, 0.15743966400623322, 0.010723033919930458, 0.011854449287056923, -0.0025452403351664543, 0.11363556236028671, 0.03834133967757225, 0.03844597190618515, -0.10596607625484467, 0.037621233612298965, 0.01771549880504608, 0.13596129417419434, -0.02701297588646412, -0.007120375521481037, 0.013617625460028648, -0.11339560896158218, -0.13672050833702087, 0.015331507660448551, 0.1853957325220108, -0.18670786917209625, -0.15101154148578644, 0.04653625562787056, -0.057890914380550385, -0.06072526052594185, 0.05943901464343071, 0.08377505093812943, -0.04520963504910469, -0.2166297882795334, -0.048349276185035706, -0.034058764576911926, -0.04845014214515686, 0.1944318562746048, 0.12047974020242691, 0.096986323595047, -0.20052142441272736, -0.16486212611198425, 0.03761119395494461, -0.08408890664577484, 0.12053032219409943, 0.09551801532506943, 0.03892035037279129, -0.15721845626831055, 0.16210432350635529, 0.037515927106142044, 0.03325849771499634, 0.16301067173480988, 0.009385030716657639, 0.06026693060994148, -0.12507808208465576, 0.10459495335817337, -0.14923043549060822, 0.12196691334247589, -0.12298928946256638, -0.18779204785823822, -0.08061343431472778, 0.27472686767578125, -0.04724976792931557, 0.0019846325740218163, -0.008319325745105743, 0.22068434953689575, -0.0966317430138588, -0.08193312585353851, -0.0036022618878632784, -0.08929528295993805, 0.09501025825738907, 0.06777812540531158, -0.16929061710834503, 0.008165257051587105, -0.030857080593705177, -0.203558549284935, -0.04633355885744095, 0.26890650391578674, -0.12059769779443741, -0.06736323982477188, 0.02838333696126938, -0.1412319391965866, -0.16009946167469025, 0.1696123629808426, -0.19833289086818695, -0.10400178283452988, -0.06077151373028755, 0.16749654710292816, -0.018765021115541458, 0.2632698714733124, -0.2496555745601654, -0.11449263244867325, -0.052691683173179626, 0.12790992856025696, -0.01260752696543932, 0.17190535366535187, -0.24255920946598053, -0.05604579299688339, 0.049087636172771454, 0.16392241418361664, 0.08751796931028366, 0.014832542277872562, -0.06668411195278168, 0.14544008672237396, 0.13109953701496124, -0.09152014553546906, -0.04756775125861168, 0.20790119469165802, -0.07048171758651733, 0.07972611486911774, 0.11317291110754013, -0.045119449496269226, 0.008730478584766388, 0.009234261699020863, 0.20415924489498138, 0.004937023855745792, 0.0041459305211901665, -0.1257178783416748, -0.013902753591537476, -0.14378458261489868, -0.027890954166650772, 0.13257497549057007, 0.13673050701618195, -0.1048869788646698, 0.08941525965929031, -0.06992147117853165, 0.17075833678245544, -0.016524704173207283, 0.028786063194274902, 0.12583142518997192, -0.09420111030340195, 0.08673429489135742, 0.08245079219341278, -0.15307563543319702, -0.11740569025278091, 0.032876722514629364, -0.015804748982191086, 0.0958416610956192, -0.06819087266921997, -0.02846897952258587, -0.19492246210575104, 0.11866594105958939, 0.1063595786690712, -0.02597038634121418, 0.02111825905740261, 0.22370457649230957, -0.16405533254146576, -0.0022760918363928795, 0.04435575753450394, 0.011941744014620781, -0.06462790071964264, -0.07196219265460968, 0.18023991584777832, -0.002287723822519183, -0.026870977133512497, 0.0066185868345201015, 0.14828184247016907, -0.2690852880477905, 0.3959243595600128, 0.18120911717414856, -0.04669519141316414, 0.00771469809114933, 0.12904824316501617, -0.0331726148724556, 0.03760986030101776, 0.04193263128399849, 0.0954572856426239, 0.014602618291974068, -0.004465288948267698, -0.04044844210147858, 0.030579786747694016, 0.05804841220378876, -0.0628466084599495, -0.05816921219229698, -0.0548211894929409, 0.04346905276179314, -0.14617784321308136, 0.05166872590780258, 0.096087746322155, -0.07980427891016006, 0.03451044484972954, -0.14027251303195953, -0.11127632111310959, 0.0693216547369957, 0.07542187720537186, 0.2195996791124344, 0.06223515421152115, -0.10453757643699646, 0.03410661220550537, 0.08633287250995636, 0.09450104087591171, -0.01497494988143444, -0.050824135541915894, 0.15910883247852325, -0.20098336040973663, -0.2453647255897522, -0.15588638186454773, -0.007454196456819773, -0.10013879090547562, -0.07099296152591705, 0.24397239089012146, -0.12665776908397675, -0.049415718764066696, 0.09918218106031418, -0.14069432020187378, -0.24337352812290192, 0.09150095283985138, 0.08679676055908203, -0.16623768210411072, 0.28438398241996765, 0.07957211136817932, -0.13827210664749146, 0.03238443285226822, -0.02502967230975628, -0.19274291396141052, -0.09953378140926361, -0.12616536021232605, 0.0889517217874527, -0.024246254935860634, 0.07449985295534134, -0.09785858541727066, 0.25104841589927673, -0.007249027956277132, -0.13112688064575195, 0.09309572726488113, -0.06581728160381317, -0.027421096339821815, 0.05308663845062256, -0.07982368022203445, -0.06636945903301239, 0.1908700317144394, -0.05782711133360863, -0.02105686068534851, -0.12574279308319092, -0.06235248222947121, 0.026119280606508255, -0.13729073107242584, 0.1918402910232544, -0.28531768918037415, 0.1350683718919754, -0.13211923837661743, 0.053587913513183594, -0.14608964323997498, 0.10482177883386612, -0.13450804352760315, -0.07893233001232147, 0.0060513997450470924, -0.23391713201999664, 0.10040415823459625, 0.07197005301713943, -0.04010596126317978, 0.16658924520015717, 0.08852382004261017, -0.021244509145617485, 0.20644818246364594, -0.021354880183935165, 0.04923177883028984, -0.039111629128456116, 0.10620558261871338, -0.11091114580631256, 0.11162646859884262, 0.08402316272258759, -0.07006369531154633, -0.19840721786022186, 0.06626696139574051, 0.17985162138938904, 0.03283056244254112, -0.08034220337867737, 0.0841091126203537, 0.0727691650390625, -0.04967077448964119, 0.06617865711450577, 0.5363122224807739, 0.3551896810531616, 0.4081054925918579, -0.8665876984596252, -0.4148707985877991, 0.2329757958650589, 0.24043528735637665, -0.0506836473941803, 0.30179136991500854, 0.19187378883361816, -0.8634518384933472, 0.21111959218978882, 0.03431618958711624, -0.6073452830314636, 0.15010172128677368, -0.3239121437072754, -0.037168312817811966, -0.295534610748291, 0.27676817774772644, -0.2054373025894165, -0.04817989468574524, 0.11385003477334976, -0.06203896924853325, -0.1990213394165039, -0.313098281621933, 0.09683837741613388, -0.12246408313512802, 0.10702715814113617, 0.01829470321536064, -0.13905620574951172, 0.15477363765239716, -0.12709935009479523, -0.14390715956687927, -0.161459818482399, 0.12311826646327972, -0.1886361986398697, 0.13265752792358398, 0.007321110460907221, 0.20724502205848694, -0.15890315175056458, -0.11869308352470398, -0.026224886998534203, -0.2302340865135193, 0.1093733087182045, -0.0050783585757017136, 0.08764578402042389, 0.15159344673156738, 0.14352059364318848, -0.29957863688468933, 0.2773292064666748, -0.13476215302944183, -0.16427339613437653, 0.08146461844444275, -0.13888347148895264, -0.14031198620796204, 0.1606813371181488, 0.26576197147369385, -0.2181568592786789, -0.0630410835146904, -0.2910853922367096, 0.04754479229450226, 0.10108478367328644, -0.00023591435456182808, 0.3006701171398163, -0.24261409044265747, 0.005804776214063168, -0.18064850568771362, 0.31840604543685913, 0.20599161088466644, 0.3333728611469269, 0.1650804579257965, 0.22875942289829254, -0.19351321458816528, -0.19799037277698517, 0.16361846029758453, -0.2783486545085907, 0.2931317687034607, 0.08501587063074112, 0.10995610803365707, -0.19843904674053192, 0.2984793484210968, -0.12985603511333466, -0.07130464911460876, 0.03123597428202629, 0.023400379344820976, -0.10815823078155518, 0.025161176919937134, -0.27461305260658264, 0.23265598714351654, 0.24640268087387085, 0.10394033044576645, 0.22258096933364868, -0.26882627606391907, -0.14873184263706207, -0.18274854123592377, -0.212288960814476, -0.2780919373035431, 0.1885198950767517, 0.14252641797065735, 0.06956883519887924, 0.0030317159835249186, 0.10252499580383301, 0.020315617322921753, -0.11806119978427887, 0.13882742822170258, 0.160747691988945, -0.25791800022125244, 0.22541531920433044, -0.018047189339995384, 0.06048542261123657, -0.2905913293361664, 0.1589582860469818, -0.12137564271688461, -0.1034756600856781, -0.09081848710775375, -0.0023747640661895275, -0.0700918436050415, -0.1529843509197235, 0.19170236587524414, 0.08110134303569794, -0.2196299284696579, 0.00734540494158864, 0.05416160821914673, -0.012046368792653084, 0.043134626001119614, -0.0029633173253387213, 0.11671685427427292, -0.20020431280136108, -0.24515298008918762, 0.20158036053180695, -0.1163586899638176, 0.21374644339084625, 0.39367344975471497, -0.1031627506017685, -0.042707111686468124, 0.18492135405540466, -0.015502603724598885, 0.07874088734388351, -0.043018560856580734, 0.1320825070142746, 0.05914710462093353, 0.0034353130031377077, 0.0844893530011177, 0.02283957600593567, -0.041829247027635574, 0.08045058697462082, -0.05177106708288193, -0.08949177712202072, -0.02780856564640999, -5.8826422900892794e-05, -0.20847435295581818, -0.11931909620761871, -0.08349749445915222, -0.0853964239358902, 0.02212453819811344, -0.1750074177980423, 0.09038764238357544, 0.12558679282665253, 0.1013854518532753, -0.052132152020931244, -0.03432389348745346, 0.2526772916316986, -0.016315260902047157, 0.24687226116657257, -0.15618883073329926, 0.18017159402370453, -0.26184120774269104, 0.21812258660793304, -0.3356117010116577, -0.1560126692056656, 0.1825360208749771, -0.22285908460617065, 0.29868409037590027, -0.11638305336236954, 0.23806551098823547, -0.08352679759263992, -0.1299414336681366, 0.22513815760612488, -0.2250351756811142, -0.21829324960708618, -0.3027409315109253, -0.00481484504416585, -0.029591122642159462, -0.16333182156085968, 0.23819132149219513, -0.08075282722711563, -0.0928453579545021, -0.07133932411670685, -0.2207110971212387, 0.11490898579359055, 0.18753241002559662, -0.11072332412004471, 0.23353369534015656, -0.011568114161491394, -0.13702252507209778, 0.024316878989338875, -0.28602173924446106, -0.15686209499835968, -0.05515354871749878, 0.09136123210191727, -0.2649019658565521, 0.08134887367486954, 0.3415061831474304, 0.2093651294708252, -0.2783624231815338, 0.1371917426586151, -0.1924302726984024, -0.3036338686943054, 0.24539421498775482, 0.17125466465950012, 0.2045741230249405, 0.25311294198036194, -0.451399564743042, 0.008609539829194546, -0.24049003422260284, 0.061989232897758484, 0.21996547281742096, 0.1262095421552658, -0.15430809557437897, -0.13659599423408508, -0.38479235768318176, 0.2470415085554123, 0.04103910177946091, -0.246894970536232, 0.10980179160833359, 0.022387215867638588, 0.0018729898147284985, 0.24231204390525818, -0.1319466084241867, 0.0715174451470375, -0.12342631816864014, 0.042747434228658676, 0.00827996525913477, 0.2066018283367157, 0.18500785529613495, -0.09957583248615265, -0.3318241238594055, -0.22628194093704224, -0.07173865288496017, -0.03771865367889404, 0.4502326548099518, -0.09527447819709778, 0.02875109575688839, 0.09691774100065231, -0.3864649534225464, -0.2806713283061981, 0.003610644256696105, 0.13438722491264343, -0.15519391000270844, 0.0009626617538742721, -0.17520959675312042, 0.043546535074710846, -0.11270230263471603, 0.016823995858430862, 0.02325218729674816, -0.07131499797105789, -0.23590360581874847, 0.2521255910396576, -0.2102172076702118, -0.18929480016231537, -0.14607514441013336, -0.2056964933872223, 0.18991033732891083, -0.035695191472768784, -0.1639765053987503, 0.02710578963160515, -0.19866397976875305, -0.05633784085512161, 0.17689889669418335, -0.04890863224864006, 0.17156293988227844, 0.13770461082458496, -0.16187049448490143, 0.03945618122816086, 0.06412209570407867, -0.0424765981733799, 0.058181360363960266, -0.04152752459049225, 0.029729751870036125, 0.016787303611636162, -0.09010522812604904, 0.15235242247581482, 0.11927344650030136, 0.06889481097459793, 0.06978552043437958, -0.1458495706319809, -0.060960978269577026, -0.004262526519596577, -0.1846226304769516, -0.18896760046482086, 0.032379090785980225, -0.24972499907016754, 0.06704965233802795, -0.07934212684631348, 0.013179680332541466, 0.16098663210868835, -0.09397058188915253, 0.11019707471132278, 0.10333103686571121, 0.02908669412136078, -0.13923011720180511, -0.06478426605463028, -0.125348761677742, -0.1381475180387497, 0.046831902116537094, 0.06561515480279922, 0.08898203074932098, -0.003367852186784148, 0.1284404993057251, 0.1284007579088211, 0.2924448251724243, -0.0792490616440773, 0.0610722117125988, -0.15236373245716095, 0.11686824262142181, 0.31196460127830505, 0.015509468503296375, -0.010227348655462265, 0.12262386828660965, -0.03314856067299843, -0.031141052022576332, 0.3070506751537323, -0.11354517936706543, -0.09641070663928986, 0.2649710178375244, 0.007265550084412098, 0.13441237807273865, 0.021545162424445152, -0.2100001722574234, 0.009386536665260792, 0.09901469945907593, -0.4410664141178131, 0.13991138339042664, -0.15900792181491852, 0.04042666777968407, 0.035040225833654404, 0.08415264636278152, 0.022634821012616158, 0.04482519254088402, 0.06732411682605743, -0.019686752930283546, -0.014568696729838848, -0.12254026532173157, -0.04895828291773796, 0.012368774972856045, -0.2078971117734909, 0.12337033450603485, 0.06395942717790604, 0.21179284155368805, -0.007072064094245434, -0.044563814997673035, 0.14431682229042053, -0.0991748571395874, -0.05076295882463455, -0.13611426949501038, 0.10128776729106903, 0.06719860434532166, -0.12865324318408966, -0.19366875290870667, -0.11116467416286469, -0.13198281824588776, 0.21330775320529938, 0.08495533466339111, -0.12977725267410278, -0.016943879425525665, 0.09024185687303543, 0.0835174173116684, 0.04594104364514351, 0.012953021563589573, -0.15553757548332214, -0.09201391786336899, -0.11119649559259415, -0.06696581840515137, -0.097709059715271, -0.04582126811146736, -0.03749852254986763, 0.004021830391138792, 0.0009937960421666503, 0.3342898190021515, 0.1652062088251114, -0.15300078690052032, -0.09591701626777649, -0.02646774984896183, -0.07400345802307129, -0.41401275992393494, -0.13457706570625305, 0.11678947508335114, -0.08453156054019928, 0.1571509838104248, 0.17620253562927246, -0.0385030098259449, 0.04026564210653305, 0.0028817823622375727, 0.07798410952091217, 0.14790214598178864, -0.025932900607585907, -0.34206268191337585, -0.20556536316871643, -0.107801154255867, -0.17262963950634003, 0.19062581658363342, 0.05276086553931236, -0.01363607682287693, -0.09088269621133804, -0.007325485814362764, -0.08607824891805649, 0.16510027647018433, -0.0634407252073288, 0.13504378497600555, -0.17795033752918243, -0.07775454223155975, 0.3289135694503784, -0.019801123067736626, 0.008185402490198612, 0.11559192836284637, 0.006043530069291592, 0.14919042587280273, 0.04308120161294937, -0.018096674233675003, 0.09118489176034927, 0.08194293826818466, -0.14580871164798737, 0.04737275466322899, 0.151683509349823, -0.13888323307037354, 0.1586664319038391, -0.24418672919273376, -0.4578065276145935, 0.14231394231319427, 0.051271598786115646, -0.050155993551015854, 0.0011707234662026167, -0.13840048015117645, 0.013313359580934048, -0.04500193893909454, 0.02267325669527054, 0.09464754164218903, -0.10293653607368469, -0.03925962373614311, 0.1938493400812149, 0.11596682667732239, 0.045416854321956635, -0.13811153173446655, 0.2337373048067093, 0.0321756936609745, 0.08811745047569275, -0.07096251100301743, -0.03470885008573532, 0.02481207624077797, 0.08395655453205109, 0.11655209213495255, -0.07114619016647339, 0.06025606021285057, 0.19426003098487854, 0.12604229152202606, -0.14372259378433228, -0.04994582012295723, -0.0694577544927597, 0.22397175431251526, -0.03063950128853321, 0.017270471900701523, 0.02058991976082325, -0.07970776408910751, 0.056284982711076736, 0.0801072046160698, -0.1269633173942566, -0.07317738234996796, -0.150173619389534, 0.14741890132427216, -0.04833041876554489, -0.07710974663496017, -0.05782388150691986, -0.07391557097434998, -0.18781693279743195, -0.007712934166193008, -0.05239035561680794, -0.1958809196949005, 0.2529461681842804, -0.14605310559272766, 0.18863040208816528, -0.015663206577301025, 0.059558551758527756, 0.2005799412727356, 0.08521373569965363, 0.17292393743991852, 0.007874826900660992, 0.22790616750717163, 0.10514374822378159, 0.029796460643410683, -0.2040245234966278, 0.14925676584243774, -0.04883599281311035, 0.10452050715684891, 0.01711716316640377, 0.21161291003227234, 0.21712249517440796, 0.04876069352030754, -0.060662709176540375, 0.13115540146827698, -0.06969883292913437, -0.10280835628509521, 0.15770414471626282, -0.014298713766038418, 0.049576230347156525, -0.048579324036836624, 0.039179690182209015, 0.07292653620243073, 0.052803490310907364, 0.02913721837103367, 0.03427528217434883, -0.023347940295934677, 0.1772453337907791, -0.1524435430765152, 0.1529582440853119, -0.3111509084701538, -0.08500078320503235, -0.1158028319478035, 0.0719543993473053, 0.04538055881857872, -0.13031736016273499, -0.029182422906160355, 0.007216374855488539, 0.04177255928516388, -0.2626907229423523, 0.15922220051288605, -0.11197368800640106, 0.4873141944408417, 0.148538738489151, -0.2266950011253357, 0.025558382272720337, -0.02732742950320244, -0.13403241336345673, -0.10453186929225922, 0.153577983379364, 0.19039911031723022, -0.08475194871425629, -0.02644231729209423, 0.08282452076673508, 0.01184256374835968, -0.22750571370124817, -0.152630016207695, -0.10367859154939651, 0.05491108074784279, -0.24585887789726257, -0.10532011836767197, 0.2039782702922821, 0.18891635537147522, 0.008487019687891006, -0.07662826031446457, -0.16604302823543549, 0.21240350604057312, 0.10593730956315994, 0.12958718836307526, -0.2619071304798126, -0.06578843295574188, -0.005725344177335501, 0.2111716866493225, -0.12123699486255646, 0.19235245883464813, -0.19275906682014465, 0.010313118807971478, -0.09534994512796402, 0.2382572740316391, -0.048222675919532776, 0.20520976185798645, -0.03759608045220375, -0.15156449377536774, 0.06058114022016525, -0.04617442563176155, -0.08198224753141403, -0.02600785344839096, 0.12620127201080322, -0.044020455330610275, 0.1368049532175064, -0.06151914969086647, -0.046227388083934784, 0.05853986367583275, 0.1124734953045845, -0.04829837381839752, 0.1313435584306717, 