{"version": "0.5.4", "metadata": {"date": {"year": 2025, "month": 12, "day": 8, "hour": 17, "minute": 21, "second": 19}, "loudness": -27.052837371826172, "gain": 0.8146494701742584, "training": {"settings": {"ignore_checks": true}, "data": {"latency": {"manual": 0, "calibration": {"algorithm_version": 1, "delays": [], "safety_factor": 1, "recommended": null, "warnings": {"matches_lookahead": false, "disagreement_too_high": false, "not_detected": true}}}, "checks": {"version": 3, "passed": false}}, "validation_esr": null}}, "architecture": "WaveNet", "config": {"layers": [{"input_size": 1, "condition_size": 1, "head_size": 8, "channels": 16, "kernel_size": 3, "dilations": [1, 2, 4, 8, 16, 32, 64, 128, 256, 512], "activation": "Tanh", "gated": false, "head_bias": false}, {"input_size": 16, "condition_size": 1, "head_size": 1, "channels": 8, "kernel_size": 3, "dilations": [1, 2, 4, 8, 16, 32, 64, 128, 256, 512], "activation": "Tanh", "gated": false, "head_bias": true}], "head": null, "head_scale": 0.02}, "weights": [-0.06010792404413223, 0.5446105003356934, -0.8533921241760254, -0.7492107152938843, -0.41125598549842834, 0.2393152266740799, -0.026993757113814354, 0.8366302847862244, -0.13004259765148163, 0.2626010775566101, -0.3274906277656555, -0.23256482183933258, -0.9344993829727173, -0.6863120794296265, -0.4395946264266968, 0.09252838045358658, 0.06948740035295486, -0.0031361770816147327, -0.09536728262901306, -0.04239119961857796, 0.1752435714006424, 0.14907655119895935, -0.05197353661060333, -0.015843940898776054, -0.056378696113824844, -0.007364670746028423, 0.0065835523419082165, -0.16627970337867737, -0.10974320024251938, -0.157799631357193, -0.08516892790794373, 0.14321886003017426, 0.023990830406546593, -0.03914618864655495, -0.09604237973690033, -0.225091814994812, -0.07834989577531815, 0.14684903621673584, 0.1888343095779419, 0.10275338590145111, -0.006269041448831558, -0.18760888278484344, 0.006831130478531122, -0.11738885194063187, 0.01424766331911087, -0.05044024437665939, 0.07292349636554718, -0.03444727882742882, -0.09083973616361618, -0.019106166437268257, -0.0220097117125988, 0.11797458678483963, 0.03399944305419922, -0.10542463511228561, 0.06382676959037781, -0.10703639686107635, -0.09674478322267532, -0.14397965371608734, -0.119999460875988, -0.19599363207817078, 0.035721879452466965, 0.051750048995018005, 0.005439392291009426, 0.04761932045221329, 0.04937351122498512, 0.08902166038751602, -0.027971766889095306, 0.023843595758080482, -0.05964771658182144, 0.1262047290802002, -0.09848762303590775, 0.09754066914319992, 0.07245505601167679, 0.13177582621574402, 0.2756783664226532, 0.1422118991613388, 0.03752613067626953, 0.021869530901312828, 0.02504194714128971, -0.0959727093577385, -0.2734982371330261, 0.11920908093452454, 0.07725156098604202, -0.048843737691640854, -0.004149976186454296, -0.0376255139708519, -0.1747397929430008, -0.08113759011030197, 0.055955879390239716, 0.04850509762763977, 0.048139121383428574, 0.06806351989507675, -0.039455946534872055, 0.046725064516067505, -0.13606451451778412, 0.050144780427217484, 0.0804046243429184, 0.03311216086149216, 0.02532360702753067, -0.07638636976480484, 0.1487044095993042, 0.2482190728187561, -0.047321636229753494, -0.024012690410017967, 0.012201599776744843, 0.012099574320018291, -0.09874638170003891, 0.03524826839566231, 0.004023569170385599, 0.03334309533238411, -0.17596638202667236, 0.10187026113271713, -0.12228410691022873, -0.021786119788885117, 0.21639227867126465, -0.04945487901568413, 0.12603694200515747, -0.060214824974536896, -0.0534055158495903, -0.12773586809635162, 0.11626895517110825, -0.0651920884847641, -0.2321127951145172, 0.13113433122634888, -0.209079772233963, -0.2472260296344757, 0.03067266196012497, -0.004602201748639345, 0.10007545351982117, -0.18661469221115112, -0.05957193672657013, -0.10023076087236404, 0.024494856595993042, 0.06685598939657211, 0.2656376361846924, -0.07737091183662415, -0.05419221892952919, -0.16331933438777924, 0.1262185126543045, 0.1569243222475052, 0.293362021446228, 0.014494526199996471, 0.07010480016469955, -0.1664762943983078, -0.05729666352272034, -0.1315632164478302, -0.05222085490822792, 0.06876543909311295, -0.14632239937782288, -0.27334126830101013, -0.07362966984510422, -0.19513288140296936, -0.19097283482551575, 0.1422061026096344, 0.007306236308068037, -0.29906877875328064, 0.15626581013202667, -0.07164245843887329, 0.09972315281629562, -0.15477600693702698, -0.021698104217648506, 0.0538504458963871, -0.11875561624765396, -0.16584424674510956, -0.143906369805336, -0.05455957353115082, -0.022248519584536552, 0.17693263292312622, -0.06976106017827988, 0.03356095775961876, 0.24948689341545105, 0.00012136688019381836, 0.16983674466609955, 0.1717877984046936, -0.07542847096920013, 0.05310247838497162, -0.1322634220123291, -0.11658146977424622, 0.125830739736557, -0.03375312313437462, 0.021160325035452843, -0.07399515807628632, -0.02000371366739273, -0.019225727766752243, 0.10242161899805069, 0.16172128915786743, 0.003994757309556007, -0.06679052859544754, -0.23444686830043793, 0.03000570833683014, 0.15292131900787354, 0.2154337614774704, -0.049986034631729126, 0.04075891524553299, 0.010366790927946568, -0.029284443706274033, -0.0401189960539341, 0.1728476583957672, -0.02619720622897148, 0.03968337923288345, 0.1282835453748703, 0.15139923989772797, -0.0684976801276207, 0.020857660099864006, -0.028527960181236267, 0.08488190174102783, -0.1412600576877594, 0.09594446420669556, 0.1196640357375145, 0.10142197459936142, -0.005016226787120104, -0.10909584909677505, -0.07450747489929199, -0.03519202396273613, 0.08185900747776031, 0.11311344057321548, -0.1068573147058487, 0.007699582260102034, 0.2116534411907196, -0.11114532500505447, 0.07005557417869568, 0.23557406663894653, 0.055383339524269104, -0.07741596549749374, -0.2185061275959015, 0.06530652195215225, -0.02635814994573593, 0.0500950962305069, -0.041975293308496475, -0.10487636923789978, -0.09378912299871445, 0.11289107799530029, 0.09984296560287476, 0.22362346947193146, 0.09149093925952911, -0.1706036627292633, -0.026935754343867302, -0.10347048193216324, 0.02009710483253002, 0.1359410285949707, 0.05172599479556084, 0.186239555478096, 0.04369264468550682, 0.0032690814696252346, 0.15783414244651794, -0.0441637858748436, 0.11064531654119492, -0.036268554627895355, 0.09701834619045258, -0.018434735015034676, 0.005746189970523119, 0.11307813227176666, 0.12435401976108551, -0.10909751057624817, -0.1666257679462433, -0.0466482974588871, -0.1263740211725235, -0.08999887853860855, -0.003932128194719553, -0.056693803519010544, 0.08579681813716888, 0.08482841402292252, 0.03368879482150078, -0.05786891654133797, 0.04522174596786499, -0.08995991945266724, -0.20876790583133698, 0.03861406818032265, 0.08051613718271255, -0.12970679998397827, -0.06874307990074158, -0.03344409912824631, 0.020468881353735924, 0.028007201850414276, -0.07002677768468857, -0.2658480107784271, 0.19122235476970673, -0.0512956939637661, 0.15256547927856445, 0.04544377699494362, -0.017696790397167206, -0.25382861495018005, -0.0822751373052597, 0.14824922382831573, 0.18878552317619324, 0.11112424731254578, -0.08305234462022781, -0.12101368606090546, -0.027598148211836815, -0.03647183999419212, -0.2443501204252243, 0.05298955366015434, 0.0027384674176573753, -0.1725589632987976, -0.037909574806690216, -0.13039425015449524, -0.06852159649133682, -0.11068788170814514, 0.02040823921561241, -0.2151237428188324, -0.06944213807582855, 0.03118208423256874, 0.058431293815374374, -0.000168994753039442, 0.05953383073210716, -0.22181382775306702, 0.11125625669956207, 0.097347691655159, 0.18204599618911743, -0.08347421884536743, -0.15772894024848938, -0.14760789275169373, 0.11171042174100876, -0.0901867151260376, -0.06902243196964264, 0.16051405668258667, -0.10956868529319763, -0.12388697266578674, 0.1246473491191864, 0.038895901292562485, 0.12380566447973251, -0.05102583393454552, -0.08799713104963303, -0.08133945614099503, 0.19004039466381073, 0.1680525690317154, 0.2092442661523819, -0.04546651989221573, 0.058341022580862045, -0.17573203146457672, -0.028978073969483376, -0.0977441668510437, 0.26280394196510315, 0.018491804599761963, -0.12821514904499054, -0.06160624697804451, 0.179803729057312, 0.1198214441537857, 0.012290936894714832, 0.17920421063899994, -0.07192550599575043, -0.17577515542507172, 0.1819862574338913, 0.04388117417693138, -0.2108655720949173, 0.1944398283958435, 0.03581937402486801, -0.04379284754395485, -0.02421242743730545, 0.03705059736967087, 0.04524674266576767, 0.029840879142284393, -0.029772792011499405, -0.07188230752944946, 0.02617064118385315, 0.1118493601679802, 0.11486225575208664, 0.12511152029037476, -0.15409061312675476, -0.13292822241783142, -0.1563808023929596, -0.19517073035240173, -0.28082653880119324, 0.05726417154073715, 0.028802456334233284, -0.027499275282025337, 0.06281790882349014, -0.08194892853498459, 0.056957222521305084, 0.02518371306359768, -0.10301607102155685, -0.017068546265363693, -0.10344656556844711, -0.016960952430963516, 0.02637876383960247, -0.025410113856196404, 0.08022773265838623, -0.03114229626953602, 0.07917319983243942, 0.15660084784030914, 0.28638529777526855, 0.007384538184851408, 0.016664978116750717, -0.03072499670088291, 4.0721384721109644e-05, 0.1014830619096756, -0.07960265129804611, 0.04179694876074791, -0.10428894311189651, -0.09672504663467407, -0.041264425963163376, -0.0870690569281578, -0.24608592689037323, -0.13656160235404968, -0.16140028834342957, -0.06547166407108307, 0.050556499511003494, 0.004755084402859211, 0.04909725487232208, 0.1286589801311493, 0.05958821624517441, -0.17516760528087616, 0.03907042369246483, 0.21932436525821686, 0.25504687428474426, -0.16150067746639252, 0.04877608269453049, -0.08621595799922943, -0.006308650132268667, -0.007044493220746517, -0.2772108018398285, 0.026895496994256973, 0.03779126703739166, -0.19030079245567322, -0.049799416214227676, 0.030262770131230354, 0.1426665484905243, -0.0820908322930336, -0.018423141911625862, -0.029520388692617416, 0.10678308457136154, -0.0005047029117122293, 0.20313018560409546, 0.01958955079317093, 0.0056967297568917274, -0.31274160742759705, 0.059271808713674545, -0.02873045764863491, 0.12945972383022308, -0.009164761751890182, -0.18292254209518433, -0.13610774278640747, 0.18086272478103638, -0.06671084463596344, -0.27982097864151, 0.003755902172997594, -0.05762864276766777, -0.3063473701477051, 0.11967258900403976, -0.21855288743972778, -0.33395618200302124, -0.09051917493343353, -0.11370672285556793, -0.09624473750591278, -0.08405759930610657, 0.1716039627790451, 0.10522002726793289, -0.03843257948756218, -0.04312603548169136, -0.28348252177238464, 0.20531153678894043, 0.1367036998271942, 0.277220219373703, -0.011286647990345955, -0.15415790677070618, -0.01343733724206686, 0.08820600807666779, 0.010143394581973553, -0.24837790429592133, 0.040959760546684265, -0.20068801939487457, -0.19198472797870636, 0.11314334720373154, -0.06252920627593994, 0.17185284197330475, -0.0033864176366478205, -0.019623346626758575, -0.2170058786869049, -0.026857420802116394, 0.01308110635727644, 0.19696608185768127, 0.05982232838869095, 0.03976954147219658, -0.14271534979343414, 0.145793616771698, -0.08759621530771255, 0.008735712617635727, -0.01947988010942936, -0.13355983793735504, -0.06222114711999893, -0.01638736017048359, -0.12272285670042038, -0.2500324547290802, 0.15510877966880798, -0.07390957325696945, -0.02219446748495102, 0.17112529277801514, 0.02163654752075672, -0.12886583805084229, 0.03698572516441345, -0.08857294917106628, -0.1144518181681633, 0.15297669172286987, -0.0682845413684845, 0.2556929290294647, -0.09795176237821579, -0.2633623778820038, -0.05205338075757027, 0.14771558344364166, 0.25306692719459534, -0.18076011538505554, 0.04673052206635475, -0.04801163822412491, 0.13003069162368774, 0.17588746547698975, -0.1991848200559616, 0.08957087993621826, 0.11134041845798492, -0.16372168064117432, 0.09320709109306335, 0.010218208655714989, 0.20965665578842163, -0.07711043208837509, -0.09866441786289215, -0.09657071530818939, 0.06963735818862915, -0.06350196152925491, 0.13319504261016846, 0.03982752561569214, -0.06660807877779007, -0.0836377814412117, -0.004776732064783573, 0.0830136090517044, 0.015973586589097977, -0.1278281807899475, -0.12173520773649216, 0.011361607350409031, 0.0026294339913874865, 0.04901513457298279, -0.19128023087978363, 0.18385116755962372, 0.19017967581748962, -0.22954624891281128, -0.07260309904813766, -0.05703824386000633, -0.12147614359855652, 0.0063314917497336864, -0.04365161806344986, -0.17208579182624817, 0.06935279816389084, -0.02636573277413845, 0.15062998235225677, -0.06040659546852112, -0.11021159589290619, 0.07400831580162048, 0.32287684082984924, -0.21627004444599152, -0.0863998755812645, -0.2621360719203949, 0.22901199758052826, -0.04278067499399185, 0.06972301751375198, 0.060000255703926086, 0.002362312050536275, 0.23540936410427094, -0.09738785773515701, 0.06014042720198631, 0.17638516426086426, 0.004681847058236599, -0.07593053579330444, -0.3342435359954834, 0.002283414825797081, -0.004375868011265993, 0.24331776797771454, -0.21266648173332214, 0.0427437424659729, -0.24032269418239594, 0.059364594519138336, 0.18593387305736542, 0.26517561078071594, 0.008342443034052849, -0.0007934722816571593, -0.24712006747722626, -0.0011398197384551167, 0.07434414327144623, 0.3212462365627289, -0.14052216708660126, -0.052071988582611084, 0.25591951608657837, 0.05309488996863365, 0.053337931632995605, 0.08939341455698013, -0.21464751660823822, 0.12873931229114532, 0.19672077894210815, -0.15799683332443237, 0.11862719804048538, 0.260439395904541, 0.027557700872421265, 0.059995412826538086, -0.19444036483764648, -0.017879610881209373, -0.2232917994260788, 0.19484777748584747, -0.04627960920333862, 0.11615422368049622, -0.1961296945810318, 0.21787257492542267, 0.08494997769594193, 0.1989024430513382, -0.2058779001235962, -0.10761567205190659, -0.03077198565006256, 0.051603175699710846, -0.11668378114700317, 0.003952352330088615, -0.009261787869036198, -0.009321839548647404, -0.131564199924469, 0.07237180322408676, -0.10668204724788666, -0.06889171898365021, 0.01741066388785839, -0.011293933726847172, -0.017182299867272377, 0.21075382828712463, -0.0002626819477882236, 0.07582826912403107, 0.020386045798659325, 0.07538124918937683, -0.13632819056510925, 0.22142888605594635, -0.02270893193781376, -0.07423752546310425, -0.1296527236700058, -0.15509779751300812, 0.19178152084350586, -0.10961523652076721, -0.1838187277317047, 0.059669118374586105, 0.006784539204090834, -0.015375494956970215, 0.11381742358207703, -0.07103610783815384, -0.0010992162860929966, 0.031495388597249985, -0.142827570438385, -0.07160812616348267, -0.16724376380443573, 0.15672974288463593, -0.09863113611936569, 0.12757299840450287, -0.01400593388825655, -0.02264372445642948, -0.2308019995689392, 0.13497549295425415, -0.047388967126607895, 0.25713053345680237, -0.1065031960606575, 0.0007663024589419365, 0.21630553901195526, -0.05347997695207596, 0.15317247807979584, 0.037109892815351486, -0.11984387785196304, -0.09376503527164459, -0.10333754122257233, 0.13682840764522552, -0.0821308046579361, 0.14682339131832123, -0.10064812749624252, -0.06801716983318329, -0.0324702188372612, -0.11786424368619919, 0.03633216395974159, 0.2595878541469574, -0.04887847602367401, 0.08499948680400848, -0.17518030107021332, 0.12403705716133118, -0.10992486029863358, 0.11048411577939987, -0.02970980480313301, 0.07219921052455902, 0.18243998289108276, 0.10542706400156021, 0.014811760745942593, 0.13295021653175354, 0.10562915354967117, -0.0035712614189833403, 0.26423192024230957, -0.09131910651922226, 0.017440589144825935, 0.1276475191116333, 0.0653078630566597, 0.08898381888866425, -0.12746509909629822, -0.08772174268960953, 0.11662120372056961, -0.04685894772410393, 0.12900575995445251, -0.0737040564417839, 0.21208152174949646, 0.10244877636432648, -0.00647174334153533, -0.25445422530174255, 0.13178330659866333, -0.12420716881752014, -0.0851755291223526, 0.05410083383321762, -0.08125108480453491, -0.0682918056845665, -0.09473378956317902, 0.040834080427885056, 0.014223998412489891, -0.05510279908776283, 0.060892581939697266, 0.04429289326071739, 0.0033923201262950897, 0.11050635576248169, 0.10038506984710693, -0.10165097564458847, -0.12018358707427979, -0.2325538992881775, 0.1998589187860489, -0.028745675459504128, 0.11964032053947449, -0.002223241375759244, 0.08880096673965454, 0.011728696525096893, 0.15698881447315216, -0.11106701195240021, -0.12821310758590698, -0.04521028324961662, -0.10074447840452194, -0.08528263121843338, 0.1675380915403366, -0.1322629302740097, -0.030545977875590324, -0.041225679218769073, -0.041629765182733536, -0.0010562324896454811, 0.0033116228878498077, -0.008114068768918514, -0.022289730608463287, 0.061227526515722275, 0.11312253773212433, -0.15398971736431122, 0.07382848858833313, -0.20506906509399414, -0.03109251707792282, 0.03863043710589409, 0.2135474681854248, -0.12540727853775024, 0.03406509384512901, 0.2230777144432068, 0.010966864414513111, -0.10819924622774124, 0.08468256890773773, -0.12849615514278412, -0.14391838014125824, -0.09404770284891129, 0.18923459947109222, 0.1497722566127777, 0.12517006695270538, -0.018550913780927658, -0.032912757247686386, 0.01135481521487236, 0.025357158854603767, -0.06668105721473694, 0.11772439628839493, 0.007776009384542704, -0.1439150720834732, 0.030877498909831047, 0.13245798647403717, -0.07764358073472977, 0.06809566169977188, 0.042533617466688156, -0.1394486129283905, 0.058777425438165665, -0.030102351680397987, -0.15220925211906433, 0.17702925205230713, -0.010240666568279266, 0.05641988292336464, 0.0053006489761173725, 0.05919291451573372, -0.11721010506153107, 0.24068062007427216, -0.22172938287258148, -0.15752799808979034, -0.015177193097770214, 0.07723742723464966, 0.02114156447350979, -0.07659757137298584, -0.12402167171239853, -0.0555720329284668, -0.1251668781042099, 0.0581929087638855, 0.038676317781209946, -0.012119600549340248, 0.017711177468299866, 0.10974457859992981, 0.09235742688179016, -0.044995520263910294, -0.042935099452733994, -0.09697560966014862, -0.06610140949487686, -0.021092256531119347, -0.011056489311158657, 0.4811621904373169, -0.4475553035736084, 0.7417599558830261, -0.7659251093864441, -0.004651046823710203, 0.910314679145813, 0.9350038766860962, -0.5160923600196838, 0.13548724353313446, 0.03768205642700195, -0.5240957140922546, -0.2657601237297058, 0.35278159379959106, -0.7091473340988159, 0.13736508786678314, 0.46942561864852905, -0.11952930688858032, 0.21739760041236877, -0.06691418588161469, 0.11359227448701859, 0.2000100463628769, -0.11002340912818909, 0.08441201597452164, -0.06506655365228653, -0.061466097831726074, -0.08800364285707474, 0.112831249833107, -0.05498683452606201, 0.11509254574775696, 0.03353291377425194, 0.10408467799425125, -0.09449967741966248, 0.021383248269557953, -0.1075020283460617, -0.20518502593040466, 0.08920910954475403, 0.07485931366682053, -0.08559119701385498, -0.07715721428394318, 0.08175604790449142, -0.029292317107319832, 0.16434845328330994, -0.04999183863401413, 0.06640167534351349, 0.06791283190250397, -0.08055973798036575, 0.11263887584209442, 0.18480955064296722, -0.005540603306144476, 0.11200554668903351, -0.022902561351656914, 0.23393265902996063, -0.16233418881893158, -0.2229221910238266, 0.0466051921248436, -0.1677350401878357, -0.0527026541531086, -0.17355072498321533, 0.25804442167282104, -0.18583831191062927, 0.14140017330646515, 0.3177911341190338, 0.03985399752855301, -0.05620792508125305, 0.20631495118141174, -0.1322716474533081, -0.06765251606702805, -0.13565440475940704, -0.01126420870423317, 0.0963335931301117, 0.013410058803856373, -0.048136960715055466, -0.22325170040130615, 0.046966876834630966, -0.0655251145362854, 0.01103080715984106, 0.17288430035114288, 0.22197450697422028, -0.20044922828674316, -0.03508394956588745, -0.13143660128116608, -0.28722891211509705, -0.22000578045845032, 0.1693519949913025, 0.17761997878551483, 0.13131171464920044, 0.10588674247264862, -0.16328847408294678, 0.06497868150472641, 0.22735941410064697, -0.1531214416027069, 0.2111435979604721, -0.015339454635977745, 0.14265912771224976, -0.13197201490402222, 0.07959555834531784, -0.2041974663734436, -0.04151376336812973, 0.09334857761859894, 0.04803819954395294, 0.2549936771392822, 0.25625279545783997, 0.21723605692386627, 0.10941020399332047, 0.1981910914182663, -0.013945660553872585, -0.2347240000963211, -0.09009215235710144, -0.041576191782951355, -0.16384008526802063, 0.12362515181303024, 0.12149766087532043, 0.09669572114944458, 0.1391291320323944, 0.2030666619539261, 0.17089490592479706, -0.21764345467090607, -0.22528909146785736, 0.05391743779182434, -0.061314597725868225, 0.022448763251304626, -0.35233327746391296, -0.16437967121601105, 0.24116311967372894, 0.2826162576675415, -0.13611724972724915, 0.02925541251897812, -0.16191068291664124, 0.2742043733596802, 0.02844282053411007, 0.35334450006484985, -0.29891642928123474, -0.2597617506980896, 0.2521446645259857, 0.3387335538864136, 0.15925614535808563, 0.21283987164497375, -0.13650678098201752, 0.15939411520957947, -0.2695115804672241, 0.07458715885877609, -0.23178991675376892, -8.341140528500546e-06, 0.09009132534265518, -0.15935535728931427, 0.039601534605026245, -0.33803269267082214, -0.14995355904102325, 0.1577451527118683, -0.16349057853221893, -0.2662164270877838, -0.17797361314296722, -0.29893758893013, -0.3086831569671631, 0.16486039757728577, 0.19616980850696564, 0.04600302875041962, -0.03753897175192833, -0.055727794766426086, -0.03132607042789459, -0.16811831295490265, 0.05610617250204086, 0.24379666149616241, -0.2332533895969391, -0.3054361641407013, 0.03528568893671036, 0.2417191118001938, -0.009547400288283825, 0.06042368710041046, 0.2269725203514099, 0.12324514985084534, 0.03062216006219387, 0.22030876576900482, 0.15908797085285187, -0.050612762570381165, -0.046138279139995575, 0.06807568669319153, 0.2699447572231293, -0.33032333850860596, 0.18331614136695862, -0.05926821753382683, -0.3281102776527405, -0.045362163335084915, -0.12911275029182434, -0.018184563145041466, -0.23009349405765533, -0.14694197475910187, 0.025532927364110947, -0.08088210225105286, 0.21537750959396362, -0.05521151423454285, 0.15325473248958588, 0.0078074256889522076, -0.06292925775051117, 0.13840195536613464, 0.02272827923297882, -0.0006778126116842031, -0.12971249222755432, -0.024833351373672485, 0.039449986070394516, -0.020687561482191086, -0.17282681167125702, 0.051167622208595276, -0.22942718863487244, -0.07671515643596649, 0.16173265874385834, -0.16043175756931305, -0.20920893549919128, -0.032706983387470245, -0.01233135536313057, 0.04537548869848251, 0.10355666279792786, 0.08072739839553833, -0.18325494229793549, -0.023707706481218338, 0.06288626790046692, 0.15482112765312195, -0.08493107557296753, -0.13691411912441254, 0.11536833643913269, 0.2067078948020935, -0.10411259531974792, -0.15149261057376862, 0.16198937594890594, -0.03027835488319397, -0.19892574846744537, -0.188018798828125, 0.13709910213947296, -0.05947626009583473, 0.15068858861923218, 0.1292102187871933, -0.06605725735425949, -0.0635172575712204, -0.1499599814414978, -0.038435645401477814, 0.08692343533039093, -0.16651344299316406, -0.013936787843704224, -0.26975345611572266, 0.17857255041599274, -0.1687147468328476, 0.25558212399482727, -0.11149255931377411, -0.11404213309288025, 0.10750732570886612, -0.010088917799293995, 0.09394048899412155, 0.11759715527296066, -0.2762293815612793, 0.09265433996915817, -0.028165550902485847, -0.07606206089258194, 0.14941737055778503, 0.21970900893211365, -0.24974611401557922, -0.01111889909952879, 0.27873802185058594, 0.043326135724782944, 0.2742882966995239, -0.12705326080322266, -0.1386842131614685, 0.33230599761009216, 0.18556906282901764, 0.1941305547952652, -0.06691291183233261, -0.13379725813865662, -0.12423545122146606, -0.26417163014411926, 0.10974285751581192, 0.10864388942718506, 0.10026466101408005, 0.06418102979660034, 0.1467672884464264, -0.1482488065958023, 0.20765846967697144, -0.21075370907783508, -0.12464208155870438, -0.057448867708444595, 0.1166551411151886, 0.011729477904736996, 0.08878278732299805, -0.18228483200073242, 0.08734072744846344, -0.01482539065182209, 0.039647266268730164, 0.15849356353282928, 0.10303644835948944, -0.024698743596673012, 0.0071203140541911125, -0.04775560647249222, -0.1368117481470108, 0.08733797073364258, -0.06420473754405975, 0.10009002685546875, -0.01712770015001297, 0.025057515129446983, -0.10113698989152908, -0.12328161299228668, 0.007767275907099247, -0.04377328231930733, -0.02246699295938015, -0.02989323064684868, 0.051894526928663254, 0.03121667541563511, -0.20196375250816345, 0.2597050368785858, -0.10231959074735641, -0.10166188329458237, -0.007154311519116163, -0.042012061923742294, -0.13996237516403198, 0.03577294573187828, 0.014395533129572868, 0.14671297371387482, -0.23781007528305054, -0.1393575221300125, 0.012823795899748802, -0.06545771658420563, -0.05763346329331398, 0.049921538680791855, -0.1673557460308075, -0.0793241336941719, -0.020599575713276863, -0.10565350949764252, -0.11198338866233826, 0.017254238948225975, -0.19441276788711548, -0.0924244076013565, 0.0676785409450531, -0.14436911046504974, -0.07737985998392105, 0.13707105815410614, -0.10841771215200424, 0.08089306950569153, -0.12278608977794647, 0.03699552267789841, -0.01881278306245804, 0.015836164355278015, 0.1610967069864273, -0.1654224842786789, -0.04029388353228569, 0.03216097131371498, -0.04615622013807297, -0.019425028935074806, 0.15864244103431702, -0.12624448537826538, 0.04150541499257088, -0.09526653587818146, 0.057321734726428986, -0.1368953287601471, 0.09421498328447342, -0.1258476823568344, -0.1287086457014084, -0.06991264969110489, 0.12002092599868774, -0.10926052927970886, -0.052317507565021515, 0.09996496886014938, -0.07260151207447052, -0.04786233603954315, -0.1022757813334465, -0.008982086554169655, 0.00020642629533540457, 0.09007864445447922, 0.03691091760993004, -0.13920582830905914, 0.039169397205114365, 0.030378267168998718, 0.030015720054507256, -0.10954682528972626, -0.047718022018671036, 0.17180633544921875, -0.03239933028817177, -0.032856497913599014, 0.04092273861169815, 0.04034404084086418, 0.06667987257242203, 0.038048069924116135, -0.01061635185033083, -0.04639524593949318, 0.056835927069187164, -0.06624472886323929, 0.10440931469202042, -0.20780323445796967, -0.0523129366338253, -0.14314138889312744, -0.00859815999865532, 0.1436796486377716, 0.15769429504871368, -0.1069977656006813, -0.015369129367172718, 0.025258399546146393, 0.07090101391077042, 0.12291651964187622, -0.0028052632696926594, -0.06957802921533585, 0.1282697170972824, -0.045782674103975296, 0.09197459369897842, -0.03147184103727341, 0.16205419600009918, 0.04619449004530907, 0.13137206435203552, -0.15751537680625916, -0.08525741845369339, -0.07440793514251709, -0.011926966719329357, 0.06821547448635101, -0.009862414561212063, -0.1704900562763214, -0.037781406193971634, -0.060269907116889954, 0.08954962342977524, -0.11266548186540604, -0.1153029203414917, -0.22731532156467438, 0.10985565930604935, 0.12942253053188324, -0.09437762945890427, 0.12611860036849976, 0.07849980890750885, -0.03817012161016464, -0.012078159488737583, -0.020407387986779213, -0.052020639181137085, 0.05988161265850067, -0.08646070212125778, 0.012584151700139046, 0.09517626464366913, -0.10800617188215256, 0.17962633073329926, 0.12305338680744171, 0.005959506146609783, -0.07921859622001648, 0.0985817238688469, -0.046170640736818314, 0.11226019263267517, 0.06585700064897537, 0.09398738294839859, -0.20871582627296448, -0.09334596991539001, 0.09548360109329224, 0.06425453722476959, -0.08342449367046356, 0.009233739227056503, -0.10534806549549103, -0.04026344045996666, -0.049862463027238846, 0.2717571556568146, -0.02558419108390808, 0.08377532660961151, 0.0878819152712822, 0.09713278710842133, -0.15490515530109406, 0.1747676134109497, 0.01966426707804203, 0.12727458775043488, -0.24619127810001373, 0.11074849963188171, 0.1280648559331894, -0.08659642934799194, 0.022089587524533272, 0.1294800341129303, -0.23531527817249298, 0.023363351821899414, 0.11588699370622635, -0.016096729785203934, 0.20456822216510773, 0.07942838966846466, 0.023802224546670914, -0.004165227524936199, 0.08050333708524704, -0.20089036226272583, -0.09622060507535934, -0.012868036516010761, -0.1342894732952118, 0.14410386979579926, 0.03441833704710007, 0.1804870069026947, 0.08113441616296768, -0.09483113139867783, -0.027145886793732643, 0.03370705619454384, 0.04928154870867729, 0.08318533003330231, -0.051301538944244385, -0.08693759888410568, 0.07561828941106796, -0.03672345355153084, -0.13222241401672363, 0.07234355062246323, 0.08445081859827042, -0.06451963633298874, -0.05681997910141945, -0.1196330115199089, -0.08374963700771332, 0.11058160662651062, -0.11983517557382584, 0.11541156470775604, -0.1179298385977745, 0.013065657578408718, 0.05862369015812874, 0.1757226586341858, 0.10047007352113724, 0.05458279699087143, 0.0011686825891956687, -0.036178506910800934, -0.07829039543867111, -0.10710794478654861, 0.013928595930337906, 0.10328704118728638, -0.11761534214019775, 0.02584228105843067, -0.1369413137435913, -0.0032494887709617615, 0.10688614845275879, -0.2051360011100769, -0.15242555737495422, 0.12109462171792984, 0.00497551029548049, -0.02921648882329464, 0.026711560785770416, -0.053376004099845886, -0.1500529795885086, -0.12512224912643433, 0.1285499632358551, 0.045211754739284515, -0.06448202580213547, -0.08383670449256897, -0.0665714219212532, -0.1223999410867691, -0.10165654122829437, 0.1347280740737915, 0.10613790154457092, -0.07797911763191223, -0.007530932780355215, -0.021774716675281525, 0.0004120880039408803, 0.08796856552362442, 0.058133382350206375, -0.06520691514015198, 0.1004565954208374, 0.032156236469745636, 0.08731198310852051, -0.1762959063053131, 0.057930637151002884, 0.04801684245467186, -0.16129912436008453, -0.06382495909929276, 0.12665407359600067, -0.17783015966415405, 0.19779789447784424, 0.104804128408432, 0.19346851110458374, -0.09683126211166382, 0.19643695652484894, -0.02331635169684887, 0.012924689799547195, 0.026397977024316788, 0.10393743216991425, -0.016197213903069496, 0.2063346803188324, 0.0679069459438324, 0.08086103945970535, 0.014161283150315285, 0.0884343832731247, -0.02109513431787491, -0.09480124711990356, -0.13456346094608307, 0.06648077070713043, -0.09079723060131073, 0.14802397787570953, -0.21984370052814484, -0.006834541447460651, -0.079145148396492, 0.07941949367523193, 0.08227162808179855, -0.040315911173820496, 0.08651091903448105, 0.09446695446968079, 0.17264093458652496, -0.1092342659831047, -0.0023381516803056, -0.18278789520263672, 0.2572838366031647, 0.14433905482292175, -0.013954248279333115, 0.00949037168174982, -0.006831212900578976, 0.07545322179794312, 0.05947688966989517, 0.1400052309036255, 0.2962363362312317, -0.001126448274590075, 0.15719151496887207, -0.1459696739912033, 0.1312895119190216, -0.10698755085468292, 0.23513014614582062, -0.150348499417305, 0.052642688155174255, -0.2730749249458313, -0.05602186918258667, 0.022278757765889168, 0.0795510783791542, -0.026140594854950905, 0.14236795902252197, -0.23508548736572266, 0.14544512331485748, -0.05363010615110397, -0.10449279844760895, 0.10339498519897461, 0.10891571640968323, 0.028027895838022232, 0.2624172568321228, -0.0021830755285918713, 0.018008312210440636, -0.12071875482797623, -0.054055601358413696, -0.12067116796970367, 0.10487500578165054, -0.15565551817417145, 0.11095131188631058, -0.1341087818145752, -0.11217484623193741, -0.03023574873805046, 0.11358039826154709, 0.09454213827848434, -0.05726322531700134, -0.12004049867391586, -0.1243773102760315, -0.03574264049530029, 0.12917450070381165, -0.06244486942887306, -0.0899568647146225, -0.07522532343864441, 0.010526375845074654, -0.16465140879154205, -0.1242489367723465, 0.11115329712629318, 0.015436683781445026, -0.0986856147646904, -0.03758605942130089, -0.16374920308589935, 0.010458654724061489, 0.013585447333753109, 0.04283951222896576, -0.06475446373224258, 0.03059723973274231, -0.22892525792121887, 0.158744677901268, 0.11844905465841293, 0.1310565173625946, -0.04663083329796791, 0.11625844985246658, -0.2419183999300003, 0.012692905031144619, -0.05139872059226036, -0.13716626167297363, 0.04971965774893761, -0.09019839763641357, -0.06395335495471954, 0.007559642661362886, -0.14378388226032257, -0.047145575284957886, -0.11255989223718643, 0.10094933956861496, 0.006969909183681011, 0.16265715658664703, -0.07446092367172241, 0.09868206828832626, 0.009703441523015499, 0.14723175764083862, 0.2133430689573288, -0.1131695806980133, -0.15520793199539185, -0.11676102876663208, -0.04866962507367134, 0.15817348659038544, 0.1280648559331894, 0.06900766491889954, 0.11919306963682175, 0.03140527009963989, -0.10907068103551865, 0.10131783783435822, 0.15988141298294067, 0.018200913444161415, -0.12727414071559906, -0.01258955430239439, 0.03736164793372154, 0.09864281117916107, 0.14222121238708496, 0.07181283086538315, -0.12995293736457825, -0.1991395801305771, 0.1293734610080719, -0.00820177886635065, 0.02410898730158806, 0.13094297051429749, 0.02401030994951725, 0.0709213837981224, -0.08552151918411255, 0.06514264643192291, 0.09131170064210892, -0.0685967355966568, 0.048767540603876114, 0.06709688156843185, 0.08244457840919495, -0.017231974750757217, 0.1851150244474411, -0.03647186607122421, -0.033302705734968185, -0.0377250500023365, -0.16116249561309814, -0.03341768682003021, -0.0291330236941576, -0.06681502610445023, -0.022889060899615288, -0.1598854959011078, -0.0695110484957695, 0.03542055934667587, 0.07933340966701508, -0.027857717126607895, -0.07139269262552261, 0.06901165097951889, 0.10453653335571289, -0.1736619472503662, -0.006320267915725708, 0.024368202313780785, -0.061040084809064865, 0.1312614530324936, -0.011649223044514656, 0.0800488069653511, -0.016968773677945137, -0.014140327461063862, -0.024515384808182716, -0.08737477660179138, 0.018903570249676704, 0.04663290083408356, -0.0026179449632763863, 0.11657553166151047, -0.04274212568998337, 0.022517172619700432, 0.0855247899889946, -0.08151189237833023, 0.12956562638282776, 0.028174305334687233, -0.10182520747184753, -0.08360186964273453, 0.039202168583869934, -0.14711622893810272, 0.036870699375867844, 0.16270101070404053, -0.04687783122062683, -0.03235754743218422, 0.028698328882455826, -0.09174536168575287, -0.08908818662166595, -0.06668737530708313, -0.11792340129613876, 0.03982564061880112, 0.044439755380153656, -0.12134356051683426, -0.12629565596580505, 0.11002776026725769, 0.00666401069611311, -0.006922164466232061, -0.12745296955108643, 0.0507485494017601, 0.10009916126728058, -0.1270495355129242, -0.13377131521701813, 0.10033153742551804, -0.10956176370382309, 0.09333344548940659, -0.030746115371584892, 0.04735671728849411, -0.1113925650715828, -0.04331217706203461, -0.017918191850185394, 0.040546827018260956, 0.031343892216682434, -0.15525324642658234, -0.08470230549573898, 0.05264431610703468, 0.028636232018470764, -0.01337676402181387, 0.12200392037630081, 0.11333265900611877, -0.18087619543075562, 0.05434950441122055, 0.11473958194255829, 0.08377081155776978, 0.016553431749343872, 0.0925300270318985, -0.12878261506557465, -0.206096351146698, -0.04703940451145172, 0.24854566156864166, 0.0006867908523418009, -0.1104324534535408, 0.2384309619665146, 0.03509518876671791, -0.07592207938432693, 0.13004577159881592, -0.0075325919315218925, -0.01402822881937027, 0.09624931216239929, -0.039938513189554214, 0.024807697162032127, 0.15564681589603424, 0.04468363896012306, -0.06984767317771912, -0.15154197812080383, -0.1732177883386612, 0.05715598911046982, 0.1895546168088913, -0.020570963621139526, -0.05966046825051308, -0.039227213710546494, -0.03239285200834274, -0.17629796266555786, -0.041580114513635635, 0.07082392275333405, 0.12241257727146149, 0.024948960170149803, 0.018728673458099365, -0.0015159259783104062, 0.09156907349824905, 0.027556419372558594, -0.09322033822536469, -0.012995216995477676, 0.25733572244644165, 0.0612216554582119, -0.05057944357395172, -0.13122783601284027, 0.11737585067749023, 0.11249619722366333, 0.25366148352622986, 0.09140819311141968, 0.16192343831062317, -0.20307467877864838, -0.10137950628995895, -0.2365700602531433, 0.06930573284626007, -0.057424020022153854, -0.01706439070403576, -0.05069425329566002, -0.08356551080942154, -0.04907037317752838, -0.058860935270786285, -0.018943797796964645, -0.05659158527851105, -0.1480352133512497, 0.07828637212514877, 0.1773056983947754, 0.03368481248617172, -0.034596361219882965, 0.12817101180553436, -0.04388808459043503, -0.12409119307994843, -0.1808679699897766, 0.08780281245708466, 0.09171594679355621, -0.03731232136487961, 0.0847269743680954, -0.09057999402284622, 0.12768925726413727, 0.09997915476560593, 0.027021583169698715, 0.1230822503566742, 0.091262087225914, -0.07421611249446869, 0.029700003564357758, 0.059629715979099274, -0.022912688553333282, 0.1629677563905716, -0.028920095413923264, -0.11476264894008636, -0.090872623026371, -0.14109422266483307, 0.14942666888237, -0.07421653717756271, -0.1051093190908432, -0.04267899692058563, -0.15080688893795013, -0.13518089056015015, 0.07781369984149933, -0.05620691925287247, 0.11255142837762833, 0.09100469946861267, -0.02870781347155571, 0.043849822133779526, -0.08427534997463226, 0.14682790637016296, 0.19063380360603333, 0.019614821299910545, 0.16869156062602997, -0.12365865707397461, -0.028208952397108078, 0.1013595312833786, -0.0814724788069725, 0.06289003044366837, -0.017887933179736137, -0.02916567213833332, -0.11316601186990738, 0.10541380941867828, -0.06141184642910957, -0.021062351763248444, 0.01096945907920599, 0.05445520579814911, 0.026940632611513138, -0.07870993763208389, -0.060116443783044815, 0.03889766335487366, 0.032397978007793427, 0.12639929354190826, 0.06013326719403267, 0.10258551687002182, -0.10606709867715836, 0.08699516206979752, -0.04443585127592087, -0.011846371926367283, 0.021197248250246048, -0.024300364777445793, 0.04435577616095543, 0.12462981790304184, -0.0930919349193573, -0.015279928222298622, -0.14816202223300934, -0.0006692656897939742, 0.11067001521587372, 0.05958661064505577, 0.10791623592376709, 0.019811296835541725, -0.03496699407696724, 0.03200937435030937, -0.02788282372057438, 0.11007395386695862, 0.08240780979394913, -0.10367923229932785, 0.13647030293941498, -0.006930325645953417, 0.029632246121764183, -0.03999999910593033, -0.023613903671503067, 0.050922274589538574, -0.06102452427148819, -0.12842285633087158, -0.054028380662202835, -0.034023717045784, 0.1046706959605217, 0.10613669455051422, -0.09764177352190018, -0.021699441596865654, -0.02861015498638153, -0.10736843198537827, -6.23547239229083e-05, -0.06157345697283745, 0.11382243037223816, -0.11594478040933609, -0.11475343257188797, -0.02723178081214428, 0.051521170884370804, 0.1618238389492035, -0.031157156452536583, -0.10472331941127777, 0.019656198099255562, 0.15384960174560547, -0.007274645380675793, -0.026002604514360428, 0.06320838630199432, 0.05422493815422058, 0.08752982318401337, 0.10057707875967026, 0.18616701662540436, 0.08237693458795547, -0.193126380443573, 0.012554846704006195, 0.000790782505646348, 0.1462946981191635, 0.012782457284629345, 0.1434059888124466, -0.24897940456867218, 0.03652362897992134, -0.29138627648353577, 0.045559510588645935, -0.08247784525156021, -0.045697055757045746, 0.09055547416210175, -0.012121296487748623, -0.08672545850276947, 0.22964148223400116, 0.050373468548059464, -0.000711845641490072, 0.11655449122190475, 0.0308404378592968, -0.020367560908198357, 0.17733243107795715, -0.06924380362033844, -0.07954666763544083, -0.014206890016794205, -0.1614053100347519, -0.12807174026966095, -0.009483029134571552, 0.12696437537670135, 0.12631145119667053, -0.11067882180213928, -0.1559731513261795, 0.11425672471523285, -0.10818257927894592, 0.07660980522632599, 0.06574518233537674, 0.10753990709781647, -0.022235047072172165, 0.11313451826572418, 0.12563377618789673, 0.049884214997291565, 0.08643828332424164, -0.08068354427814484, -0.06386616080999374, 0.031776607036590576, 0.04718826711177826, 0.002467794343829155, -0.23559503257274628, -0.09262146800756454, 0.03607642278075218, 0.13342824578285217, -0.15500470995903015, 0.10728682577610016, -0.23288534581661224, -0.2229815125465393, -0.15241870284080505, 0.020226389169692993, 0.06439018994569778, -0.07884872704744339, 0.11946842074394226, 0.13334062695503235, -0.05723579600453377, 0.18202006816864014, 0.0011831114534288645, -0.10372329503297806, 0.06677819043397903, 0.08338182419538498, -0.11959196627140045, -0.07339203357696533, 0.07176089286804199, 0.015695195645093918, 0.13211801648139954, -0.0695534348487854, -0.02214738167822361, -0.03012891858816147, 0.08517787605524063, 0.0777234435081482, 0.08541984111070633, 0.05858736112713814, 0.1275683045387268, 0.09184378385543823, -0.019746551290154457, 0.08456975221633911, -0.07607041299343109, 0.09700729697942734, 0.11570877581834793, 0.1345089226961136, -0.06779655069112778, -0.06355909258127213, 0.049766890704631805, 0.0935811698436737, 0.06673514097929001, 0.04790379852056503, 0.04285842180252075, -0.055539023131132126, -0.04874537140130997, 0.18449796736240387, 0.19020317494869232, -0.6273602247238159, 0.06110943853855133, -0.6225566267967224, -0.5944938659667969, -0.5026639699935913, 1.002948522567749, -0.9625331163406372, -0.5455192923545837, -0.9155945777893066, 0.271869033575058, -0.7878828644752502, 0.027844570577144623, -0.7472966909408569, -0.1371718943119049, -0.08135505765676498, 0.0023270680103451014, 0.19031070172786713, 0.2204418182373047, 0.02033706195652485, -0.25502902269363403, -0.025068949908018112, -0.2070854902267456, -0.0761757344007492, 0.05003415048122406, 0.1200253963470459, 0.020691996440291405, 0.15333755314350128, -0.023909609764814377, 0.013651837594807148, 0.06578154861927032, -0.10086379945278168, 0.015633808448910713, 0.026871316134929657, -0.16557946801185608, 0.09668660163879395, 0.03677220642566681, -0.11422219127416611, 0.1247510239481926, -0.17249555885791779, 0.08271726965904236, 0.28440093994140625, -0.1338823437690735, 0.030943702906370163, 0.15673485398292542, 0.1225181445479393, -0.060167744755744934, -0.19314044713974, 0.02713264524936676, 0.23493243753910065, 0.06428611278533936, 0.1088140457868576, 0.05001024156808853, 0.12452332675457001, -0.09669892489910126, 0.042042165994644165, -0.23817354440689087, -0.10219201445579529, -0.05732904374599457, 0.1129901334643364, 0.19355762004852295, 0.041170887649059296, 0.092086561024189, 0.07014245539903641, -0.17400197684764862, -0.11624454706907272, -0.19032876193523407, -0.058071669191122055, -0.0695609524846077, -0.05324199050664902, -0.04340017959475517, 0.05703067407011986, 0.10559596866369247, 0.2704069912433624, 0.2409711331129074, -0.19303067028522491, 0.03839486464858055, -0.02842167392373085, 0.28456467390060425, 0.014606324955821037, -0.156287282705307, -0.16109061241149902, 0.18335476517677307, 0.009860389865934849, -0.08976826071739197, 0.25233128666877747, 0.13626711070537567, -0.06987293064594269, -0.07535795867443085, 0.23457548022270203, -0.15932540595531464, -0.10975440591573715, -0.13244356215000153, -0.1474875956773758, -0.1587982028722763, -0.07042675465345383, -0.26576167345046997, -0.1160624772310257, 0.07819000631570816, -0.14600718021392822, -0.052071452140808105, -0.07865292578935623, 0.09057705104351044, 0.19787980616092682, -0.04444484785199165, -0.13443490862846375, -0.20144057273864746, -0.08330480754375458, 0.053623367100954056, 0.06325265765190125, 0.09643791615962982, -0.11730580031871796, 0.14598150551319122, -0.2846130132675171, 0.09156832844018936, 0.28831663727760315, -0.32465746998786926, -0.19955305755138397, 0.05175277218222618, -0.012466146610677242, -0.1666407585144043, 0.07880376279354095, 0.0061087841168046, -0.0537295900285244, -0.038323014974594116, 0.28028199076652527, 0.07860742509365082, 0.06306209415197372, 0.04513959214091301, 0.10453043133020401, 0.2017003446817398, -0.05449371039867401, -0.0485827662050724, 0.09024856984615326, -0.10582279413938522, 0.24800287187099457, -0.2581653594970703, 0.06535091251134872, -0.21053282916545868, 0.1428377330303192, 0.19462190568447113, 0.05291946977376938, 0.03292763978242874, 0.11423204094171524, -0.20911580324172974, -0.23356585204601288, -0.26346033811569214, -0.10978306084871292, -0.108808234333992, -0.13941101729869843, 0.06450168043375015, 0.05666637048125267, 0.26360049843788147, -0.13965439796447754, 0.019359296187758446, 0.13488559424877167, -0.13924948871135712, 0.2855176031589508, -0.15266947448253632, -0.07807998359203339, 0.039055198431015015, 0.22609518468379974, 0.1582886427640915, -0.2155432254076004, 0.215785413980484, 0.016311250627040863, 0.005297408904880285, -0.047481268644332886, 0.15404780209064484, 0.3330017030239105, 0.09569951891899109, -0.004818744026124477, 0.1306486278772354, -0.20919169485569, -0.0887177586555481, -0.09951335936784744, -0.16218701004981995, 0.07164819538593292, 0.005247889086604118, -0.06175297126173973, -0.061498455703258514, 0.0009329009335488081, 0.18650497496128082, 0.22066758573055267, -0.15561707317829132, 0.10481840372085571, 0.1076110303401947, 0.028607560321688652, -0.05294257402420044, 0.07331998646259308, 0.05560145154595375, 0.2016787827014923, -0.1730080097913742, -0.007261139340698719, -0.09982623159885406, -0.09218393266201019, 0.19213011860847473, 0.2296227067708969, -0.3000664710998535, 0.11264663189649582, 0.204480841755867, -0.0024948392529040575, -0.1521909534931183, -0.03744182363152504, 0.14151503145694733, -0.10445734858512878, -0.15097321569919586, -0.2624652087688446, -0.16638629138469696, 0.18189191818237305, -0.014091416262090206, -0.036653805524110794, -0.17072947323322296, 0.12423267960548401, -0.13239052891731262, -0.062065672129392624, -0.25427988171577454, -0.22275610268115997, 0.220053032040596, -0.23595531284809113, -0.029230566695332527, -0.037383198738098145, 0.10531412065029144, 0.022476645186543465, -0.17594678699970245, 0.18897973001003265, -0.21726074814796448, 0.04811916500329971, -0.13663892447948456, -0.07990729808807373, 0.17707476019859314, 0.17634980380535126, 0.06208694726228714, -0.0894690528512001, 0.21362213790416718, 0.04017811268568039, 0.0031277379021048546, -0.08370541781187057, 0.03920277953147888, 0.17305491864681244, 0.04585447534918785, -0.05001223832368851, -0.16013021767139435, -0.10402292013168335, 0.1577327698469162, 0.014154622331261635, -0.07634740322828293, 0.0751105397939682, -0.15619182586669922, 0.03418358042836189, -0.1470477432012558, 0.03267897292971611, 0.20623694360256195, 0.16610077023506165, 0.1699494570493698, -0.196139857172966, -0.15176093578338623, -0.06649352610111237, -0.3011798858642578, 0.10580049455165863, -0.33791711926460266, -0.036830250173807144, 0.3499167263507843, -0.19297048449516296, 0.23565204441547394, -0.08226484060287476, 0.08897648751735687, -0.035486698150634766, -0.31605657935142517, -0.19961804151535034, -0.09552182257175446, 0.011711533181369305, 0.02141239494085312, -0.05407625436782837, -0.12153679132461548, -0.016197148710489273, 0.12850143015384674, 0.14554312825202942, 0.1258333921432495, 0.04639603942632675, 0.07012632489204407, -0.17890261113643646, 0.04506807401776314, -0.2482275366783142, -0.10497074574232101, -0.07474548369646072, 0.13234975934028625, -0.08953090012073517, 0.020441342145204544, 0.013009550981223583, -0.09026847034692764, -0.06072622910141945, 0.11441884934902191, -0.10840354859828949, 0.09180399030447006, 0.12411363422870636, -0.10923086106777191, -0.04898006096482277, 0.17493696510791779, 0.016727430745959282, -0.0015132447006180882, 0.12469135224819183, 0.173166885972023, -0.05744623392820358, 0.01912539452314377, -0.06416373699903488, 0.0571090504527092, -0.07215644419193268, 0.13332334160804749, -0.15170040726661682, -0.011862250044941902, 0.007282520644366741, 0.010676614008843899, -0.08017311245203018, 0.0938301533460617, -0.03273233398795128, 0.016892703250050545, -0.07518287748098373, -0.02623979188501835, -0.007258904166519642, -0.16352374851703644, 0.07178016752004623, 0.03569518402218819, -0.08749754726886749, 0.03059864044189453, 0.0028761527501046658, 0.06362944096326828, -0.1099032461643219, 0.24799329042434692, -0.1564953625202179, -0.004785133525729179, 0.026579933241009712, 0.1994434893131256, -0.09645796567201614, 0.006582450121641159, -0.07370070368051529, 0.111643485724926, -0.10353223234415054, 0.10351748019456863, -0.12113562226295471, 0.1957843005657196, 0.07413432002067566, 0.16037018597126007, -0.0496947281062603, -0.09056881815195084, -0.11152283102273941, 0.13541218638420105, -0.039698533713817596, 0.01398539636284113, -0.05070306733250618, 0.03232502564787865, -0.12152564525604248, 0.11496987193822861, -0.09056451916694641, 0.1301909238100052, -0.05038996413350105, -0.09499087929725647, -0.036769382655620575, 0.027208492159843445, -0.014135508798062801, -0.1485978215932846, 0.11912237852811813, 0.10344450920820236, 0.05143662542104721, 0.16033510863780975, 0.04488297179341316, -0.009413659572601318, -0.0557565912604332, -0.20679068565368652, -0.13559243083000183, -0.016124309971928596, 0.09974692761898041, -0.07357998937368393, -0.05425487831234932, -0.015546637587249279, -0.12815649807453156, 0.025750700384378433, 0.13431012630462646, 0.14488358795642853, -0.01895051635801792, 0.07355641573667526, 0.04224194958806038, 0.02396356873214245, -0.09434262663125992, -0.0943671464920044, 0.08689454197883606, 0.003554136725142598, -0.1134815663099289, 0.05676485598087311, -0.03066757321357727, 0.13836990296840668, -0.15021368861198425, 0.03709704428911209, 0.11967861652374268, -0.03116760030388832, -0.1283136010169983, 0.06481032073497772, 0.1066247820854187, -0.01176960114389658, -0.0803917869925499, 0.036068059504032135, 0.11184121668338776, 0.008473936468362808, -0.02654593251645565, 0.07724654674530029, 0.02190386690199375, 0.053517136722803116, -0.0006809876067563891, 0.036521103233098984, -0.0542018823325634, 0.03777649626135826, -0.1339937001466751, -0.1825290471315384, 0.046635739505290985, -0.028397683054208755, -0.02723698876798153, 0.00659702206030488, 0.11069358885288239, 0.08511366695165634, 0.03857817500829697, 0.11786909401416779, -0.0437837578356266, 0.03530441224575043, 0.10107539594173431, 0.07815084606409073, -0.18806211650371552, -0.030035927891731262, -0.04684954509139061, 0.1666174829006195, -0.03743797913193703, -0.008640357293188572, -0.08325828611850739, 0.1938001960515976, -0.10875962674617767, 0.09283868223428726, 0.0025343841407448053, 0.14853641390800476, 0.10223276913166046, -0.09789590537548065, 0.1072799414396286, 0.028666682541370392, -0.16562385857105255, 0.0685185119509697, -0.010032862424850464, -0.03757945075631142, -0.07776109129190445, -0.035975001752376556, 0.1442929059267044, 0.1528090387582779, -0.0032099003437906504, -0.1775989979505539, -0.06328210234642029, -0.012696157209575176, 0.13655604422092438, 0.04798020422458649, 0.04797803610563278, -0.02673972211778164, -0.1347850263118744, -0.14574332535266876, -0.1164882704615593, 0.1107226312160492, 0.05938027799129486, -0.05456780269742012, 0.2106102854013443, -0.09353072196245193, -0.1179533526301384, 0.05428420007228851, -0.03812060505151749, -0.08553437143564224, 0.17540577054023743, 0.0013224072754383087, 0.058318741619586945, 0.13087524473667145, -0.051230981945991516, 0.11443157494068146, -0.26417139172554016, 0.13921988010406494, -0.009175083599984646, -0.03519625961780548, -0.11370474845170975, 0.0007775542326271534, -0.011300935409963131, 0.07248329371213913, 0.06308440119028091, -0.07629044353961945, 0.12502434849739075, 0.01802586391568184, 0.03267994523048401, 0.14305709302425385, 0.00565207889303565, -0.14499296247959137, -0.002835008315742016, -0.03423568233847618, 0.01733407750725746, 0.042706433683633804, -0.07646052539348602, -0.17836618423461914, -0.14091844856739044, 0.1472606360912323, -0.039645858108997345, -0.0762898400425911, -0.04933486506342888, -0.0072658471763134, -0.14749518036842346, 0.22040271759033203, 0.14713934063911438, 0.20664814114570618, 0.02426765114068985, -0.06799938529729843, -0.049575284123420715, 0.17742250859737396, -0.11997979134321213, 0.12403100728988647, -0.0477423258125782, -0.06779421120882034, 0.06686551123857498, 0.09466080367565155, -0.0460515134036541, -0.1350962072610855, 0.19333595037460327, -0.12749241292476654, -0.11873307079076767, 0.22949117422103882, 0.4730130732059479, -0.2440529763698578, -0.1109863892197609, 0.24233520030975342, -0.006474662106484175, -0.06015654653310776, 0.07517543435096741, -0.029203565791249275, -0.03243512660264969, 0.045358557254076004, -0.15220652520656586, -0.09909100830554962, -0.040452200919389725, -0.1590595841407776, 0.006315254140645266, 0.052974410355091095, -0.033069364726543427, 0.05704648792743683, -0.15984676778316498, 0.03657146543264389, 0.15605413913726807, -0.07101988792419434, 0.0962769091129303, -0.03816832974553108, -0.15797173976898193, -0.11546364426612854, 0.1740858107805252, 0.12921234965324402, -0.04340245574712753, -0.24510130286216736, -0.15777422487735748, -0.02851848118007183, 0.06364118307828903, 0.16736562550067902, 0.04235250875353813, -0.10450081527233124, 0.12974362075328827, 0.01854592375457287, 0.021387986838817596, 0.13987630605697632, -0.07603495568037033, -0.15470150113105774, 0.06337085366249084, 0.06767653673887253, -0.03838930279016495, 0.1461346596479416, -0.0946091040968895, -0.15420472621917725, -0.12219177931547165, 0.13088832795619965, -0.042841702699661255, -0.2464115470647812, -0.16575442254543304, -0.0737752914428711, 0.04005530849099159, -0.05821962282061577, -0.03689461573958397, 0.008548174053430557, -0.14389900863170624, -0.13070665299892426, -0.05300411581993103, 0.13696028292179108, 0.09190124273300171, -0.03944229334592819, -0.075021892786026, 0.04771973192691803, 0.009497654624283314, 0.0939113199710846, -0.016108909621834755, 0.026022015139460564, 0.0523085817694664, -0.012495338916778564, 0.17999379336833954, 0.11178845167160034, -0.15104727447032928, -0.1922508180141449, -0.06524885445833206, 0.16281364858150482, -0.027632353827357292, 0.18633103370666504, -0.12046299874782562, -0.24516895413398743, 0.0016533402958884835, -0.06914809346199036, -0.08028207719326019, -0.09060858190059662, -0.014601579867303371, -0.152989462018013, -0.1515490561723709, 0.12917101383209229, -0.07119170576334, -0.1251254826784134, 0.034043777734041214, -0.2459929883480072, -0.030460219830274582, 0.0612972117960453, 0.2735913395881653, -0.07219751924276352, 0.08225249499082565, 0.06918491423130035, 0.045013632625341415, -0.16060912609100342, 0.034718409180641174, 0.11667092889547348, 0.08978293091058731, -0.057815615087747574, 0.0547470822930336, 0.04142681136727333, -0.15290172398090363, 0.00485877925530076, 0.03868783265352249, -0.05947917699813843, 0.07522363215684891, -0.051899220794439316, -0.016716424375772476, 0.0489686019718647, -0.04109838604927063, -0.020379217341542244, 0.0638657957315445, 0.03936031460762024, -0.05616850405931473, 0.039365027099847794, -0.00359108648262918, 0.012798087671399117, 0.12147106975317001, -0.1355847269296646, -0.16385704278945923, 0.004155653528869152, -0.08236126601696014, 0.12113308161497116, -0.06311549246311188, -0.029458152130246162, -0.016126083210110664, -0.1062801331281662, -0.09115008264780045, 0.019955676048994064, 0.06666281074285507, 0.10059871524572372, -0.14602874219417572, -0.016262879595160484, -0.014310303144156933, 0.12123595178127289, -0.07397307455539703, -0.07447163015604019, -0.2531929612159729, 0.13806308805942535, -0.27523499727249146, -0.05176936462521553, 0.10108057409524918, -0.02271120809018612, 0.1851329207420349, -0.06586271524429321, 0.12149526178836823, -0.10915994644165039, 0.3723030388355255, -0.16701389849185944, 0.009611163288354874, 0.08512996137142181, 0.06745822727680206, -0.11560076475143433, 0.03300844877958298, 0.05125931277871132, -0.044538531452417374, -0.10393697768449783, 0.03825611621141434, 0.08848381787538528, -0.07917584478855133, 0.02987375110387802, 0.012385228648781776, -0.10135390609502792, 0.005329192150384188, 0.08383408933877945, -0.09193123877048492, 0.041616007685661316, 0.03697334975004196, 0.14517799019813538, 0.111873097717762, 0.05937620624899864, 0.08844397962093353, -0.12623877823352814, -0.09781160950660706, 0.3385138511657715, -0.11743374913930893, -0.18118995428085327, 0.07136013358831406, -0.13743211328983307, 0.06573866307735443, -0.06886802613735199, 0.09760865569114685, 0.047256775200366974, 0.3258058428764343, -0.06882570683956146, 0.23072396218776703, -0.45381489396095276, -0.030485520139336586, -0.19311368465423584, 0.0008268911042250693, -0.13358977437019348, 0.10391034930944443, 0.0802682414650917, 0.0862690880894661, -0.09885742515325546, 0.13692238926887512, 0.06216057389974594, -0.0423257015645504, -0.04886575788259506, -0.05782752484083176, -0.07190962135791779, 0.004049984738230705, 0.059683091938495636, -0.11851774901151657, -0.10715530067682266, -0.12191949039697647, -0.17047180235385895, -0.04977516084909439, -0.12858587503433228, 0.03507519140839577, -0.1311127245426178, -0.19348503649234772, -0.0604749359190464, -0.1697143018245697, 0.1893235296010971, 0.1910666972398758, -0.005331575870513916, -0.031662020832300186, 0.039458755403757095, 0.01429001335054636, 0.04761606082320213, -0.2430940717458725, 0.28744858503341675, -0.14264093339443207, -0.024670196697115898, 0.019878976047039032, -0.0022360743023455143, -0.05691083148121834, -0.1913841962814331, 0.06056375801563263, -0.19723857939243317, 0.12603043019771576, -0.06738895177841187, 0.4856054484844208, -0.3293616771697998, 0.07524413615465164, 0.01529124565422535, 0.04345370829105377, -0.0933590680360794, 0.04399876296520233, 0.04931623488664627, 0.1648847907781601, 0.0456700436770916, 0.2366592437028885, -0.09862247854471207, 0.039334770292043686, 0.0821036621928215, 0.07863827049732208, 0.14199115335941315, -0.10327867418527603, 0.055564578622579575, 0.022021612152457237, 0.05183281749486923, 0.053955648094415665, 0.048759058117866516, 0.14306797087192535, -0.13904425501823425, 0.06338634341955185, 0.04395186901092529, 0.04051909223198891, -0.03761573135852814, 0.14008378982543945, -0.04458444193005562, 0.004537764936685562, -0.06838702410459518, 0.04955241084098816, 0.010162402875721455, 0.06623897701501846, -0.012324218638241291, 0.07712486386299133, 0.1724078506231308, -0.013522306457161903, 0.06501880288124084, 0.03828303515911102, -0.05312556028366089, 0.08746595680713654, -0.10474546998739243, -0.008501295000314713, -0.07687843590974808, 0.3669489026069641, -0.31397339701652527, -0.020322594791650772, -0.585629403591156, 0.28541603684425354, -0.09139896929264069, -0.044111501425504684, 0.02943764626979828, 0.04445502161979675, -0.09345471113920212, 0.09414501488208771, -0.10241394490003586, 0.12107737362384796, 0.14275872707366943, -0.10233071446418762, 0.04709241911768913, 0.1788080632686615, -0.0011738371104001999, -0.04849407449364662, 0.024688897654414177, -0.11571355909109116, -0.3247378468513489, -0.14959660172462463, -0.08432110399007797, 0.034887660294771194, 0.1542132943868637, 0.1315513551235199, -0.06525915116071701, -0.2338314950466156, -0.1705344021320343, 0.0689014345407486, 0.026504315435886383, -0.05605223774909973, 0.01811360754072666, -0.17423677444458008, -0.10589811205863953, -0.05385105684399605, 0.0721970945596695, -0.06669265776872635, 0.10439075529575348, 0.17223060131072998, -0.015074724331498146, -0.0028157501947134733, 0.06476262211799622, -0.0952000841498375, -0.10231922566890717, 0.25833049416542053, -0.1448661834001541, -0.02881562151014805, 0.2688252329826355, 0.48958492279052734, -0.5360780358314514, -0.2233225703239441, 0.020570673048496246, -0.09091436862945557, 0.2337695211172104, 0.07493948191404343, 0.005872079636901617, -0.17060565948486328, 0.04042689874768257, -0.2189093381166458, 0.05762387439608574, -0.0323382131755352, -0.048755183815956116, -0.1302344799041748, 0.13283568620681763, 0.12431584298610687, 0.06147818639874458, -0.029601167887449265, 0.08742018043994904, 0.05458064004778862, -0.06612873822450638, 0.1529504358768463, -0.13223083317279816, 0.03739875555038452, -0.07704421877861023, 0.08181874454021454, 0.08058396726846695, -0.16603797674179077, -0.053269460797309875, -0.1647055298089981, -0.015546096488833427, 0.025540392845869064, 0.17670761048793793, 0.11707282811403275, -0.05672386661171913, 0.09285666793584824, -0.13720154762268066, 0.07733988016843796, -0.061749331653118134, 0.028486158698797226, -0.15825146436691284, 0.14304481446743011, 0.09680371731519699, -0.025206731632351875, 0.108632892370224, 0.008143726736307144, -0.16447459161281586, -0.09646322578191757, 0.17499206960201263, -0.040956687182188034, -0.10128485411405563, -0.08080413192510605, -0.12445942312479019, 0.08920904248952866, -0.08470470458269119, -0.017335670068860054, 0.09643089771270752, 0.03697238117456436, -0.18758010864257812, -0.1387866586446762, -0.00619767140597105, 0.1845109909772873, -0.11675752699375153, 0.08470731973648071, 0.09159371256828308, 0.010560335591435432, -0.01597612537443638, -0.05423504486680031, -0.053609877824783325, 0.019437680020928383, 0.019351612776517868, 0.11518294364213943, 0.013589035719633102, -0.056055404245853424, -0.06837751716375351, 0.08340585976839066, 0.0008933926583267748, 0.10991274565458298, -0.10153626650571823, 0.12444058060646057, -0.1123509481549263, 0.008509044535458088, -0.1519419401884079, -0.01922518014907837, 0.0682959109544754, -0.029561417177319527, -0.07411561906337738, 0.12148474901914597, 0.024376800283789635, -0.036680418998003006, 0.15531659126281738, -0.05512158200144768, -0.09822095185518265, -0.03168295696377754, -0.10908275842666626, -0.08635856211185455, 0.01565043441951275, 0.20708388090133667, 0.023516369983553886, 0.03250754624605179, 0.10959823429584503, 0.020390596240758896, 0.022777361795306206, 0.030634796246886253, 0.05007136985659599, -0.12009574472904205, 0.12491834163665771, -0.08109798282384872, -0.059909090399742126, 0.08842480182647705, -0.03032071702182293, -0.08125307410955429, -0.1313689947128296, 0.130295991897583, 0.009319605305790901, -0.11118759214878082, -0.054407935589551926, 0.027073247358202934, -0.07617562264204025, -0.002596094971522689, -0.012785847298800945, -0.02116524986922741, 0.06914153695106506, -0.12549586594104767, 0.10907100886106491, 0.07094429433345795, 0.021449057385325432, 0.046331219375133514, -0.024198487401008606, 0.015377871692180634, 0.09920798242092133, -0.005877313204109669, -0.022776605561375618, -0.08521569520235062, -0.03207721561193466, -0.05098635330796242, 0.011779503896832466, -0.04048673063516617, -0.04185904189944267, 0.11214388161897659, 0.05640600994229317, -0.23723550140857697, 0.045416317880153656, -0.0015907648485153913, 0.3814660608768463, -0.09701701253652573, -0.15832555294036865, 0.01772407628595829, 0.011422124691307545, 0.04470514878630638, 0.042408350855112076, 0.1761236935853958, -0.2414376437664032, 0.05232463404536247, 0.07515433430671692, -0.07791198045015335, 0.06960270553827286, 0.1665550023317337, -0.03286545351147652, 0.07200690358877182, 0.014496352523565292, 0.10141614824533463, -0.10257004201412201, -0.18235746026039124, 0.056846778839826584, -0.039054688066244125, 0.0897633507847786, 0.0017004366964101791, 0.051066286861896515, 0.009551945142447948, 0.02271215245127678, -0.04212937504053116, 0.07973212003707886, -0.059862226247787476, 0.08919069916009903, -0.014878539368510246, -0.004601898603141308, -0.10759907960891724, 0.15744024515151978, -0.18079465627670288, 0.18109183013439178, 0.2280169129371643, -0.14448955655097961, 0.10770406574010849, -0.08009716868400574, 0.024776406586170197, 0.09103789180517197, 0.03996020182967186, 0.09068679809570312, 0.006283044349402189, 0.06453235447406769, 0.18327495455741882, -0.21223369240760803, 0.03955946862697601, 0.06274957209825516, 0.01926008053123951, 0.03602389618754387, -0.10752186179161072, 0.05358636751770973, 0.0016736038960516453, -0.04740770906209946, -0.0397333987057209, 0.07261256873607635, 0.03999599814414978, 0.04622352868318558, -0.0011123730801045895, -0.09272227436304092, 0.017475729808211327, -0.02111188881099224, 0.02305561676621437, -0.4118732810020447, -0.5459710359573364, 0.749779999256134, 0.32814541459083557, -0.5649398565292358, 0.2280271202325821, -0.2337588518857956, -0.12434010952711105, 0.7419573068618774, -0.8903895020484924, 1.2716233730316162, 0.5424672365188599, 0.023064952343702316, -0.3467218577861786, 0.13641487061977386, -0.770709753036499, 0.1545899361371994, -0.13144133985042572, 0.06521803140640259, -0.35613396763801575, 0.2508997917175293, -0.046216193586587906, 0.2979292571544647, 0.005562227219343185, 0.09294221550226212, 0.18439924716949463, 0.2035764455795288, 0.20997123420238495, -0.26307913661003113, 0.088888980448246, 0.0053938222117722034, -0.11733520776033401, 0.08381224423646927, -0.03142330422997475, 0.04083073511719704, 0.035706765949726105, 0.24236033856868744, -0.03906051069498062, 0.037891045212745667, -0.16743282973766327, -0.3000965118408203, 0.07861438393592834, -0.053263165056705475, -0.09930630773305893, 0.0452473945915699, 0.2570425271987915, 0.1374431848526001, -0.020157119259238243, 0.06442427635192871, -0.06030311807990074, 0.016690708696842194, -0.14171957969665527, 0.12999165058135986, -0.03974142298102379, -0.10895074903964996, -0.20446567237377167, -0.1205769032239914, -0.027262527495622635, -0.2667773365974426, 0.02945697493851185, 0.24020110070705414, -0.2431807816028595, -0.04436841607093811, 0.05546899512410164, 0.3049824833869934, -0.020728740841150284, 0.14325927197933197, 0.08580433577299118, -0.1850762516260147, 0.23286102712154388, -0.31697508692741394, 0.1800386905670166, 0.29531294107437134, -0.10008158534765244, 0.14658167958259583, 0.16793908178806305, 0.1199287548661232, 0.09207136183977127, 0.08455727249383926, -0.11987718194723129, 0.06460218131542206, -0.130614772439003, 0.243675097823143, -0.27136555314064026, 0.25217947363853455, -0.3231379985809326, 0.22158682346343994, -0.002367554232478142, 0.06722142547369003, 0.05775613710284233, -0.11167743057012558, 0.16283389925956726, -0.2674160599708557, -0.11546038091182709, 0.19002993404865265, -0.11021842807531357, -0.15345537662506104, -0.10058219730854034, -0.052828188985586166, -0.19522880017757416, -0.024826735258102417, -0.15459083020687103, 0.29319465160369873, 0.036118268966674805, -0.1124635711312294, -0.1250736266374588, 0.01000801008194685, 0.13973353803157806, -0.02592412382364273, 0.16480541229248047, 0.174539253115654, 0.10629984736442566, -0.015698498114943504, 0.06506338715553284, -0.10994552820920944, 0.029698505997657776, 0.21176405251026154, -0.11098576337099075, 0.03953302651643753, -0.01601528748869896, -0.22371196746826172, 0.22936539351940155, 0.20346291363239288, -0.12678693234920502, 0.10217345505952835, 0.12238486856222153, 0.05782761797308922, 0.09061505645513535, 0.12816597521305084, 0.21582980453968048, -0.1676165610551834, -0.09381109476089478, 0.14745834469795227, -0.15208567678928375, 0.04391429200768471, -0.07593858242034912, 0.048925526440143585, 0.06091277301311493, -0.09245613217353821, 0.16552694141864777, -0.028418488800525665, 0.0739118903875351, 0.06198703125119209, -0.005937062203884125, -0.1064874455332756, 0.21969954669475555, -0.10063260793685913, 0.17677314579486847, 0.18595214188098907, 0.00021161885524634272, -0.21834731101989746, -0.004186955746263266, -0.14082102477550507, 0.14837931096553802, -0.07442422211170197, 0.25660717487335205, -0.2270229309797287, -0.016733180731534958, 0.05207379162311554, 0.017737962305545807, 0.11552971601486206, -0.05642002075910568, -0.09942027181386948, 0.2870906889438629, -0.05297067388892174, 0.31134334206581116, -0.2438114881515503, -0.12929436564445496, -0.03162151202559471, -0.1016879752278328, 0.05295997112989426, -0.28121060132980347, 0.000880837207660079, -0.10333092510700226, 0.13028737902641296, -0.12026207894086838, 0.31015437841415405, -0.09404782205820084, -0.14462459087371826, -0.19371569156646729, 0.21950297057628632, -0.17994257807731628, 0.09136497229337692, -0.05659626051783562, 0.22618693113327026, 0.11368308961391449, -0.17939382791519165, 0.0701313242316246, 0.04637519642710686, -0.23871907591819763, 0.07338935881853104, 0.22259438037872314, 0.09085272252559662, 0.08380134403705597, -0.03590014949440956, 0.1370713710784912, -0.16453112661838531, 0.25399142503738403, 0.16736851632595062, 0.13149778544902802, -0.23601825535297394, -0.2596895694732666, -0.24402759969234467, 0.13894762098789215, -0.17355160415172577, -0.22756022214889526, 0.056820549070835114, 0.060219891369342804, -0.21711145341396332, -0.236313134431839, 0.0026457139756530523, 0.007691320031881332, 0.10832051187753677, 0.1542206108570099, -0.26463186740875244, -0.1686875969171524, 0.21097208559513092, -0.02028902806341648, -0.12741833925247192, 0.026045015081763268, 0.0003384578158147633, 0.05374952778220177, 0.045705437660217285, -0.13456757366657257, -0.15206848084926605, 0.06668657064437866, -0.1394946426153183, -0.060605887323617935, -0.018568968400359154, -0.15808866918087006, 0.17103002965450287, -0.13783925771713257, 0.00021079649741295725, 0.055641546845436096, 0.2130962312221527, -0.20026834309101105, 0.03238196671009064, 0.1755630075931549, -0.12144678086042404, -0.07600229978561401, -0.047427814453840256, 0.15550662577152252, -0.010251565836369991, -0.07538086920976639, -0.07869605720043182, -0.11513078957796097, 0.14236952364444733, -0.16961921751499176, 0.09005075693130493, 0.22136905789375305, 0.14725299179553986, 0.21570968627929688, -0.10125212371349335, 0.11700110882520676, 0.0608692541718483, -0.24533414840698242, -0.09110702574253082, -0.06313275545835495, -0.07835821807384491, -0.17834289371967316, -0.07332316786050797, -0.01527421921491623, -0.0700635015964508, -0.1681203842163086, 0.17057053744792938, 0.18669670820236206, 0.3584613800048828, 0.2687946557998657, -0.21812690794467926, -0.1101696714758873, -0.19109606742858887, 0.04832632839679718, 0.0633283331990242, 0.04176165908575058, 0.09322484582662582, 0.14754149317741394, -0.059040412306785583, 0.12419600784778595, 0.11703251302242279, -0.04200271517038345, -0.18160711228847504, -0.12126600742340088, 0.07365377247333527, 0.08439866453409195, 0.14491184055805206, 0.1263212412595749, 0.08807126432657242, -0.021738989278674126, 0.2318892627954483, -0.25691863894462585, 0.1282423883676529, 0.0008881751564331353, -0.04819464683532715, 0.11139841377735138, 0.12848429381847382, -0.1228376179933548, 0.139838308095932, -0.17024478316307068, 0.1437319666147232, 0.1751972734928131, 0.18329007923603058, -0.36750176548957825, -0.010115537792444229, 0.24181313812732697, -0.17671693861484528, 0.11781102418899536, 0.11590173095464706, -0.20295009016990662, -0.057210203260183334, -0.07644863426685333, 0.08364436775445938, -0.0371384434401989, 0.003610616782680154, -0.2528403401374817, 0.0466989204287529, -0.08982730656862259, 0.27281343936920166, -0.1750551462173462, -0.00592381227761507, -0.339166522026062, 0.2601124048233032, -0.016865765675902367, -0.10528493672609329, -0.14621078968048096, -0.17493204772472382, 0.005770331248641014, -0.06088968738913536, 0.06734644621610641, -0.288496196269989, -0.014925946481525898, -0.008741618134081364, -0.4441728889942169, -0.03211510181427002, 0.16874292492866516, -0.1687920242547989, 0.11475148797035217, -0.09907445311546326, 0.1484648585319519, -0.02723032236099243, 0.1384032666683197, -0.04985447973012924, -0.09264751523733139, 0.06109584867954254, -0.08591059595346451, 0.0007844853680580854, -0.009745840914547443, 0.10305427759885788, 0.046903789043426514, -0.0504416860640049, 0.0810004472732544, 0.19906353950500488, -0.0025680167600512505, -0.1104985922574997, 0.10171563923358917, -0.13383279740810394, 0.1656973958015442, -0.09511937201023102, -0.12478291243314743, -0.1729907989501953, 0.0028611081652343273, 0.1040913537144661, 0.2329467236995697, -0.13139183819293976, 0.023945989087224007, 0.0559643916785717, 0.17042361199855804, 0.0008205716731026769, 0.24816206097602844, -0.04696229100227356, 0.17184802889823914, -0.06995858997106552, -0.21237045526504517, -0.0016894389409571886, 0.025445669889450073, 0.027378059923648834, -0.12721997499465942, 0.25617673993110657, -0.22851763665676117, 0.0849652886390686, 0.2639711797237396, -0.015064437873661518, -0.17610424757003784, 0.10503913462162018, -0.035692114382982254, -0.03654356673359871, -0.053536683320999146, 0.019266044721007347, 0.1138274297118187, -0.02990018017590046, -0.14520761370658875, -0.20915614068508148, -0.02073373831808567, 0.13004928827285767, -0.1313915252685547, 0.029492709785699844, 0.009785071015357971, 0.1611563265323639, -0.03318111225962639, -0.08560790121555328, -0.058568261563777924, -0.07736760377883911, -0.17988060414791107, 0.009864172898232937, 0.07670305669307709, -0.07643004506826401, 0.10892242193222046, 0.12376575171947479, 0.044674839824438095, -0.17830206453800201, -0.09014155715703964, 0.10700304806232452, 0.07033784687519073, -0.014669534750282764, 0.05523305386304855, -0.12136758118867874, -0.026305092498660088, -0.01393690425902605, -0.15284819900989532, -0.03028690069913864, 0.057323113083839417, -0.08786190301179886, 0.026740221306681633, -0.003334787441417575, -0.08274690806865692, -0.0815475732088089, -0.00734942639246583, 0.10788459330797195, -0.16162662208080292, -0.03553667664527893, 0.0887046679854393, 0.06978020071983337, -0.08282215893268585, 0.021552277728915215, 0.1391698271036148, 0.07173587381839752, -0.03456990048289299, 0.07947234064340591, 0.15772242844104767, 0.09978316724300385, 0.09360474348068237, -0.05754551291465759, 0.11965140700340271, 0.09641151130199432, -0.08750637620687485, 0.08638724684715271, 0.12243460863828659, 0.002250397577881813, -0.057064756751060486, -0.19045387208461761, 0.20165446400642395, 0.11383672803640366, -0.04366958141326904, -0.011808219365775585, -0.08892430365085602, -0.08309543877840042, 0.1276928037405014, 0.17315758764743805, -0.07234840095043182, -0.17175151407718658, -0.20496807992458344, 0.014517635107040405, 0.04087957739830017, 0.15003974735736847, 0.1821223348379135, -0.03637868911027908, 0.03261110186576843, 0.23983506858348846, -0.03612705320119858, 0.017917105928063393, 0.11139377951622009, -0.11779499053955078, 0.21434536576271057, 0.04073675721883774, -0.1675342321395874, -0.10397341102361679, 0.03906574100255966, -0.10595764964818954, 0.0011248168302699924, -0.1166851818561554, 0.00795182678848505, -0.1505052000284195, 0.26388463377952576, -0.16944147646427155, 0.011505858041346073, 0.08881791681051254, -0.01593693345785141, -0.17072725296020508, 0.3363690674304962, -0.002744956174865365, 0.165321484208107, -0.13634797930717468, -0.01690904051065445, 0.042833492159843445, 0.15208066999912262, -0.1400744467973709, -0.20998795330524445, 0.2878890633583069, 0.08614139258861542, -0.08359186351299286, 0.08534172922372818, 0.03947213664650917, 0.05928468331694603, 0.07893260568380356, 0.09453331679105759, -0.1345747411251068, 0.1524868905544281, -0.30658313632011414, -0.0381518118083477, -0.3238316774368286, 0.2198241800069809, -0.03265610337257385, 0.3048495054244995, -0.23520758748054504, -0.11807339638471603, -0.05237821117043495, 0.12980423867702484, -0.09962014853954315, 0.012478355318307877, -0.038584232330322266, -0.2095666378736496, 0.06908764690160751, -0.18364524841308594, -0.23503994941711426, 0.19777806103229523, -0.014557099901139736, 0.16005836427211761, 0.03565996140241623, -0.26915571093559265, -0.14397159218788147, 0.08447422087192535, -0.08599475026130676, -0.1360609531402588, 0.12241610139608383, -0.05793061852455139, 0.014753136783838272, 0.20043662190437317, 0.07135503739118576, 0.03438742831349373, 0.026454349979758263, -0.16737766563892365, 0.07175767421722412, 0.03509203717112541, -0.09204258024692535, -0.22762370109558105, -0.0555608794093132, 0.05702488124370575, -0.032055921852588654, 0.16579602658748627, -0.033860307186841965, -0.1522919088602066, -0.13310697674751282, -0.02998178079724312, -0.037488698959350586, 0.19788330793380737, -0.15137970447540283, -0.02185874432325363, -0.0826195701956749, 0.012100012972950935, -0.016036586835980415, 0.05893336609005928, -0.16797292232513428, 0.14164422452449799, -0.019970325753092766, 0.10488372296094894, 0.06314234435558319, -0.004953191615641117, -0.149087592959404, 0.004969404079020023, 0.10553611069917679, -0.13965429365634918, -0.13088464736938477, 0.18838022649288177, -0.12177443504333496, -0.024300677701830864, 0.19173890352249146, 0.03997459262609482, 0.0867050439119339, 0.09733891487121582, -0.24593253433704376, -0.12503837049007416, -0.0767434686422348, -0.0022081804927438498, -0.009099871851503849, 0.13529472053050995, 0.03250487148761749, -0.10731683671474457, -0.09627275913953781, -0.06951569020748138, -0.09367877244949341, 0.08037902414798737, -0.11576563864946365, -0.1309148669242859, -0.035300470888614655, -0.09541860222816467, -0.12466106563806534, -0.06901929527521133, -0.03255528584122658, 0.18532072007656097, 0.06537006050348282, -0.06647989898920059, -0.15659479796886444, 0.010935629718005657, -0.01967259682714939, 0.07525423914194107, 0.0101841501891613, 0.06179723143577576, 0.013125560246407986, -0.03244128078222275, 0.044975750148296356, -0.02282785438001156, -0.08270838856697083, 0.06424425542354584, 0.18373626470565796, -0.03986075520515442, -0.02132711000740528, -0.17190533876419067, -0.004449822474271059, -0.07542745769023895, -0.12490986287593842, 0.1178637221455574, 0.06718616932630539, 0.06127317249774933, 0.011512412689626217, -0.25481000542640686, -0.11263036727905273, -0.09700940549373627, -0.01500159502029419, 0.08161116391420364, 0.05685707554221153, 0.20070013403892517, -0.13294608891010284, -0.0203127171844244, 0.09489087015390396, -0.00305011379532516, 0.07049702107906342, -0.04801636189222336, -0.13661108911037445, 0.20781125128269196, 0.10979516059160233, -0.15324829518795013, -0.13394306600093842, -0.0007167274598032236, -0.0021966693457216024, -0.16317401826381683, -0.016161343082785606, -0.26177215576171875, -0.06606017053127289, -0.03856431320309639, 0.23361001908779144, 0.1241174191236496, -0.03043277934193611, -0.05207991227507591, -0.11440732330083847, 0.02194235660135746, 0.015240121632814407, 0.021877268329262733, -0.2050643414258957, -0.042701784521341324, 0.024598253890872, -0.008281269110739231, 0.10595329105854034, -0.03548726066946983, 0.04310545697808266, 0.16605575382709503, -0.09656856954097748, -0.12486430257558823, -0.013994290493428707, -0.014694069512188435, -0.026106372475624084, -0.0161878764629364, -0.22422724962234497, 0.08349474519491196, -0.14764471352100372, 0.2014009952545166, 0.009692911989986897, 0.10206880420446396, -0.024583177641034126, 0.026984775438904762, -0.03204682469367981, -0.2315584421157837, 0.062094200402498245, -0.14773741364479065, -0.05795678868889809, 0.06521017849445343, -0.14547407627105713, 0.08702944964170456, 0.0021763849072158337, 0.01918308064341545, 0.22773446142673492, -0.1718759536743164, -0.073258176445961, -0.018023308366537094, -0.02662070468068123, 0.0802769586443901, -0.06206439808011055, -0.14882603287696838, -0.20046457648277283, -0.10050509124994278, -0.02672944776713848, 0.21452026069164276, 0.09451460838317871, -0.06572873145341873, -0.14384765923023224, -0.10319095104932785, 0.03461970016360283, 0.17551030218601227, -0.1844480186700821, 0.00998048298060894, 0.09518764168024063, -0.014025980606675148, -0.06531694531440735, -0.29893958568573, 0.14916318655014038, 0.0791996493935585, -0.050812751054763794, 0.0774514302611351, -0.027026962488889694, -0.06906446814537048, 0.23596172034740448, 0.09162306785583496, 0.030145324766635895, 0.0725044533610344, 0.020344996824860573, 0.08145640045404434, -0.16156060993671417, -0.020329324528574944, 0.035965293645858765, -0.04165441170334816, 0.055638767778873444, -0.014071594923734665, -0.13300588726997375, 0.039346516132354736, 0.11416488140821457, -0.005554144270718098, 0.03225621581077576, 0.08896823972463608, 0.05510212853550911, -0.1557721346616745, -0.013628216460347176, -0.114510677754879, 0.1570805162191391, 0.15163028240203857, 0.19811449944972992, 0.044598937034606934, -0.09396839886903763, -0.15056003630161285, 0.040108926594257355, -0.1501043736934662, 0.11018777638673782, -0.049871984869241714, -0.18753020465373993, -0.014469999819993973, 0.060147643089294434, -0.11754925549030304, -0.0803123190999031, -0.023460816591978073, 0.025596439838409424, -0.058142803609371185, -0.020568763837218285, -0.10412787646055222, -0.0424698181450367, 0.03342122584581375, 0.11129387468099594, -0.021134261041879654, -0.09120660275220871, 0.2704882025718689, -0.04883936792612076, 0.06867841631174088, 0.05730656161904335, -0.13489772379398346, 0.13928698003292084, 0.06601510941982269, 0.023943062871694565, 0.14796359837055206, -0.14128397405147552, 0.057192422449588776, 0.14498725533485413, 0.19797486066818237, 0.00947119202464819, -0.2081766128540039, -0.16879265010356903, -0.11203063279390335, 0.035760119557380676, 0.022972585633397102, 0.006659694015979767, 0.13195954263210297, 0.13527905941009521, 0.12333047389984131, -0.10090508311986923, -0.17114172875881195, -0.06822016835212708, 0.0671553686261177, 0.14688721299171448, 0.1735965758562088, 0.045052990317344666, -0.06010660156607628, 0.028173547238111496, -0.020171256735920906, 0.14146843552589417, 0.14850668609142303, -0.07612311094999313, -0.09286198765039444, 0.1292823851108551, -0.24736718833446503, 0.11623380333185196, -0.11022704094648361, 0.08923611044883728, 0.15627756714820862, 0.009397083893418312, 0.01115616038441658, -0.002338289050385356, 0.11316084116697311, 0.03650921955704689, 0.031411539763212204, -0.10987304151058197, 0.04426611214876175, 0.017558889463543892, 0.13772964477539062, -0.01789502240717411, -0.002265459392219782, 0.024056635797023773, -0.10615511238574982, -0.14631463587284088, 0.011022927239537239, 0.18335187435150146, -0.1873805671930313, -0.15636174380779266, 0.04003654047846794, -0.058257315307855606, -0.06001616641879082, 0.06459444761276245, 0.08386295288801193, -0.04180443286895752, -0.20496974885463715, -0.05093899369239807, -0.034430667757987976, -0.0464746356010437, 0.1948484629392624, 0.12350772321224213, 0.09934312105178833, -0.20388634502887726, -0.16902950406074524, 0.03633655607700348, -0.07797360420227051, 0.1212674081325531, 0.093770332634449, 0.029987456277012825, -0.15955762565135956, 0.1621476709842682, 0.028095249086618423, 0.02033677138388157, 0.15675383806228638, 0.00812720786780119, 0.05727138742804527, -0.12651120126247406, 0.10351424664258957, -0.14824488759040833, 0.12295419722795486, -0.12462284415960312, -0.1885775476694107, -0.07978156954050064, 0.2801351845264435, -0.039516035467386246, 0.007385076489299536, -0.01063054520636797, 0.21529236435890198, -0.09542813897132874, -0.09414461255073547, -0.014353321865200996, -0.10037337988615036, 0.09624854475259781, 0.07330068945884705, -0.1591021567583084, 0.013596518896520138, -0.02578580565750599, -0.2022111564874649, -0.04882635548710823, 0.2635805010795593, -0.11740102618932724, -0.07006420195102692, 0.021260084584355354, -0.14181163907051086, -0.16031990945339203, 0.1683199554681778, -0.19739146530628204, -0.10599653422832489, -0.061720602214336395, 0.16497769951820374, -0.01624481938779354, 0.26386022567749023, -0.2455478459596634, -0.1150970384478569, -0.050605159252882004, 0.12399451434612274, -0.01263775397092104, 0.17103298008441925, -0.23798052966594696, -0.04935319721698761, 0.06125114485621452, 0.16872821748256683, 0.08892589807510376, 0.01577579788863659, -0.06635763496160507, 0.1454804539680481, 0.12803281843662262, -0.09104551374912262, -0.047561902552843094, 0.20551428198814392, -0.06479380279779434, 0.07641451805830002, 0.10180822759866714, -0.049108248203992844, 0.006832808721810579, 0.008436869829893112, 0.19792795181274414, -0.004340060520917177, -0.00450728228315711, -0.1348097324371338, -0.012949042953550816, -0.1334875375032425, -0.028783554211258888, 0.13469238579273224, 0.13595543801784515, -0.09841056168079376, 0.08632555603981018, -0.06910902261734009, 0.16528360545635223, -0.017503881826996803, 0.02912137843668461, 0.12239137291908264, -0.09277002513408661, 0.0872688814997673, 0.08224762231111526, -0.1531064659357071, -0.11295732855796814, 0.029919521883130074, -0.014092747122049332, 0.09633923321962357, -0.0663754865527153, -0.030186310410499573, -0.19635245203971863, 0.11922071874141693, 0.10859069973230362, -0.02211230993270874, 0.020653391256928444, 0.22877173125743866, -0.14575541019439697, 0.0032790787518024445, 0.045821644365787506, 0.0126609792932868, -0.06392857432365417, -0.07169139385223389, 0.17102612555027008, -0.0021127641666680574, -0.029292680323123932, 0.007174371741712093, 0.1474827229976654, -0.26667341589927673, 0.37366625666618347, 0.1774134784936905, -0.0476514957845211, 0.005786935333162546, 0.12182968109846115, -0.03967751935124397, 0.02478824183344841, 0.03264065086841583, 0.10022889822721481, 0.021614287048578262, -0.0006601946079172194, -0.037791188806295395, 0.03718012198805809, 0.06438320875167847, -0.06449093669652939, -0.05935157462954521, -0.06008651852607727, 0.041923072189092636, -0.15141531825065613, 0.0406372956931591, 0.09871967881917953, -0.07977399975061417, 0.0329287126660347, -0.14277054369449615, -0.11432211846113205, 0.06621149927377701, 0.08106473088264465, 0.22417262196540833, 0.0645935982465744, -0.10989941656589508, 0.033212702721357346, 0.08691756427288055, 0.10370419919490814, -0.01117457915097475, -0.04932311922311783, 0.1659543216228485, -0.1839868426322937, -0.23826073110103607, -0.15301643311977386, -0.002633262425661087, -0.0976819396018982, -0.06497426331043243, 0.2426004409790039, -0.12650558352470398, -0.04865485802292824, 0.09997359663248062, -0.13999831676483154, -0.24359144270420074, 0.07955504208803177, 0.08013175427913666, -0.1652056872844696, 0.28326213359832764, 0.08210177719593048, -0.14260266721248627, 0.025752481073141098, -0.033009517937898636, -0.19669103622436523, -0.10115652531385422, -0.11509024351835251, 0.08888162672519684, -0.02339656837284565, 0.0708794891834259, -0.09669698774814606, 0.24955086410045624, -0.003980678506195545, -0.1302979737520218, 0.09321265667676926, -0.060516804456710815, -0.027759814634919167, 0.05295884981751442, -0.07755110412836075, -0.06731642037630081, 0.1880824863910675, -0.05870814993977547, -0.019980764016509056, -0.12423887848854065, -0.05854451283812523, 0.024442700669169426, -0.13706032931804657, 0.1871054768562317, -0.285872220993042, 0.13339142501354218, -0.1272025853395462, 0.04903328791260719, -0.1469760537147522, 0.11324777454137802, -0.1346973031759262, -0.078489750623703, 0.00670585548505187, -0.23217666149139404, 0.10160727798938751, 0.0712667778134346, -0.03605775907635689, 0.16473059356212616, 0.0902874618768692, -0.01755332015454769, 0.2074199914932251, -0.032106898725032806, 0.04754258692264557, -0.037988387048244476, 0.10447805374860764, -0.11357718706130981, 0.11263154447078705, 0.08415631204843521, -0.0694432482123375, -0.19625619053840637, 0.06976023316383362, 0.17809337377548218, 0.02932165376842022, -0.07996850460767746, 0.08469337224960327, 0.07260218262672424, -0.048091866075992584, 0.06747667491436005, 0.5446605682373047, 0.3504241704940796, 0.4098292887210846, -0.8680131435394287, -0.42565739154815674, 0.22904743254184723, 0.2411596179008484, -0.05432743951678276, 0.3054199516773224, 0.19592420756816864, -0.8656249046325684, 0.21497657895088196, 0.026407478377223015, -0.6093284487724304, 0.1448904126882553, -0.3241857588291168, -0.034242741763591766, -0.29456964135169983, 0.27669671177864075, -0.2087266892194748, -0.050118155777454376, 0.11354194581508636, -0.06242477893829346, -0.19909681379795074, -0.30735036730766296, 0.09589364379644394, -0.1233600601553917, 0.1069079041481018, 0.016959451138973236, -0.13582392036914825, 0.15583546459674835, -0.12679201364517212, -0.13941830396652222, -0.16730265319347382, 0.12718316912651062, -0.19130900502204895, 0.12933936715126038, 0.005778368562459946, 0.20740126073360443, -0.15787743031978607, -0.11556536704301834, -0.024483542889356613, -0.23001109063625336, 0.11472179740667343, -0.009402137249708176, 0.08478640764951706, 0.14443513751029968, 0.1458127349615097, -0.29153239727020264, 0.27441611886024475, -0.13551193475723267, -0.16662313044071198, 0.07356444746255875, -0.14121344685554504, -0.14310811460018158, 0.15820470452308655, 0.2635207176208496, -0.21591772139072418, -0.06062685325741768, -0.2922995686531067, 0.04226016253232956, 0.10372702032327652, -0.002388684544712305, 0.29708680510520935, -0.2435881495475769, 0.008903066627681255, -0.18446844816207886, 0.3220598101615906, 0.20310544967651367, 0.3346298635005951, 0.1654481738805771, 0.22983241081237793, -0.19744393229484558, -0.2023073136806488, 0.1655672937631607, -0.28086352348327637, 0.291006475687027, 0.08652307093143463, 0.11507110297679901, -0.20017674565315247, 0.2996719479560852, -0.1336759775876999, -0.06390681862831116, 0.02388434298336506, 0.026399297639727592, -0.1115637868642807, 0.02884591557085514, -0.27640923857688904, 0.2446066439151764, 0.2512219250202179, 0.09823356568813324, 0.22801610827445984, -0.27117466926574707, -0.1502372920513153, -0.1912819743156433, -0.20301367342472076, -0.2733122706413269, 0.18252722918987274, 0.15173375606536865, 0.06577305495738983, 0.004026117734611034, 0.10025987774133682, 0.02383267506957054, -0.12002014368772507, 0.1422450989484787, 0.16497285664081573, -0.26080557703971863, 0.23103269934654236, -0.020996395498514175, 0.05548661947250366, -0.2966030240058899, 0.16048593819141388, -0.1227356493473053, -0.09916553646326065, -0.09668981283903122, 0.0017313885036855936, -0.07483170181512833, -0.15017077326774597, 0.18705710768699646, 0.08199554681777954, -0.22352248430252075, 0.00425226055085659, 0.057402126491069794, -0.0161680169403553, 0.046968974173069, 0.004958511795848608, 0.12169315665960312, -0.20642004907131195, -0.24424715340137482, 0.2004215568304062, -0.11692189425230026, 0.21379537880420685, 0.3924141526222229, -0.10335053503513336, -0.043669793754816055, 0.18745219707489014, -0.016755325719714165, 0.07815025746822357, -0.039696816354990005, 0.13052964210510254, 0.05682673677802086, 0.0003421335422899574, 0.08401142060756683, 0.022980688139796257, -0.04605582356452942, 0.08390413969755173, -0.05514675751328468, -0.08743497729301453, -0.02578282356262207, 0.001551933353766799, -0.20805604755878448, -0.11935794353485107, -0.084578737616539, -0.08763782680034637, 0.02134946919977665, -0.17655782401561737, 0.09364348649978638, 0.12941022217273712, 0.10403262078762054, -0.05338572710752487, -0.03728810325264931, 0.2552146911621094, -0.023699913173913956, 0.25209710001945496, -0.15765999257564545, 0.1827162802219391, -0.26526179909706116, 0.22105328738689423, -0.3420059084892273, -0.16177329421043396, 0.18828663229942322, -0.22702130675315857, 0.2994624078273773, -0.115638367831707, 0.24455001950263977, -0.08565247058868408, -0.1336347907781601, 0.22706373035907745, -0.2276507318019867, -0.2163688838481903, -0.2994838058948517, -0.00026367275859229267, -0.0303158201277256, -0.1640627384185791, 0.23656809329986572, -0.08145160228013992, -0.09211912006139755, -0.07255541533231735, -0.2137460857629776, 0.11761221289634705, 0.18816280364990234, -0.11132465302944183, 0.226685032248497, -0.003502784064039588, -0.14247623085975647, 0.026692893356084824, -0.28168201446533203, -0.15233270823955536, -0.05541050061583519, 0.09330378472805023, -0.26025843620300293, 0.0774121955037117, 0.33873310685157776, 0.2082914561033249, -0.27055102586746216, 0.1399063616991043, -0.18602828681468964, -0.2967478036880493, 0.23502419888973236, 0.17236827313899994, 0.2029368281364441, 0.2559646964073181, -0.43818899989128113, 0.01062991376966238, -0.23745375871658325, 0.06371594220399857, 0.21692098677158356, 0.1250237226486206, -0.15498323738574982, -0.13628263771533966, -0.377920925617218, 0.23295244574546814, 0.0404261015355587, -0.24469849467277527, 0.10778169333934784, 0.02804088592529297, 1.1460238056315575e-05, 0.2462671548128128, -0.130104199051857, 0.07482454925775528, -0.12431792169809341, 0.043026845902204514, 0.00675478670746088, 0.20452025532722473, 0.18365509808063507, -0.10054890811443329, -0.325449138879776, -0.22170133888721466, -0.06718480587005615, -0.04076509177684784, 0.44972920417785645, -0.09615582227706909, 0.031923893839120865, 0.09214399009943008, -0.383279949426651, -0.2833917737007141, 0.00498626846820116, 0.13223612308502197, -0.1497848480939865, 0.0034412872046232224, -0.17973041534423828, 0.04707275331020355, -0.10995899885892868, 0.016784219071269035, 0.02075025998055935, -0.0672452375292778, -0.239404559135437, 0.2552543878555298, -0.21011915802955627, -0.18789315223693848, -0.14249831438064575, -0.20338338613510132, 0.18957465887069702, -0.037673402577638626, -0.1672413945198059, 0.026763156056404114, -0.19703222811222076, -0.058560311794281006, 0.18079827725887299, -0.042508386075496674, 0.17351070046424866, 0.13548323512077332, -0.1630258560180664, 0.03415263816714287, 0.06523121148347855, -0.04314291477203369, 0.05720881372690201, -0.03952307999134064, 0.030111895874142647, 0.017999377101659775, -0.09393850713968277, 0.15256686508655548, 0.12128593027591705, 0.06656210869550705, 0.06801966577768326, -0.14616115391254425, -0.06170612573623657, 2.1414320144685917e-05, -0.1904924213886261, -0.1886766105890274, 0.03326968103647232, -0.2534089982509613, 0.0649363100528717, -0.08003613352775574, 0.009746318683028221, 0.16430054605007172, -0.09676485508680344, 0.12211692333221436, 0.10332393646240234, 0.029627365991473198, -0.14810395240783691, -0.0647122785449028, -0.12419097125530243, -0.14133965969085693, 0.04731568321585655, 0.0649883970618248, 0.09020182490348816, -0.0039392621256411076, 0.1311408430337906, 0.13061566650867462, 0.2935274839401245, -0.08306719362735748, 0.05995946377515793, -0.15197080373764038, 0.1182585135102272, 0.31732526421546936, 0.015640592202544212, -0.011512158438563347, 0.11600291728973389, -0.033118151128292084, -0.03215239197015762, 0.30219367146492004, -0.11358637362718582, -0.08898665755987167, 0.24817103147506714, 0.006603099871426821, 0.13227127492427826, 0.0244631115347147, -0.21070580184459686, 0.01014745980501175, 0.08935632556676865, -0.44073882699012756, 0.14239349961280823, -0.15582175552845, 0.03874519094824791, 0.024319292977452278, 0.09040901809930801, 0.02412005141377449, 0.04465160146355629, 0.06970041245222092, -0.01610962115228176, -0.017442287877202034, -0.12457084655761719, -0.0524313785135746, 0.015277396887540817, -0.21544624865055084, 0.12198347598314285, 0.06309045106172562, 0.2177986055612564, -0.005572549533098936, -0.044356998056173325, 0.1487077921628952, -0.09755322337150574, -0.05303150415420532, -0.13738423585891724, 0.10104982554912567, 0.06724411994218826, -0.12816689908504486, -0.19258780777454376, -0.11241760104894638, -0.13352321088314056, 0.21099954843521118, 0.08651973307132721, -0.1331786960363388, -0.019122127443552017, 0.09106802195310593, 0.08347068727016449, 0.04167453199625015, 0.017042048275470734, -0.15648610889911652, -0.09275952726602554, -0.10960590839385986, -0.0639428123831749, -0.10163848847150803, -0.03563454747200012, -0.0370493084192276, 0.0032659585122019053, 0.004739951342344284, 0.33743077516555786, 0.16373862326145172, -0.1491016298532486, -0.0970214456319809, -0.02908026985824108, -0.06719851493835449, -0.41773056983947754, -0.13411009311676025, 0.11579527705907822, -0.08986983448266983, 0.15169657766819, 0.1725805252790451, -0.041791144758462906, 0.042202357202768326, 0.0007862705970183015, 0.08870863169431686, 0.14808405935764313, -0.02229326404631138, -0.34867364168167114, -0.20497678220272064, -0.10898340493440628, -0.17993581295013428, 0.18861116468906403, 0.04938756674528122, -0.01097826473414898, -0.08989454805850983, -0.0031256687361747026, -0.08679176867008209, 0.16059842705726624, -0.06896145641803741, 0.13608460128307343, -0.17502804100513458, -0.07439963519573212, 0.3334338963031769, -0.01924639567732811, 0.009137023240327835, 0.11229050159454346, 0.010990154929459095, 0.14866916835308075, 0.046617671847343445, -0.013694063760340214, 0.09816043823957443, 0.07469239830970764, -0.13906694948673248, 0.0471760518848896, 0.15361641347408295, -0.13464701175689697, 0.16029466688632965, -0.24704158306121826, -0.45131295919418335, 0.143301859498024, 0.050585757941007614, -0.05186399072408676, -0.006344018038362265, -0.13365206122398376, 0.010099840350449085, -0.043537940829992294, 0.030976366251707077, 0.09194350987672806, -0.11006612330675125, -0.03859201818704605, 0.1939774751663208, 0.1166389212012291, 0.04486183449625969, -0.1376606822013855, 0.230643168091774, 0.03374466672539711, 0.08807678520679474, -0.06904036551713943, -0.03089042752981186, 0.022771166637539864, 0.0812942236661911, 0.1140693724155426, -0.07144329696893692, 0.06319884955883026, 0.1954457312822342, 0.12056269496679306, -0.14833897352218628, -0.04863230884075165, -0.06680462509393692, 0.22644037008285522, -0.03648451715707779, 0.016437416896224022, 0.020618652924895287, -0.08127461373806, 0.06210264563560486, 0.08698481321334839, -0.1290433704853058, -0.06869488209486008, -0.14224271476268768, 0.12577728927135468, -0.03894714266061783, -0.06057433784008026, -0.06664571166038513, -0.0677184984087944, -0.18409010767936707, -0.01359675545245409, -0.04586077108979225, -0.1856919378042221, 0.23828887939453125, -0.1448839157819748, 0.18917353451251984, -0.013988573104143143, 0.060633230954408646, 0.19949780404567719, 0.07959399372339249, 0.16988207399845123, 0.00667449738830328, 0.2137649655342102, 0.1055489033460617, 0.022792339324951172, -0.19798558950424194, 0.14873278141021729, -0.05119628086686134, 0.10440097004175186, 0.0191804151982069, 0.2129831463098526, 0.21320617198944092, 0.04813261330127716, -0.06292121112346649, 0.13135966658592224, -0.07087373733520508, -0.1041804701089859, 0.15130284428596497, -0.01115244347602129, 0.047388214617967606, -0.04624951258301735, 0.03654995560646057, 0.06769660115242004, 0.05348282679915428, 0.031001904979348183, 0.03707360103726387, -0.03220269829034805, 0.1668287217617035, -0.16158868372440338, 0.14816738665103912, -0.3055550754070282, -0.08626057207584381, -0.12673291563987732, 0.06945519149303436, 0.050602033734321594, -0.11160173267126083, -0.030169256031513214, 0.00844662357121706, 0.04455507546663284, -0.25657275319099426, 0.16621840000152588, -0.10419062525033951, 0.4664866030216217, 0.1481049805879593, -0.22920489311218262, 0.026872770860791206, -0.02802622877061367, -0.13108043372631073, -0.10662896931171417, 0.1540730744600296, 0.19215892255306244, -0.08312955498695374, -0.024663595482707024, 0.08537472039461136, 0.011864191852509975, -0.2223207652568817, -0.1546022593975067, -0.1030445247888565, 0.05290180444717407, -0.24378728866577148, -0.10605460405349731, 0.20184867084026337, 0.18954052031040192, 0.00920597929507494, -0.07481217384338379, -0.1650501787662506, 0.20834176242351532, 0.10383833199739456, 0.12884685397148132, -0.259337455034256, -0.06176641210913658, -0.005310758017003536, 0.2112773060798645, -0.12050968408584595, 0.1919294148683548, -0.18734464049339294, 0.010322402231395245, -0.09937027096748352, 0.24014246463775635, -0.04673676937818527, 0.2054489254951477, -0.032071102410554886, -0.15568026900291443, 0.05571546033024788, -0.043641358613967896, -0.08356720209121704, -0.03187939524650574, 0.12916123867034912, -0.04917626455426216, 0.1405174434185028, -0.059686094522476196, -0.05264875665307045, 0.06595013290643692, 0.1112874373793602, -0.048882365226745605, 0.13656876981258392, -0.030476266518235207, -0.19649949669837952, -0.04118306189775467,