{"version": "0.5.4", "metadata": {"date": {"year": 2025, "month": 12, "day": 8, "hour": 17, "minute": 25, "second": 55}, "loudness": -26.740131378173828, "gain": 0.788989028554119, "training": {"settings": {"ignore_checks": true}, "data": {"latency": {"manual": 0, "calibration": {"algorithm_version": 1, "delays": [], "safety_factor": 1, "recommended": null, "warnings": {"matches_lookahead": false, "disagreement_too_high": false, "not_detected": true}}}, "checks": {"version": 3, "passed": false}}, "validation_esr": null}}, "architecture": "WaveNet", "config": {"layers": [{"input_size": 1, "condition_size": 1, "head_size": 8, "channels": 16, "kernel_size": 3, "dilations": [1, 2, 4, 8, 16, 32, 64, 128, 256, 512], "activation": "Tanh", "gated": false, "head_bias": false}, {"input_size": 16, "condition_size": 1, "head_size": 1, "channels": 8, "kernel_size": 3, "dilations": [1, 2, 4, 8, 16, 32, 64, 128, 256, 512], "activation": "Tanh", "gated": false, "head_bias": true}], "head": null, "head_scale": 0.02}, "weights": [-0.0029646868351846933, 0.45638132095336914, -0.7746627926826477, -0.6623383164405823, -0.3373401165008545, 0.12871742248535156, -0.005018133204430342, 0.8513083457946777, -0.10009565949440002, 0.21532659232616425, -0.2643290162086487, -0.13595964014530182, -0.8494443893432617, -0.6514227390289307, -0.3713519275188446, 0.02717781439423561, 0.11844617873430252, 0.0289869736880064, -0.1110488623380661, -0.030880609527230263, 0.2047860324382782, 0.129948228597641, -0.07029426842927933, -0.053479649126529694, -0.0419766902923584, -0.023397963494062424, -0.028726551681756973, -0.1512448787689209, -0.11784280836582184, -0.1832420527935028, -0.06240446865558624, 0.13633497059345245, 0.029972128570079803, -0.07207467406988144, -0.03571802377700806, -0.18338768184185028, -0.10276900976896286, 0.1660681515932083, 0.22686955332756042, 0.08565574139356613, 0.013797599822282791, -0.16477827727794647, 0.08439909666776657, -0.11807030439376831, 0.026085535064339638, -0.08705311268568039, 0.06867001950740814, -0.05309922248125076, -0.06000848114490509, -0.011365669779479504, -0.028707008808851242, 0.1502208262681961, 0.015414856374263763, -0.14385788142681122, 0.0766197219491005, -0.12319082766771317, -0.13184326887130737, -0.12689614295959473, -0.13031822443008423, -0.22203288972377777, 0.06067248061299324, 0.028150349855422974, -0.029900062829256058, -0.03111087530851364, -0.02217802032828331, 0.028707025572657585, -0.0958612859249115, 0.06751848757266998, -0.0731264278292656, 0.22323927283287048, -0.13810212910175323, 0.1173105463385582, -0.022475356236100197, 0.09092242270708084, 0.29361146688461304, 0.04755709692835808, -0.00810169242322445, 0.03264876827597618, -0.07395631074905396, -0.040980592370033264, -0.2647707164287567, 0.22463488578796387, 0.015557325445115566, -0.1059812605381012, -0.03836376219987869, 0.002504905918613076, -0.1953015774488449, 0.01711643673479557, -0.008770772255957127, 0.023708021268248558, -0.08824436366558075, 0.11960328370332718, -0.040921397507190704, 0.1548590213060379, -0.18537044525146484, 0.05472584068775177, -0.026147445663809776, -0.022694669663906097, 0.01880212500691414, -0.1817973405122757, 0.10937616229057312, 0.26850950717926025, -0.1407725214958191, -0.06553691625595093, 0.030332151800394058, -0.0850033089518547, -0.14388889074325562, 0.04554861783981323, -0.09837273508310318, 0.08757909387350082, -0.14668920636177063, 0.21838252246379852, -0.06729517132043839, 0.016524335369467735, 0.181789830327034, -0.044290412217378616, 0.14913541078567505, -0.06476766616106033, -0.06535591185092926, -0.15897519886493683, 0.11573006957769394, -0.07479986548423767, -0.2609041631221771, 0.13172012567520142, -0.21088452637195587, -0.26620960235595703, 0.03890637308359146, -0.018094683066010475, 0.09842444956302643, -0.2074185162782669, 0.00793033093214035, -0.04748482629656792, -0.025417670607566833, 0.07934420555830002, 0.29684147238731384, -0.0797049030661583, -0.025705138221383095, -0.12905582785606384, 0.1965988576412201, 0.14907106757164001, 0.2971014082431793, -0.00937721785157919, 0.07292703539133072, -0.17736537754535675, -0.03981538861989975, -0.1177663803100586, -0.05225295200943947, 0.08632537722587585, -0.15853649377822876, -0.3054502606391907, -0.07555010169744492, -0.2046966403722763, -0.21937695145606995, 0.14475812017917633, 0.0033914949744939804, -0.3184456527233124, 0.1669432520866394, -0.09993615001440048, 0.05852172523736954, -0.2187071293592453, -0.07828058302402496, -0.014265095815062523, -0.11396912485361099, -0.15405705571174622, -0.11030460894107819, -0.06530344486236572, -0.028482383117079735, 0.14905032515525818, -0.05254681408405304, 0.025463854894042015, 0.2202332466840744, 0.015826473012566566, 0.15503321588039398, 0.13444837927818298, -0.06900154799222946, 0.07891060411930084, -0.08254697173833847, -0.10839834809303284, 0.05533941835165024, -0.10135111212730408, 0.020058169960975647, -0.06841699033975601, 0.008093135431408882, -0.03532952442765236, 0.06776301562786102, 0.09182585775852203, -0.042101696133613586, -0.04461108148097992, -0.1859769970178604, 0.038185469806194305, 0.1349300593137741, 0.1724245548248291, -0.05176759883761406, 0.012881884351372719, -0.04197465255856514, -0.036762136965990067, -0.04616399481892586, 0.145903542637825, -0.007878325879573822, 0.03139890357851982, 0.09807241708040237, 0.16578732430934906, -0.08090024441480637, -0.015369624830782413, -0.022800538688898087, 0.11942961066961288, -0.0655810534954071, 0.14687438309192657, 0.08232559263706207, 0.070826955139637, 0.02790047787129879, -0.13473227620124817, -0.08864504843950272, -0.04743720218539238, 0.11481809616088867, 0.13443149626255035, -0.08961725980043411, 0.038132280111312866, 0.23096351325511932, -0.09511841088533401, 0.09229432791471481, 0.2459513545036316, 0.06465931981801987, -0.08441466838121414, -0.21345891058444977, 0.06486108154058456, -0.061798736453056335, 0.02783123590052128, -0.007257569581270218, -0.13866589963436127, -0.11477719992399216, 0.09823735803365707, 0.09139657765626907, 0.19039875268936157, 0.04980050027370453, -0.18304452300071716, -0.02405109442770481, -0.09921302646398544, 0.03827941417694092, 0.13983862102031708, 0.05381160229444504, 0.19310495257377625, 0.03870569169521332, 0.006085002329200506, 0.1908092051744461, -0.022090081125497818, 0.12867513298988342, -0.005596093367785215, 0.11588741838932037, -0.0038857408799231052, 0.02998676523566246, 0.12394354492425919, 0.13176876306533813, -0.09825607389211655, -0.1270778924226761, -0.01164470799267292, -0.06101042032241821, -0.033330902457237244, -0.0008361657382920384, -0.07164300233125687, 0.09196216613054276, 0.05963471159338951, 0.04281117022037506, -0.07136627286672592, 0.0655616968870163, -0.07886812835931778, -0.220155730843544, 0.059793975204229355, 0.09851381182670593, -0.1320473551750183, -0.03973149508237839, -0.06456434726715088, 0.0033729211427271366, -0.014012104831635952, 0.012969466857612133, -0.18859674036502838, 0.18509654700756073, -0.06005809083580971, 0.1662169247865677, 0.022644134238362312, 0.02568361908197403, -0.20929858088493347, 0.004156382288783789, 0.12193907797336578, 0.17763005197048187, 0.06758106499910355, -0.06098715588450432, -0.11599299311637878, 0.010380358435213566, -0.004175415262579918, -0.22782698273658752, 0.09358837455511093, 0.011570459231734276, -0.18690907955169678, -0.019105883315205574, -0.11906956881284714, -0.07950309664011002, -0.0875326469540596, 0.036412563174963, -0.21789045631885529, -0.03819799795746803, -0.010010916739702225, 0.00688666757196188, -0.08330036699771881, 0.11736783385276794, -0.20429930090904236, 0.060101427137851715, 0.1073792353272438, 0.22750790417194366, -0.08176454901695251, -0.17530445754528046, -0.20209084451198578, 0.10539253056049347, -0.10524015873670578, -0.12075385451316833, 0.15514983236789703, -0.11612801998853683, -0.1654086858034134, 0.1259615123271942, 0.0279226191341877, 0.14189711213111877, -0.06416572630405426, -0.010816345922648907, -0.03873559832572937, 0.13537605106830597, 0.1857970803976059, 0.26327407360076904, -0.04225466772913933, 0.08885696530342102, -0.15488950908184052, 0.03302502632141113, -0.10274747759103775, 0.2869016230106354, 0.002050128998234868, -0.12914526462554932, -0.09395274519920349, 0.18988871574401855, 0.13024911284446716, -0.009454046376049519, 0.18810513615608215, -0.08982983231544495, -0.23112577199935913, 0.17427347600460052, 0.028927873820066452, -0.26230567693710327, 0.1908770650625229, 0.027109796181321144, -0.08559147268533707, -0.02049528993666172, 0.011150207370519638, 0.024878034368157387, -0.017543861642479897, 0.020811516791582108, -0.04834890365600586, -0.01375658344477415, 0.10512600839138031, 0.15257257223129272, 0.13916899263858795, -0.15358151495456696, -0.17886485159397125, -0.17557723820209503, -0.192569300532341, -0.32422935962677, 0.03924082592129707, 0.0384388267993927, -0.061580099165439606, 0.05191493406891823, -0.10443085432052612, 0.0707496851682663, 0.02343904785811901, -0.03891019523143768, 0.032158639281988144, -0.13284967839717865, -0.017247723415493965, 0.07264017313718796, -0.008478003554046154, 0.1184510588645935, -0.013090817257761955, 0.12809090316295624, 0.13799406588077545, 0.30604463815689087, 0.0038072781171649694, 0.030686479061841965, -0.05708153173327446, -0.002071364549919963, 0.12455134838819504, -0.09568692743778229, 0.04000019654631615, -0.10415264219045639, -0.14351028203964233, -0.06194758042693138, -0.08425138890743256, -0.2894105017185211, -0.15304745733737946, -0.1538933515548706, -0.10024059563875198, 0.0416390560567379, -0.029481803998351097, 0.02484399452805519, 0.08447770774364471, 0.11197440326213837, -0.15205544233322144, 0.007116633467376232, 0.22584979236125946, 0.2981771230697632, -0.1847408562898636, 0.035048868507146835, -0.1381390541791916, 0.012966540642082691, -0.01829703338444233, -0.3264523148536682, 0.046874359250068665, 0.034570083022117615, -0.2295181155204773, -0.023633046075701714, 0.01669430173933506, 0.1582322120666504, -0.11836957931518555, 0.0434105210006237, 0.009502840228378773, 0.056518957018852234, 0.013492547906935215, 0.2549723982810974, -0.003103003604337573, 0.03743807226419449, -0.2914542555809021, 0.14404325187206268, -0.03611823171377182, 0.1522468626499176, -0.04958755895495415, -0.18102435767650604, -0.1665734350681305, 0.215461865067482, -0.05349212512373924, -0.2986728549003601, 0.03669704869389534, -0.07169321924448013, -0.35921698808670044, 0.13747747242450714, -0.22973036766052246, -0.38303443789482117, -0.06841285526752472, -0.11864038556814194, -0.13511773943901062, -0.05475587025284767, 0.14275729656219482, 0.07884765416383743, -0.10906334966421127, 0.023814113810658455, -0.2671832740306854, 0.17649975419044495, 0.0995936244726181, 0.29936152696609497, -0.009541187435388565, -0.12232920527458191, -0.04096222296357155, 0.085220105946064, 0.04358958080410957, -0.27435630559921265, 0.03794053569436073, -0.1613951176404953, -0.2121470868587494, 0.11229166388511658, -0.11345428973436356, 0.17612120509147644, -0.007771026808768511, 0.08377298712730408, -0.15751203894615173, -0.031733814626932144, -0.019892871379852295, 0.22364307940006256, 0.060564473271369934, 0.11834819614887238, -0.10933705419301987, 0.18616883456707, -0.137150838971138, 0.016207821667194366, -0.027089867740869522, -0.08757910877466202, -0.073687843978405, -0.010570202022790909, -0.07177607715129852, -0.25776904821395874, 0.15620671212673187, -0.042976003140211105, -0.050971660763025284, 0.1668245494365692, 0.05614252761006355, -0.1542275846004486, 0.035303663462400436, -0.049904413521289825, -0.13341864943504333, 0.15484844148159027, -0.12747769057750702, 0.23175816237926483, -0.12298686802387238, -0.23862996697425842, -0.02468094229698181, 0.1478722244501114, 0.2482067495584488, -0.18920698761940002, 0.08213412761688232, -0.0439772829413414, 0.13773827254772186, 0.13743700087070465, -0.19499294459819794, 0.09776687622070312, 0.07480878382921219, -0.15798622369766235, 0.10259576886892319, -0.024070607498288155, 0.2080002874135971, -0.08156879246234894, -0.06486421823501587, -0.08156710118055344, 0.09406546503305435, -0.04911890998482704, 0.128637433052063, 0.03170869126915932, -0.028306206688284874, -0.08534474670886993, -0.009491492994129658, 0.04715249687433243, 0.0112931989133358, -0.1346862018108368, -0.08835219591856003, 0.01699613779783249, 0.011047383770346642, 0.01479100901633501, -0.18638893961906433, 0.19186289608478546, 0.15590888261795044, -0.2244289368391037, -0.06368646770715714, -0.09339089691638947, -0.11725825071334839, 0.01423949096351862, -0.0808759406208992, -0.16690848767757416, 0.07650935649871826, -0.06294573098421097, 0.14933885633945465, -0.05088656023144722, -0.06266380101442337, 0.024574048817157745, 0.32476261258125305, -0.17178303003311157, -0.10222966223955154, -0.3413007855415344, 0.2456364780664444, -0.019353346899151802, 0.15843459963798523, 0.047047365456819534, 0.023185310885310173, 0.32103443145751953, -0.11100442707538605, 0.07249077409505844, 0.25145143270492554, -0.014858249574899673, -0.07101205736398697, -0.38428473472595215, 0.0305083729326725, -0.0829569548368454, 0.19418105483055115, -0.1708052009344101, 0.019087711349129677, -0.3291585147380829, 0.0758030042052269, 0.16000540554523468, 0.27537021040916443, -0.06964264810085297, -0.0019572083838284016, -0.3051866292953491, 0.032255612313747406, 0.08102808147668839, 0.387037992477417, -0.16842912137508392, -0.05584349483251572, 0.3110995590686798, 0.0290706567466259, 0.07707676291465759, 0.1788824498653412, -0.22618016600608826, 0.1494792252779007, 0.2824203670024872, -0.17378263175487518, 0.13311633467674255, 0.33599790930747986, 0.005537631455808878, 0.08271783590316772, -0.1993614286184311, 0.04463290795683861, -0.1932458132505417, 0.2280425727367401, -0.11194030195474625, 0.11985708028078079, -0.3020637333393097, 0.2958017885684967, 0.07564996182918549, 0.3024134039878845, -0.2911108434200287, -0.11519253998994827, 0.0730959102511406, -0.03098667599260807, -0.11754070222377777, 0.11156316846609116, -0.08467447012662888, -0.01665288768708706, -0.23355822265148163, 0.13567590713500977, -0.07994762063026428, -0.05705196410417557, -0.02717491239309311, -0.001336420769803226, -0.12345441430807114, 0.2966245710849762, 0.009819346480071545, 0.1901320219039917, -0.025100626051425934, 0.06745989620685577, -0.25264817476272583, 0.2844138443470001, -0.021076751872897148, 0.035738375037908554, -0.20072560012340546, -0.14527834951877594, 0.2990151643753052, -0.17530596256256104, -0.1932723969221115, 0.16262346506118774, -0.0782984048128128, -0.022631926462054253, 0.22010689973831177, -0.1538703441619873, -0.005723197478801012, 0.13678604364395142, -0.2204858809709549, -0.08696447312831879, -0.2626509368419647, 0.1944262683391571, -0.1481107622385025, 0.07360184192657471, -0.019930550828576088, -0.02451351098716259, -0.23446573317050934, 0.14776422083377838, -0.03943924233317375, 0.26785552501678467, -0.1133994534611702, 0.006555096711963415, 0.22500135004520416, -0.061698246747255325, 0.152193084359169, 0.037145525217056274, -0.13657231628894806, -0.07934215664863586, -0.0853671282529831, 0.16838084161281586, -0.14058315753936768, 0.09210582822561264, -0.08928849548101425, -0.07676108181476593, -0.04363017901778221, -0.10916707664728165, 0.012252784334123135, 0.21917830407619476, -0.12033433467149734, 0.09356515109539032, -0.1632232964038849, 0.15489479899406433, -0.11438129842281342, 0.10420296341180801, -0.05481991171836853, 0.05664774402976036, 0.16399182379245758, 0.07476306706666946, 0.022900547832250595, 0.14446647465229034, 0.10006415843963623, 0.002378386678174138, 0.272736132144928, -0.1010352373123169, 0.018476704135537148, 0.12813960015773773, 0.04674116522073746, 0.1130627989768982, -0.0785144567489624, -0.01668749563395977, 0.15685930848121643, -0.004000857938081026, 0.1251484751701355, -0.08358293026685715, 0.20762872695922852, 0.088234543800354, -0.0019264125730842352, -0.2564293444156647, 0.14195048809051514, -0.11769974231719971, -0.08522196859121323, 0.06516633927822113, -0.06890165060758591, -0.0606410913169384, -0.07762636989355087, 0.018089113757014275, -0.008897561579942703, -0.08170436322689056, 0.1127769947052002, 0.08811373263597488, -0.014528713189065456, 0.10624080896377563, 0.10235672444105148, -0.1138407438993454, -0.08711070567369461, -0.18636628985404968, 0.2586608827114105, -0.0480521060526371, 0.10053584724664688, -0.030203795060515404, 0.10430783033370972, 0.025450296700000763, 0.18066757917404175, -0.08681241422891617, -0.10458063334226608, -0.019336912781000137, -0.09628826379776001, -0.08792109787464142, 0.17675510048866272, -0.12550979852676392, -0.030056050047278404, -0.028499750420451164, -0.03068464994430542, 0.007040984928607941, 0.02290450781583786, -0.04436695948243141, -0.08343351632356644, -0.004864796064794064, 0.08951150625944138, -0.17162549495697021, 0.11998624354600906, -0.17361752688884735, 0.024591445922851562, -0.07783249765634537, 0.17949101328849792, -0.18456505239009857, 0.15475818514823914, 0.19027221202850342, -0.047048170119524, 0.00987588707357645, 0.05253821983933449, -0.18455013632774353, -0.030015654861927032, -0.06797616928815842, 0.23370778560638428, 0.04699660837650299, 0.12759123742580414, -0.015844494104385376, -0.009618132375180721, 0.045748934149742126, 0.08574849367141724, -0.18984325230121613, 0.09733293205499649, -0.030732301995158195, -0.04329536482691765, 0.06041400507092476, 0.1846648007631302, -0.18820230662822723, 0.03492438420653343, -0.013755069114267826, -0.028184674680233, 0.03119616024196148, -0.07653652131557465, -0.04249779134988785, 0.14286008477210999, -0.06993159651756287, 0.17486140131950378, -0.0280433539301157, 0.0002149418869521469, 0.002472275635227561, 0.20810361206531525, -0.27755117416381836, -0.042142026126384735, 0.008395533077418804, 0.1033012717962265, -0.0729844719171524, -0.06179269030690193, -0.11347991973161697, -0.05995967984199524, -0.12167395651340485, 0.04911903291940689, 0.0444699190557003, -0.021049385890364647, 0.011358648538589478, 0.08427248150110245, 0.09515009820461273, -0.047251325100660324, -0.017388343811035156, -0.026774410158395767, -0.045749761164188385, -0.02575742080807686, -0.0038444458041340113, 0.4757741689682007, -0.35919737815856934, 0.7515023946762085, -0.7939838767051697, -0.029642362147569656, 0.8995466828346252, 0.9496250748634338, -0.4879154860973358, 0.12396708130836487, 0.04427090659737587, -0.48496851325035095, -0.25993427634239197, 0.44503656029701233, -0.712775707244873, 0.13443991541862488, 0.34654244780540466, -0.0455690436065197, 0.20269635319709778, -0.003270477056503296, 0.06830137968063354, 0.12885522842407227, -0.060762736946344376, 0.1340111941099167, -0.02604074776172638, -0.03553422540426254, -0.08321630954742432, 0.13477635383605957, -0.07499805837869644, 0.1976458728313446, -0.008586921729147434, 0.14605356752872467, -0.13603530824184418, -0.006608919240534306, -0.16848327219486237, -0.2328852117061615, 0.051917508244514465, 0.11203902214765549, -0.05782416835427284, -0.08035631477832794, 0.09210062772035599, -0.00667171785607934, 0.24697424471378326, -0.14389729499816895, 0.04049055278301239, 0.039266299456357956, -0.10923250764608383, 0.06194186583161354, 0.11159814894199371, 0.059206947684288025, 0.1115889698266983, 0.04980810359120369, 0.24748392403125763, -0.2592134475708008, -0.21609432995319366, 0.10446611791849136, -0.07774032652378082, -0.01867576874792576, -0.13403046131134033, 0.30412551760673523, -0.26157182455062866, 0.06450201570987701, 0.29540857672691345, 0.1566210836172104, -0.022582469508051872, 0.17617946863174438, -0.19816064834594727, -0.1100023165345192, -0.21230633556842804, -0.0032773350831121206, 0.1338488906621933, 0.010813643224537373, -0.014384591951966286, -0.1713665872812271, 0.1299958974123001, -0.12106943130493164, -0.011670555919408798, 0.18368534743785858, 0.17821450531482697, -0.19672797620296478, -0.029529782012104988, -0.09124353528022766, -0.3509419560432434, -0.1711219847202301, 0.0950150340795517, 0.14214645326137543, 0.18732064962387085, 0.14988631010055542, -0.09828699380159378, 0.13445912301540375, 0.273526668548584, -0.21355468034744263, 0.14064359664916992, -0.045202843844890594, 0.06712339073419571, -0.07088878005743027, 0.05593461915850639, -0.25438857078552246, -0.013750539161264896, 0.04151260852813721, 0.08048474043607712, 0.31697842478752136, 0.20386356115341187, 0.15880680084228516, 0.04945237189531326, 0.16417552530765533, -0.04181129112839699, -0.23820394277572632, -0.04730607941746712, -0.0752834901213646, -0.12303251773118973, 0.049550753086805344, 0.130824014544487, 0.1258474737405777, 0.1636805683374405, 0.209578275680542, 0.1761055439710617, -0.2164132446050644, -0.22048842906951904, 0.05063990503549576, -0.09146878868341446, -0.01949433609843254, -0.3453918695449829, -0.1089518591761589, 0.2921006679534912, 0.3366960287094116, -0.10997588187456131, -0.00826161727309227, -0.20846174657344818, 0.31523844599723816, 0.02271410822868347, 0.4282616972923279, -0.33564892411231995, -0.2656908333301544, 0.31059151887893677, 0.3933478593826294, 0.17274722456932068, 0.25642961263656616, -0.1300225704908371, 0.13967657089233398, -0.3038959205150604, 0.06865593045949936, -0.2847755551338196, 0.009956231340765953, 0.04376746341586113, -0.17671208083629608, 0.0729789063334465, -0.4095984101295471, -0.11077318340539932, 0.16422995924949646, -0.19779033958911896, -0.31723538041114807, -0.2272678017616272, -0.35843193531036377, -0.3156599700450897, 0.137187197804451, 0.25595375895500183, 0.07475977391004562, 0.023306654766201973, -0.10807955265045166, -0.005424071103334427, -0.1918119490146637, 0.008680067956447601, 0.14097662270069122, -0.2462342232465744, -0.19718432426452637, 0.03734488785266876, 0.15844795107841492, -0.10599693655967712, -0.015232816338539124, 0.19285690784454346, -0.024520259350538254, 0.15130272507667542, 0.30913594365119934, 0.177223801612854, -0.17427115142345428, 0.0019803419709205627, 0.09566216170787811, 0.24783864617347717, -0.32702162861824036, 0.18237267434597015, -0.0996411070227623, -0.3207073211669922, -0.038505081087350845, -0.1008857935667038, -0.02223481610417366, -0.21344934403896332, -0.12287111580371857, 0.014372766949236393, -0.03940211981534958, 0.21126237511634827, -0.013057265430688858, 0.13335144519805908, -0.017571480944752693, -0.11373008042573929, 0.15895158052444458, 0.015640482306480408, -0.0032879961654543877, -0.1365555077791214, -0.016726253554224968, 0.10013309866189957, 0.024914903566241264, -0.06875080615282059, 0.05543901026248932, -0.2875036895275116, -0.20095713436603546, 0.1402837187051773, -0.0816497877240181, -0.14402303099632263, 0.04618867114186287, -0.024887997657060623, 0.10849883407354355, 0.07216252386569977, 0.032786693423986435, -0.11372851580381393, 0.021246837452054024, 0.06705406308174133, 0.16636639833450317, -0.11866883933544159, -0.2009274810552597, 0.09265075623989105, 0.2247552126646042, -0.1571938544511795, -0.10987354069948196, 0.1302817165851593, -0.041470110416412354, -0.1854638010263443, -0.19220499694347382, 0.15481798350811005, -0.08715219050645828, 0.1202012449502945, 0.12363322824239731, -0.031655486673116684, -0.057154662907123566, -0.10934775322675705, -0.004850702825933695, 0.058825794607400894, -0.1847936511039734, 0.008077378384768963, -0.20664100348949432, 0.12341765314340591, -0.12298068404197693, 0.22707213461399078, -0.08308734744787216, -0.13054266571998596, 0.06792175769805908, 0.022502640262246132, 0.1128954067826271, 0.14179727435112, -0.26524102687835693, 0.08326686173677444, -0.03634442761540413, -0.09158492833375931, 0.1730746030807495, 0.1886185258626938, -0.1905694454908371, -0.019955817610025406, 0.27073749899864197, 0.030244706198573112, 0.2552551031112671, -0.13239561021327972, -0.08982177078723907, 0.3529881238937378, 0.17497707903385162, 0.1394650638103485, -0.08583905547857285, -0.15097153186798096, -0.21752771735191345, -0.2311452478170395, 0.1415107697248459, 0.0975949689745903, 0.021865112707018852, 0.11992170661687851, 0.09088977426290512, -0.07764322310686111, 0.15307745337486267, -0.12483176589012146, -0.075772225856781, -0.05506984144449234, 0.117700956761837, -0.0063880435191094875, 0.08164278417825699, -0.06640896946191788, 0.08048441261053085, 0.021640580147504807, -0.006637727376073599, 0.14829489588737488, 0.08987520635128021, 0.0007574081537313759, 0.00440831296145916, -0.002575982129201293, -0.07439126074314117, 0.07355095446109772, -0.08658594638109207, 0.06109544262290001, -0.03401200845837593, 0.054623574018478394, -0.0382772833108902, -0.11047012358903885, 0.03892337530851364, -0.011398207396268845, -0.07826986908912659, -0.08143523335456848, 0.02702735736966133, 0.1333369016647339, -0.17009374499320984, 0.25884002447128296, -0.12304280698299408, -0.05777858570218086, -0.05577271431684494, -0.013906923122704029, -0.19085365533828735, -0.03879799321293831, -0.06823503971099854, 0.14119954407215118, -0.23889392614364624, -0.08220133930444717, 0.05606475844979286, -0.036671534180641174, -0.10537628084421158, 0.08025560528039932, -0.10748274624347687, -0.04070249944925308, -0.012858828529715538, -0.0051274425350129604, -0.011568406596779823, 0.12283273041248322, -0.08255951851606369, -0.1598864644765854, 0.026136364787817, -0.16929864883422852, -0.1677032709121704, 0.10091396421194077, -0.11622443050146103, 0.13999821245670319, -0.14373956620693207, -0.02071944624185562, 0.008117715828120708, 0.008328459225594997, 0.13163669407367706, -0.14352871477603912, -0.007222799118608236, 0.07455051690340042, -0.04540696367621422, -0.05522880703210831, 0.10458072274923325, -0.0793001800775528, 0.07839177548885345, -0.0645248293876648, 0.08008920401334763, -0.13029620051383972, 0.07856874912977219, -0.14275380969047546, -0.09810549765825272, -0.015200959518551826, 0.18253496289253235, -0.06083650514483452, 0.006417854223400354, 0.06026623770594597, -0.0601285956799984, -0.0032179984264075756, -0.04457922279834747, -0.0030253990553319454, -0.029379643499851227, 0.11630072444677353, 0.08007446676492691, -0.08109262585639954, 0.08018817752599716, 0.02548150159418583, -0.006776946596801281, -0.16465216875076294, -0.1346374899148941, 0.047031503170728683, 0.024729488417506218, 0.017802417278289795, 0.0700443908572197, 0.003162950510159135, 0.001975826220586896, -0.04761723056435585, -0.006164173129945993, -0.09440839290618896, -0.031161746010184288, -0.07746615260839462, 0.15205061435699463, -0.12101732194423676, -0.024612456560134888, -0.1459224820137024, 0.020467929542064667, 0.136680468916893, 0.15984494984149933, -0.11562810093164444, 0.009917623363435268, 0.009195505641400814, 0.10929714888334274, 0.14334635436534882, 0.016195451840758324, -0.03620927780866623, 0.152641162276268, -0.01735425367951393, 0.11738330870866776, -0.04428170993924141, 0.2100072056055069, 0.02853020466864109, 0.09983371943235397, -0.1971915364265442, -0.06679638475179672, -0.10510657727718353, -0.01409867126494646, -0.008181201294064522, 0.011579728685319424, -0.17908969521522522, 0.05704447254538536, -0.07880421727895737, 0.07411462068557739, -0.1472899466753006, -0.07686370611190796, -0.21082837879657745, 0.19508498907089233, 0.21493284404277802, -0.019859690219163895, 0.17817437648773193, 0.09499621391296387, -0.008157113566994667, 0.04176649823784828, 0.011050350964069366, -0.02329356037080288, 0.11199453473091125, -0.06510013341903687, 0.006679087411612272, 0.12459293007850647, -0.1452719271183014, 0.17769816517829895, 0.06030521169304848, 0.0005085556185804307, -0.16437946259975433, 0.11001154035329819, -0.029544206336140633, 0.14760111272335052, 0.05454973131418228, 0.13416829705238342, -0.22376325726509094, -0.022378966212272644, 0.09745451807975769, 0.03793257847428322, -0.06819652765989304, 0.009255718439817429, -0.06900981813669205, 0.007321300450712442, -0.1275516152381897, 0.30969151854515076, -0.10174019634723663, 0.11754275113344193, -0.013525069691240788, 0.2233780026435852, -0.18781642615795135, 0.21189336478710175, -0.052046652883291245, 0.16746574640274048, -0.3045238256454468, 0.20564329624176025, 0.0887390747666359, -0.13737303018569946, -0.08707720786333084, 0.16573822498321533, -0.2696444094181061, 0.08891412615776062, 0.1310758739709854, 0.06360027939081192, 0.2398543804883957, 0.014528586529195309, -0.015853948891162872, 0.0048506055027246475, 0.06929013133049011, -0.21864590048789978, -0.04964910075068474, 0.017516709864139557, -0.1659000962972641, 0.19708655774593353, -0.016840018332004547, 0.21061387658119202, 0.013482545502483845, -0.07837170362472534, -0.04417578876018524, 0.03161844611167908, 0.05546524375677109, 0.09426035732030869, -0.03520958125591278, -0.07814399152994156, 0.08043994009494781, -0.005311677698045969, -0.12241754680871964, 0.08489490300416946, 0.11312346905469894, -0.05051594600081444, -0.03624365106225014, -0.10541664808988571, -0.11024920642375946, 0.11666999012231827, -0.1603250652551651, 0.07159585505723953, -0.18956491351127625, 0.016745321452617645, 0.049667198210954666, 0.1682988852262497, 0.0172671377658844, 0.061098430305719376, 0.0015268416609615088, 0.08490408211946487, -0.08955977857112885, -0.13308924436569214, -0.02982974424958229, 0.12529930472373962, -0.10060332715511322, 0.10486482083797455, -0.036439165472984314, 0.13898791372776031, 0.13262909650802612, -0.21287676692008972, -0.14767736196517944, 0.12187092006206512, 0.017940843477845192, -0.0023990634363144636, 0.07475315034389496, -0.019129296764731407, -0.12686817348003387, -0.07639628648757935, 0.10646448284387589, 0.03137759491801262, -0.13559363782405853, -0.11363784223794937, -0.017626149579882622, -0.1376866102218628, -0.1215619146823883, 0.08279132843017578, -0.002033551922068, -0.1308591216802597, -0.002638295292854309, 0.026384955272078514, 0.01720951683819294, 0.13253961503505707, 0.07709333300590515, -0.04173356294631958, 0.09457089006900787, 0.06318157911300659, 0.1962066888809204, -0.17677925527095795, 0.14160621166229248, 0.036086805164813995, -0.008939327672123909, -0.22098460793495178, 0.1545073688030243, -0.2236313670873642, 0.19295722246170044, 0.06679453700780869, 0.24556918442249298, -0.18445701897144318, 0.2543272078037262, 0.06093990057706833, 0.0665711835026741, -0.019995475187897682, 0.12395916134119034, -0.037471797317266464, 0.13098932802677155, -0.09532848000526428, 0.24344505369663239, 0.06966247409582138, 0.13134388625621796, 0.09382890164852142, -0.11920560151338577, -0.16107212007045746, 0.06265047192573547, -0.128449946641922, 0.18025511503219604, -0.23585067689418793, 0.036947254091501236, -0.1092178076505661, 0.09005636721849442, 0.15213242173194885, -0.07430557161569595, 0.11191067844629288, 0.14631035923957825, 0.22050660848617554, -0.08303497731685638, -0.00011463239206932485, -0.2598324716091156, 0.2548381984233856, 0.1687287539243698, -0.035814955830574036, 0.017812678590416908, 0.003732742741703987, 0.06277333945035934, 0.036689676344394684, 0.05196934938430786, 0.3570421040058136, -0.03475911542773247, 0.2960527539253235, -0.18292243778705597, 0.3115916848182678, -0.15769949555397034, 0.32803305983543396, -0.14447754621505737, 0.14444442093372345, -0.35615479946136475, -0.014401214197278023, -0.0045562670566141605, 0.08222537487745285, -0.06401465833187103, 0.2167055606842041, -0.2989228367805481, 0.15851138532161713, -0.16400794684886932, -0.12253335863351822, 0.030977653339505196, 0.09798704087734222, 0.024551531299948692, 0.2891388237476349, 0.0033114992547780275, -0.025686459615826607, -0.12264326214790344, -0.008631687611341476, -0.1920563131570816, 0.08643660694360733, -0.21098385751247406, 0.2054361253976822, -0.11588837206363678, -0.05084674060344696, -0.03686320781707764, 0.07868435233831406, 0.12232346832752228, -0.05238360911607742, -0.10828644037246704, -0.12299786508083344, -0.0347982719540596, 0.1166069433093071, -0.04536397010087967, -0.08218175917863846, -0.05362779274582863, 0.01909272000193596, -0.17284034192562103, -0.147295281291008, 0.05982446298003197, 0.04368318244814873, -0.05343649536371231, 0.1294872760772705, -0.13071878254413605, 0.11112935096025467, -0.02523818239569664, 0.04437939077615738, -0.08441562205553055, 0.0968308076262474, -0.24096475541591644, 0.19449211657047272, 0.11947889626026154, 0.13234949111938477, -0.07010317593812943, 0.16336718201637268, -0.25184720754623413, 0.020483357831835747, -0.12128999829292297, -0.10621814429759979, -0.024011338129639626, -0.07526063919067383, -0.023711785674095154, 0.02677328884601593, -0.15560917556285858, -0.06785471737384796, -0.1146627739071846, 0.13514401018619537, -0.031165100634098053, 0.10331609100103378, -0.11630070209503174, 0.11767137050628662, 0.02536238171160221, 0.08210951089859009, 0.17494750022888184, -0.08063030987977982, -0.10963553935289383, -0.05985994264483452, -0.018290355801582336, 0.17632035911083221, 0.1105814054608345, 0.05584537237882614, 0.15042273700237274, 0.050157561898231506, -0.09269220381975174, 0.050550997257232666, 0.1296297013759613, 0.003490906208753586, -0.12481392920017242, -0.02025788649916649, -0.019127191975712776, -0.036920566111803055, 0.03966578468680382, 0.038413211703300476, -0.14102037250995636, -0.18510587513446808, 0.1530672013759613, -0.053709644824266434, -0.036294158548116684, 0.07729557901620865, 0.019857289269566536, 0.08139006048440933, -0.03991406783461571, 0.05578436702489853, 0.07607799023389816, -0.08332690596580505, 0.097822405397892, 0.12223684787750244, 0.18709103763103485, -0.0545865073800087, 0.14204826951026917, -0.06349550932645798, -0.05193649232387543, -0.07136626541614532, -0.21878696978092194, -0.0992911085486412, -0.07312952727079391, -0.056513719260692596, -0.02163136750459671, -0.15251107513904572, -0.07428264617919922, 0.07744356244802475, 0.1270155906677246, -0.05837370827794075, -0.06325498968362808, 0.0800899937748909, 0.12481687217950821, -0.16932575404644012, 0.002086782595142722, -0.03383586183190346, -0.08284763246774673, 0.11461062729358673, -0.045458707958459854, 0.10318370908498764, -0.009829649701714516, -0.026570167392492294, -0.025471404194831848, -0.10460244119167328, 0.1295887529850006, 0.06382805109024048, 0.028306832537055016, 0.0704663097858429, -0.05002442002296448, 0.0018139616586267948, 0.16168396174907684, -0.04531543701887131, 0.18901877105236053, -0.040722548961639404, -0.10602766275405884, -0.07511836290359497, 0.07219988852739334, -0.15492019057273865, 0.03265564516186714, 0.06003414839506149, -0.05074559897184372, -0.0799507424235344, -0.025914128869771957, -0.05389660224318504, -0.0669352188706398, -0.07873369753360748, -0.10605046898126602, 0.036019448190927505, 0.005005225073546171, -0.0821184515953064, -0.09036164730787277, 0.05039513111114502, 0.004820097237825394, -0.014416947029531002, -0.0282012689858675, 0.008446348831057549, 0.033150073140859604, -0.0904204249382019, -0.09350647777318954, 0.1548794060945511, -0.16249924898147583, 0.16151461005210876, -0.07756009697914124, 0.09497076272964478, -0.015272955410182476, -0.004136275965720415, 0.015284990891814232, 0.09828058630228043, 0.06649906933307648, -0.1076231375336647, -0.17846830189228058, 0.045437272638082504, -0.0682329386472702, 0.02828148566186428, 0.15755309164524078, 0.13680608570575714, -0.28758037090301514, 0.0853087306022644, 0.1140410304069519, 0.16060501337051392, -0.03928830847144127, 0.06263357400894165, -0.1655934453010559, -0.1699526607990265, -0.02360038459300995, 0.34725460410118103, -0.007902373559772968, -0.08658305555582047, 0.1520448625087738, -0.04545390605926514, 0.04965320974588394, 0.1910473257303238, 0.022780830040574074, 0.08182305842638016, 0.1255246102809906, -0.0898614376783371, -0.0051399338990449905, 0.19609062373638153, 0.029788760468363762, -0.01368047297000885, -0.23261308670043945, -0.1374531239271164, 0.03948548436164856, 0.2171068638563156, -0.106564961373806, -0.051365531980991364, -0.04382183030247688, -0.014852025546133518, -0.1525873988866806, 0.0072629330679774284, 0.03164929896593094, 0.1379343420267105, 0.055237963795661926, 0.009963899850845337, 0.033652979880571365, 0.06682006269693375, 0.00952128879725933, -0.14187967777252197, -0.1334018111228943, 0.28434470295906067, -0.07160931080579758, -0.010819142684340477, -0.31555160880088806, 0.26125410199165344, 0.03782980144023895, 0.28415659070014954, -0.0022621958050876856, 0.23049220442771912, -0.2788863778114319, 0.02906522899866104, -0.2781761586666107, 0.021051719784736633, -0.11631391197443008, 0.06884785741567612, -0.06085812300443649, 0.018322132527828217, -0.029111213982105255, 0.07325564324855804, -0.09617268294095993, -0.016380732879042625, -0.08970608562231064, 0.10374905169010162, 0.1676064431667328, -0.0002559903950896114, -0.051399894058704376, 0.16318346560001373, -0.1130937710404396, -0.10956905782222748, -0.2557052671909332, 0.12515497207641602, 0.009225118905305862, -0.08532223850488663, 0.050210315734148026, -0.10719691216945648, 0.14888732135295868, 0.13275809586048126, 0.04671492055058479, 0.12000402063131332, 0.05827711895108223, -0.09826365113258362, 0.03547104820609093, 0.05648015812039375, -0.039999593049287796, 0.15712560713291168, -0.03227856382727623, -0.11192198842763901, -0.07242836058139801, -0.12657062709331512, 0.15974551439285278, -0.05967619642615318, -0.07080014050006866, -0.056927744299173355, -0.14608195424079895, -0.10606670379638672, 0.143699049949646, -0.06876145303249359, 0.08117607235908508, -0.00939000491052866, -0.023199373856186867, 0.06550931185483932, -0.053125232458114624, 0.12911808490753174, 0.15993735194206238, -0.03816427290439606, 0.11704341322183609, -0.20829451084136963, 0.010453758761286736, 0.08414158970117569, -0.12142237275838852, 0.04067350924015045, -0.034442488104104996, -0.06832361966371536, -0.16512691974639893, 0.08146177232265472, -0.08019828051328659, -0.03413088247179985, 0.027710814028978348, 0.08565918356180191, 0.07796705514192581, -0.09446053206920624, -0.0965009480714798, -0.011557473801076412, 0.021223636344075203, 0.1312158852815628, 0.05575297772884369, 0.1217852458357811, -0.14033390581607819, 0.04998604953289032, -0.01007570419460535, 0.023030851036310196, 0.04760381206870079, -0.0003868066123686731, 0.06236590817570686, 0.12762556970119476, -0.0810815617442131, 0.02779795415699482, -0.0888737216591835, -0.016517464071512222, 0.12043929845094681, 0.05886349081993103, 0.06698239594697952, 0.011950171552598476, 0.003530829446390271, 0.04897262156009674, -0.02348700352013111, 0.05161872133612633, 0.07569596916437149, -0.09330449998378754, 0.15959469974040985, 0.02426891028881073, 0.03280145674943924, -0.07975354790687561, 0.03174206241965294, 0.007208016235381365, -0.07461003214120865, -0.0496361218392849, 0.00033962688758037984, 0.005070502869784832, 0.10404381901025772, 0.08702109754085541, -0.13307419419288635, -0.016579322516918182, -0.04074038192629814, -0.1432785987854004, -0.020827405154705048, -0.0428866446018219, 0.17894278466701508, -0.06235351413488388, -0.10741523653268814, -0.045543063431978226, 0.06583157926797867, 0.10732529312372208, -0.07529904693365097, -0.16934891045093536, 0.034111376851797104, 0.18804527819156647, 0.0019835273269563913, -0.005687257740646601, 0.12411875277757645, 0.07897937297821045, 0.10579628497362137, 0.1308814138174057, 0.14977386593818665, 0.062258780002593994, -0.21191570162773132, 0.12730607390403748, -0.08490610122680664, 0.10471145063638687, 0.027589205652475357, 0.13097244501113892, -0.3314700424671173, 0.06663988530635834, -0.27678561210632324, 0.1381247341632843, -0.04897104203701019, -0.04906428977847099, 0.03595978394150734, -0.013108063489198685, -0.08888094872236252, 0.28516829013824463, 0.00028612310416065156, 0.08533292263746262, 0.08851443976163864, -0.00018976420687977225, -0.0031613826286047697, 0.20487284660339355, -0.14612342417240143, -0.11890387535095215, 0.005397433880716562, -0.1495838463306427, -0.14821171760559082, -0.02686334028840065, 0.14436163008213043, 0.1378694325685501, -0.14468222856521606, -0.1865314394235611, 0.14922480285167694, -0.17174938321113586, 0.06522529572248459, 0.021003540605306625, 0.08274514228105545, -0.07620111107826233, 0.1357700228691101, 0.07666242122650146, 0.03518638759851456, 0.10647506266832352, -0.07626650482416153, -0.08320903778076172, 0.014356129802763462, 0.041931964457035065, 0.06756685674190521, -0.2589368224143982, 0.021034128963947296, 0.08490502089262009, 0.2386445254087448, -0.23526422679424286, 0.1595125049352646, -0.26527726650238037, -0.19615599513053894, -0.1970037817955017, 0.06480005383491516, -0.013179938308894634, -0.03412897139787674, 0.14913827180862427, 0.1862504631280899, -0.12158878892660141, 0.18610455095767975, -0.0610244981944561, -0.14852531254291534, -0.010894902050495148, 0.040418144315481186, -0.11632759124040604, -0.05817413702607155, 0.076053187251091, -0.039279259741306305, 0.10602065175771713, -0.11934912204742432, -0.07836891710758209, -0.031641554087400436, -0.0025663028936833143, 0.147495836019516, 0.0778646245598793, 0.12962424755096436, 0.06279918551445007, 0.0366641990840435, -0.028809498995542526, 0.06374893337488174, -0.07863859832286835, 0.07188667356967926, 0.08888264000415802, 0.09541913121938705, -0.13100333511829376, -0.0194564089179039, -0.04152349755167961, 0.001959244254976511, 0.054879263043403625, 0.02417120523750782, 0.0013582748360931873, -0.04390646144747734, -0.2374449074268341, 0.24578599631786346, 0.1741790622472763, -0.6569708585739136, 0.07381254434585571, -0.8766618371009827, -0.5245885252952576, -0.5257777571678162, 1.0205769538879395, -0.9236587285995483, -0.5860056281089783, -0.8671669363975525, 0.28866562247276306, -0.7650259733200073, -0.062091585248708725, -0.8621424436569214, -0.011091310530900955, -0.07050850987434387, -0.01781831867992878, 0.13071775436401367, 0.22687898576259613, 7.258079858729616e-05, -0.21424920856952667, -0.01599627546966076, -0.2359810322523117, -0.08336250483989716, -0.08579578250646591, 0.14325428009033203, -0.060344383120536804, 0.04147077724337578, 0.03559941425919533, 0.07775292545557022, -0.040937479585409164, -0.011168725788593292, 0.051525894552469254, 0.08647003024816513, -0.090909443795681, -0.02144426852464676, 0.04621339961886406, -0.02477998100221157, 0.08679179847240448, -0.10936865955591202, 0.07656386494636536, 0.2359960973262787, -0.12857551872730255, -0.001294673653319478, 0.1204938068985939, 0.025867123156785965, -0.050086721777915955, -0.19810406863689423, 0.07618118822574615, 0.20322759449481964, 0.12545578181743622, 0.12121414393186569, 0.07750832289457321, 0.10591362416744232, -0.10102382302284241, 0.027638861909508705, -0.25064370036125183, -0.06920032948255539, -0.11480216681957245, -0.01425028033554554, 0.21585069596767426, 0.047014761716127396, 0.09564408659934998, 0.05326622724533081, -0.08708808571100235, -0.0873069018125534, -0.15872643887996674, 0.04222980886697769, -0.10718583315610886, -0.00581263517960906, -0.03497972711920738, 0.024066148325800896, 0.08536038547754288, 0.22077283263206482, 0.23247988522052765, -0.0645323172211647, 0.0018006324535235763, -0.11073575168848038, 0.15364979207515717, 0.055892836302518845, -0.1407795250415802, -0.13452854752540588, 0.19645023345947266, -0.05888694152235985, -0.051294099539518356, 0.2138478010892868, 0.07705031335353851, -0.1329575926065445, -0.12901973724365234, 0.20608487725257874, -0.2234983593225479, 0.001689734635874629, -0.1007908284664154, -0.12062789499759674, -0.09432170540094376, 0.029590923339128494, -0.2696768641471863, -0.10746151953935623, 0.006405865773558617, -0.11000930517911911, -0.02877265028655529, -0.036242611706256866, 0.09796937555074692, 0.13791252672672272, -0.030607495456933975, -0.15425868332386017, -0.13601231575012207, -0.00438122870400548, 0.027695367112755775, 0.11428257822990417, 0.09952196478843689, -0.10177215933799744, 0.08215288072824478, -0.2671377658843994, -0.005384525284171104, 0.1808394491672516, -0.3278889060020447, -0.26297876238822937, 0.10980311036109924, -0.016343535855412483, -0.21230924129486084, 0.05117933824658394, 0.1147250235080719, -0.03290886804461479, -0.11690632253885269, 0.357450008392334, 0.033439137041568756, 0.06939119100570679, -0.052191395312547684, 0.00034716754453256726, 0.11113086342811584, -0.07403485476970673, -0.03627637028694153, 0.013398895971477032, -0.0893784761428833, 0.20331501960754395, -0.24050457775592804, 0.015136025846004486, -0.15953627228736877, 0.0772840827703476, 0.15482249855995178, 0.14766399562358856, 0.06671919673681259, 0.10015636682510376, -0.10439842939376831, -0.15393242239952087, -0.18617765605449677, -0.04582110419869423, -0.1262633204460144, -0.08528498560190201, 0.06548269838094711, 0.08482969552278519, 0.23721933364868164, -0.12412349134683609, -0.014922624453902245, 0.08111133426427841, -0.11532340198755264, 0.2301546037197113, -0.08986536413431168, -0.05373639240860939, 0.08098973333835602, 0.24983912706375122, 0.10773588716983795, -0.19299918413162231, 0.24936193227767944, 0.020352769643068314, 0.0647735670208931, -0.05850502848625183, 0.26876163482666016, 0.2939251959323883, 0.17821091413497925, -0.0438479520380497, 0.0841570496559143, -0.3178209662437439, -0.03567463532090187, -0.12241286039352417, -0.06492645293474197, 0.09379827976226807, 0.11004741489887238, -0.04015323147177696, -0.07789738476276398, 0.02185485139489174, 0.157129168510437, 0.15507933497428894, -0.20195093750953674, 0.13703490793704987, 0.0402626171708107, 0.009435722604393959, -0.019836390390992165, -0.0094218198210001, 0.04682398959994316, 0.14095067977905273, -0.16544733941555023, -0.0355803444981575, -0.036728959530591965, -0.04166101664304733, 0.20076994597911835, 0.22293449938297272, -0.35907992720603943, 0.03365326300263405, 0.1316748410463333, 0.050040796399116516, -0.25136637687683105, -0.005577497184276581, 0.12857970595359802, -0.1046428382396698, -0.0409720242023468, -0.157476544380188, -0.1850019246339798, 0.019958287477493286, -0.0839792862534523, 0.010519908741116524, -0.2635175585746765, 0.014376259408891201, -0.015744568780064583, -0.0608496256172657, -0.2742227017879486, -0.27483871579170227, 0.2312442660331726, -0.0748024508357048, -0.04229907691478729, 0.04574788361787796, 0.07716178894042969, 0.006272728089243174, -0.07166002690792084, 0.20273378491401672, -0.13077545166015625, 0.013554584234952927, -0.08525010943412781, -0.017714358866214752, 0.12579423189163208, 0.10300250351428986, 0.012857988476753235, -0.01707993447780609, 0.1443065106868744, 0.04577362909913063, 0.027749912813305855, -0.11150415241718292, 0.012466806918382645, 0.09320951998233795, 0.0412725992500782, -0.0540371835231781, -0.06417080760002136, -0.10457209497690201, 0.07082634419202805, -0.010402711108326912, -0.11364957690238953, -0.00570285739377141, -0.23661364614963531, 0.01688504032790661, -0.22824278473854065, -0.019533153623342514, 0.23988530039787292, 0.17654871940612793, 0.08873389661312103, -0.10721205174922943, -0.16299572587013245, -0.03266698122024536, -0.38729602098464966, 0.02370307594537735, -0.2819947302341461, -0.04557719826698303, 0.3849211037158966, -0.11335792392492294, 0.32249540090560913, -0.11275283992290497, 0.20750977098941803, 0.01955028623342514, -0.3805127739906311, -0.23399248719215393, -0.07790733873844147, 0.025987431406974792, -0.004210321698337793, -0.044090572744607925, -0.05777192860841751, 0.003296241629868746, 0.08545903861522675, 0.11700595170259476, 0.12457413226366043, 0.046223558485507965, 0.06887577474117279, -0.10545457899570465, 0.007329921703785658, -0.21111848950386047, -0.08440090715885162, -0.07197929173707962, 0.06073063611984253, -0.2341223508119583, -0.12722642719745636, -0.08550593256950378, 0.0027456011157482862, -0.2080807387828827, 0.0897306352853775, -0.15178066492080688, 0.09908519685268402, 0.12148208171129227, -0.14858955144882202, -0.05129268392920494, 0.15406925976276398, 0.04815671592950821, 0.009527903981506824, 0.2772800922393799, 0.14954328536987305, 0.06893657147884369, 0.2092287540435791, -0.394046813249588, 0.09810920804738998, -0.08002208918333054, 0.179188534617424, -0.2163635790348053, 0.05078963562846184, -0.0853399857878685, 0.047885145992040634, -0.14373674988746643, 0.2648545205593109, -0.07152916491031647, 0.04518062248826027, -0.1779894381761551, -0.0306217260658741, -0.071383997797966, -0.08407167345285416, 0.008730576373636723, 0.17429842054843903, -0.14543750882148743, 0.23168952763080597, 0.06479436159133911, 0.04070182144641876, -0.09818456321954727, 0.3034898340702057, -0.21339987218379974, 0.03397244215011597, 0.02151825651526451, 0.2738599479198456, -0.07288767397403717, 0.06452196091413498, -0.007840911857783794, 0.1719161868095398, -0.12010670453310013, 0.10710205882787704, -0.1352684050798416, 0.08496657758951187, 0.03664330020546913, 0.17611132562160492, -0.025333529338240623, -0.06008867546916008, -0.07491664588451385, 0.2092919796705246, 0.03453996777534485, 0.06598152965307236, 0.05642874538898468, 0.12216542661190033, -0.05058283731341362, 0.1202395111322403, -0.10533098876476288, 0.12062607705593109, -0.026916395872831345, -0.11830087006092072, -0.08505040407180786, 0.007913753390312195, -0.01428828202188015, -0.1349857747554779, 0.1336543709039688, 0.1229810044169426, 0.07003992050886154, 0.11157964915037155, 0.05350719392299652, 0.024526026099920273, -0.05685451999306679, -0.24678999185562134, -0.1987123340368271, -0.026259617879986763, 0.1544104814529419, 0.0360494926571846, -0.1051754280924797, -0.04716623201966286, -0.1358528882265091, -0.03454549238085747, 0.11753752082586288, 0.12590251863002777, 0.07565607875585556, 0.10926017165184021, 0.051771875470876694, -0.00964704342186451, -0.07418961077928543, -0.08368390798568726, 0.0944480299949646, -0.007035217713564634, -0.24251917004585266, -0.0017494778148829937, -0.03433790057897568, 0.12450969219207764, -0.12499037384986877, 0.05736523121595383, 0.15495753288269043, -0.1314430832862854, -0.21892745792865753, -0.028184054419398308, 0.13439691066741943, -0.01277860812842846, -0.019162030890583992, 0.01716347225010395, 0.07370636612176895, 0.09728215634822845, 0.0006035076221451163, 0.09215426445007324, -0.01351996511220932, 0.03114345483481884, -0.01640116050839424, 0.0893811360001564, 0.011438104324042797, 0.10988550633192062, -0.14962077140808105, -0.17213524878025055, 0.07495030760765076, 0.03804269805550575, 0.06418319791555405, 0.13623104989528656, 0.1314828246831894, -0.015025844797492027, -0.04207750782370567, 0.17129157483577728, 0.010384063236415386, 0.08615513890981674, 0.18424765765666962, 0.09394440799951553, -0.13757918775081635, 0.031220678240060806, -0.0055760955438017845, 0.16059713065624237, -0.05379341170191765, -0.001806858810596168, -0.12348908931016922, 0.29485952854156494, -0.14067445695400238, 0.07901933789253235, -0.032690051943063736, 0.22405576705932617, 0.12390352785587311, 0.002721962984651327, 0.08918111026287079, 0.08037015050649643, -0.14586910605430603, 0.07403499633073807, -0.007789193652570248, 0.021538032218813896, -0.03566785156726837, -0.05748860165476799, 0.08868502825498581, 0.18024982511997223, -0.01674363948404789, -0.17705519497394562, -0.05322547256946564, -0.061730481684207916, 0.12775841355323792, 0.04716138541698456, 0.09574441611766815, -0.00954240933060646, -0.1731467843055725, -0.16421164572238922, -0.1559659242630005, 0.12352631986141205, 0.10350407660007477, -0.013221383094787598, 0.14447689056396484, -0.10490691661834717, -0.05132010951638222, 0.06696110218763351, -0.07150604575872421, -0.04149213060736656, 0.09504471719264984, 0.011806775815784931, 0.07923521846532822, 0.16811028122901917, -0.020304430276155472, 0.19304782152175903, -0.31472519040107727, 0.12557491660118103, -0.07189369201660156, -0.012210487388074398, -0.08253204077482224, -0.0749153345823288, -0.05640948563814163, 0.06814000010490417, -0.01227697916328907, -0.13769693672657013, 0.1319788247346878, -0.023930208757519722, 0.03586699441075325, 0.09863165020942688, -0.00872031133621931, -0.11321081966161728, 0.05003124102950096, -0.04745696485042572, 0.07678140699863434, 0.0829477608203888, 0.016496533527970314, -0.1108480766415596, -0.21388697624206543, 0.08270464837551117, -0.05096699297428131, -0.04431232064962387, -0.045000165700912476, 0.00930144265294075, -0.20095738768577576, 0.1865667849779129, 0.13531018793582916, 0.2508504092693329, 0.0550566203892231, -0.07175230979919434, -0.09536127001047134, 0.13796712458133698, -0.04547997936606407, 0.2631952166557312, -0.0110159358009696, -0.10675862431526184, -0.03282761573791504, 0.008809716440737247, -0.027935754507780075, -0.15636304020881653, 0.17436429858207703, -0.11827091127634048, -0.1389925330877304, 0.18296702206134796, 0.4645017385482788, -0.29819709062576294, -0.14515453577041626, 0.14500181376934052, -0.11685439199209213, -0.045516613870859146, 0.02529246173799038, -0.011762813664972782, -0.032991666346788406, 0.09802396595478058, -0.16367508471012115, -0.07355788350105286, -0.053587619215250015, -0.1358703374862671, -0.00712576974183321, 0.07414741069078445, -0.005634814500808716, 0.14841097593307495, -0.11889683455228806, 0.014354405924677849, 0.13586227595806122, -0.03755924105644226, 0.0824664831161499, 0.01770263910293579, -0.1265152245759964, -0.10060292482376099, 0.217826247215271, 0.11134178191423416, -0.04668601602315903, -0.26348379254341125, -0.19757701456546783, -0.032503288239240646, 0.02849920280277729, 0.18501488864421844, 0.055305033922195435, -0.10004692524671555, -0.029273618012666702, -0.04806864634156227, -0.027690086513757706, 0.22872665524482727, -0.09325850009918213, -0.08867009729146957, 0.03140835464000702, 0.06384041905403137, -0.04681248962879181, 0.1738755851984024, -0.07552829384803772, -0.09555333852767944, -0.13432589173316956, 0.16072547435760498, -0.009524120949208736, -0.23379921913146973, -0.2263774573802948, -0.17651259899139404, 0.08799949288368225, -0.011103449389338493, 0.040184807032346725, -0.0032431199215352535, -0.23957860469818115, -0.20740771293640137, -0.0052525014616549015, 0.18081431090831757, 0.1229173019528389, -0.04941077157855034, -0.0998518168926239, -0.01871265284717083, -0.04407493770122528, 0.09001901000738144, -0.0018067515920847654, -0.006739289965480566, 0.07433852553367615, -0.03663427382707596, 0.17682243883609772, 0.1222161129117012, -0.17514371871948242, -0.18188698589801788, -0.07379478961229324, 0.17562592029571533, -0.04422490671277046, 0.22366000711917877, -0.07225696742534637, -0.2379271686077118, -0.03749972581863403, -0.08633515983819962, 0.015657814219594002, -0.1825782209634781, -0.1042216420173645, -0.13300751149654388, -0.10868057608604431, 0.10014554113149643, 0.009116722270846367, -0.09284978359937668, 0.0296048354357481, -0.2379882037639618, -0.10933265835046768, -0.014852958731353283, 0.29102224111557007, 0.04068838059902191, 0.15630565583705902, -0.07794856280088425, -0.031200025230646133, -0.15903718769550323, 0.048450130969285965, 0.16291816532611847, 0.02421794831752777, -0.15957307815551758, 0.03305022791028023, 0.10015635937452316, -0.10058699548244476, 0.03573736548423767, 0.04898114502429962, 0.0037278744857758284, 0.15975528955459595, 0.040742699056863785, -0.011498718522489071, 0.011864671483635902, -0.02667936310172081, -0.13200895488262177, -0.07665415108203888, 0.0735844224691391, -0.04714513570070267, 0.06089328974485397, -0.006815682165324688, 0.005676706321537495, 0.09458384662866592, -0.12350823730230331, -0.08551404625177383, 0.11401195824146271, -0.08120864629745483, 0.13142088055610657, -0.05535367876291275, 1.469705421186518e-05, -0.16354741156101227, -0.1454963982105255, -0.13981378078460693, 0.022379180416464806, 0.08297799527645111, 0.2917684316635132, -0.11524631083011627, -0.009767821058630943, 0.002807013690471649, 0.12359383702278137, -0.024552693590521812, 0.024154162034392357, -0.12052659690380096, 0.1884506493806839, -0.2678983211517334, -0.12108868360519409, 0.3205467164516449, -0.01238714624196291, 0.18921031057834625, -0.08101823180913925, 0.1785980463027954, -0.1739974170923233, 0.6120343804359436, -0.20020602643489838, 0.009448961354792118, -0.06186893209815025, -0.05174970626831055, -0.08107219636440277, 0.13585469126701355, 0.1371084600687027, 0.006831911392509937, 0.049575429409742355, 0.2208031415939331, 0.13147985935211182, 0.033207546919584274, 0.26125386357307434, -0.07375882565975189, -0.10365206748247147, 0.0718792974948883, 0.12270873785018921, -0.11147092282772064, -0.03148831054568291, 0.09216272830963135, 0.05752396211028099, 0.07560400664806366, 0.09835563600063324, 0.12837956845760345, -0.19160105288028717, -0.25446534156799316, 0.5710711479187012, -0.07694760710000992, -0.19057050347328186, 0.08063854277133942, -0.2437663972377777, 0.09864602982997894, -0.09609958529472351, 0.07022951543331146, -0.046312619000673294, 0.4653979539871216, -0.10325061529874802, 0.28597408533096313, -0.7021251916885376, -0.042989473789930344, -0.18003180623054504, 0.12835583090782166, -0.1849612444639206, 0.08916358649730682, 0.011090599000453949, 0.04547236114740372, -0.15353353321552277, 0.2902522087097168, -0.020466219633817673, -0.053944069892168045, -0.11915554106235504, -0.09610072523355484, -0.02684502862393856, 0.07423235476016998, 0.037137728184461594, -0.07330267131328583, 0.012524726800620556, 0.01740538887679577, -0.15916180610656738, -0.005354365333914757, -0.16565737128257751, 0.014588010497391224, -0.1365075558423996, -0.1655537188053131, -0.058387480676174164, -0.18541766703128815, 0.12040819972753525, 0.2314831018447876, -0.05284792557358742, 0.030786333605647087, 0.024875247851014137, 0.023665238171815872, -0.021889468654990196, -0.20369292795658112, 0.45376870036125183, -0.16802403330802917, -0.06110205501317978, 0.07087938487529755, -0.057475633919239044, -0.06510259211063385, -0.2109208106994629, 0.03568623960018158, -0.26427650451660156, 0.1962282955646515, -0.2000981867313385, 0.5036410689353943, -0.5203574299812317, 0.11354557424783707, -0.0804249718785286, 0.16565287113189697, -0.1617128551006317, 0.04836137965321541, -0.1842755526304245, 0.16803866624832153, -0.017599809914827347, 0.3987116813659668, -0.20649558305740356, 0.033263690769672394, -0.002755188848823309, 0.0016707148170098662, 0.1254253089427948, -0.10979962348937988, 0.04858904704451561, -0.10321012884378433, 0.15983422100543976, 0.06347602605819702, -0.27123501896858215, 0.3705063462257385, -0.1818215250968933, -0.01712350733578205, -0.0023998478427529335, 0.12001040577888489, -0.06550819426774979, 0.20381470024585724, -0.11338258534669876, 0.13237453997135162, -0.2910521626472473, 0.062002044171094894, 0.022304469719529152, 0.17999257147312164, -0.06085352972149849, 0.02949448674917221, 0.2414410412311554, 0.030064426362514496, 0.006611591670662165, 0.2975752651691437, -0.105771504342556, 0.0807839184999466, -0.08995223045349121, -0.03251531347632408, -0.18424485623836517, 0.5035430192947388, -0.39865198731422424, 0.04747121408581734, -0.7708247303962708, 0.33098533749580383, -0.17515140771865845, 0.08070001751184464, -0.06456856429576874, 0.09613198786973953, -0.10467173159122467, 0.03199663758277893, -0.2538846731185913, 0.2994433045387268, 0.1308971792459488, -0.10472496598958969, -0.06703110039234161, 0.12459275871515274, 0.03864824026823044, 0.02732711285352707, -0.02180306240916252, -0.19191622734069824, -0.33411839604377747, -0.10404916852712631, -0.13801297545433044, -0.013265734538435936, 0.1470394879579544, 0.05924325808882713, -0.07709498703479767, -0.2935645878314972, -0.11454944312572479, 0.06830094009637833, 0.07622087001800537, -0.002334748860448599, -0.007189788389950991, -0.1996278166770935, -0.07889985293149948, -0.020889654755592346, 0.10137400031089783, -0.1020280048251152, 0.28261855244636536, 0.13894221186637878, -0.14173312485218048, -0.03462421894073486, -0.009197883307933807, -0.03692637383937836, -0.10530772060155869, 0.28576964139938354, -0.2393871396780014, 0.05058377981185913, 0.2357458919286728, 0.6014893651008606, -0.7863438129425049, -0.3149392008781433, 0.04308900609612465, -0.16760709881782532, 0.3576822876930237, 0.06252893805503845, 0.05525882542133331, -0.15357810258865356, 0.09216122329235077, -0.30857980251312256, 0.18513357639312744, -0.04964708164334297, -0.0013471882557496428, -0.11662980914115906, 0.10210050642490387, 0.10399050265550613, 0.1054246798157692, -0.03706716373562813, 0.015607842244207859, -0.02660890482366085, -0.0054063014686107635, 0.11639293283224106, -0.13658085465431213, 0.05184125527739525, -0.10235447436571121, 0.03866175562143326, 0.11133568733930588, -0.12319127470254898, 0.0010481384815648198, -0.1981530636548996, 0.016780337318778038, -0.008922753855586052, 0.1822187453508377, 0.10598232597112656, -0.0246253851801157, 0.041951585561037064, -0.14655719697475433, 0.29008644819259644, -0.014002189971506596, -0.04644791781902313, -0.14611512422561646, 0.10500016063451767, 0.10220594704151154, -0.00860433466732502, 0.1790931224822998, -0.007128470111638308, -0.05020669847726822, -0.17768973112106323, 0.27424171566963196, -0.14593183994293213, -0.0982222929596901, -0.0357050783932209, 0.008633249439299107, 0.01571444608271122, -0.33066603541374207, -0.14280128479003906, 0.029643436893820763, -0.001691814512014389, -0.14309655129909515, -0.133902445435524, 0.015591876581311226, 0.18137085437774658, -0.12258421629667282, 0.0766376405954361, 0.08425454050302505, -0.07983103394508362, 0.023504475131630898, -0.13976579904556274, -0.27577248215675354, 0.22337624430656433, -0.08237001299858093, 0.1269165724515915, -0.034559860825538635, -0.0672702044248581, -0.1199994832277298, 0.15139134228229523, 0.00904774945229292, 0.20661567151546478, -0.24410241842269897, 0.17469541728496552, -0.16357751190662384, 0.06979247182607651, -0.12051332741975784, 0.14153410494327545, 0.003799923462793231, 0.11810482293367386, -0.21119509637355804, 0.2546749711036682, -0.03142017498612404, -0.06897418200969696, 0.17063400149345398, -0.06711269915103912, -0.17756058275699615, -0.032448962330818176, -0.10837775468826294, 0.00403915299102664, 0.06486330181360245, 0.1551252007484436, 0.08200939744710922, -0.00026899378281086683, 0.08048451691865921, -0.04819571599364281, 0.03596106171607971, -0.06891058385372162, 0.09209180623292923, -0.1887906789779663, 0.1369674801826477, -0.10307515412569046, -0.07562755793333054, 0.11362390220165253, -0.09016936272382736, -0.11446041613817215, -0.1867707073688507, 0.029436208307743073, -0.18594896793365479, -0.22138312458992004, -0.056049641221761703, -0.17192615568637848, -0.11069341003894806, 0.06383125483989716, 0.042026396840810776, -0.09594140946865082, 0.05701553449034691, -0.18936286866664886, 0.18017764389514923, -0.0038456337060779333, 0.10309813171625137, -0.01415997464209795, -0.05035017803311348, -0.05869859829545021, 0.14533481001853943, 0.09257860481739044, -0.03745783120393753, -0.2039598971605301, -0.08702892810106277, -0.20222437381744385, 0.004828248638659716, -0.018141424283385277, -0.04899396002292633, 0.14622876048088074, 0.09702571481466293, -0.3106558322906494, 0.06400071084499359, -0.03708038106560707, 0.48206835985183716, -0.12690968811511993, -0.05028571933507919, -0.01737348362803459, -0.0012675040634348989, 0.004270510748028755, 0.057138167321681976, 0.13058359920978546, -0.11259885877370834, -0.031682685017585754, 0.015520617365837097, -0.07636146247386932, 0.10752443969249725, 0.17934276163578033, 0.058630336076021194, 0.142526313662529, 0.11651336401700974, 0.13329675793647766, -0.13236847519874573, -0.15271911025047302, 0.06789808720350266, -0.14787481725215912, 0.025793595239520073, -0.01504308357834816, 0.06741923838853836, 0.07472573965787888, 0.064010851085186, -0.057320039719343185, 0.008998780511319637, -0.0903652161359787, 0.17340593039989471, 0.049188464879989624, 0.032917317003011703, -0.14859995245933533, 0.06927712261676788, -0.2341444194316864, 0.15003500878810883, 0.22286377847194672, 0.0064719789661467075, 0.10846856981515884, 0.0026580807752907276, 0.034397389739751816, 0.09625667333602905, 0.007992172613739967, 0.20277245342731476, -0.028921153396368027, 0.026888001710176468, -0.01607283018529415, -0.11406659334897995, 0.155159592628479, 0.024699468165636063, 0.023087453097105026, 0.008240848779678345, -0.08559709787368774, 0.010414231568574905, 0.02749733068048954, -0.07125106453895569, -0.04648273438215256, 0.008022069931030273, 0.0060884407721459866, 0.05595278739929199, 0.01629633456468582, -0.07877952605485916, 0.008264057338237762, -0.012648758478462696, 0.025148019194602966, -0.5068386793136597, -0.6201069355010986, 0.6877342462539673, 0.327935129404068, -0.6254950165748596, 0.32414859533309937, -0.2454964518547058, -0.16477331519126892, 0.7982347011566162, -0.926909863948822, 1.4055430889129639, 0.40324193239212036, -0.06452172249555588, -0.3407805860042572, 0.11164725571870804, -0.7530940175056458, 0.15545214712619781, -0.16231277585029602, 0.05977347120642662, -0.34829431772232056, 0.1932918131351471, -0.04136143624782562, 0.3955247402191162, 0.04349280521273613, 0.037022918462753296, 0.16919973492622375, 0.19754835963249207, 0.2231130450963974, -0.17371951043605804, 0.019526539370417595, -0.02279473841190338, -0.11400546878576279, -0.019513189792633057, 0.00841690693050623, 0.029196608811616898, 0.07243441045284271, 0.09257881343364716, -0.15512126684188843, 0.03910303860902786, -0.07761290669441223, -0.2852775454521179, -0.04412758722901344, -0.03321404010057449, -0.07404281198978424, 0.015236537903547287, 0.3559126555919647, -0.006091585382819176, -0.1272987276315689, 0.07292338460683823, -0.05519131198525429, -0.011999726295471191, -0.09084770828485489, 0.017642991617321968, 0.06380938738584518, -0.11564332246780396, -0.09280909597873688, -0.20060834288597107, -0.14256495237350464, -0.44959864020347595, -0.10302120447158813, 0.31837478280067444, -0.14304119348526, -0.0712229385972023, 0.04388006031513214, 0.3983968198299408, 0.10445348918437958, 0.07923285663127899, 0.07934559881687164, -0.16079507768154144, 0.2544221580028534, -0.3358694016933441, 0.1806396096944809, 0.3154434859752655, -0.10859624296426773, 0.07466265559196472, 0.13909006118774414, 0.14295443892478943, -0.01651708036661148, 0.11284005641937256, -0.08797003328800201, -0.01356426253914833, -0.07087720185518265, 0.15115177631378174, -0.3504467010498047, 0.2150467336177826, -0.31789761781692505, 0.3320395052433014, 0.07309335470199585, 0.06561574339866638, 0.04220199957489967, -0.09619957953691483, 0.13661256432533264, -0.276782751083374, -0.05234469473361969, 0.1705651730298996, -0.09464883804321289, -0.2180950790643692, -0.04381294921040535, -0.08276447653770447, -0.1484299600124359, -0.06267213076353073, -0.16335728764533997, 0.28296443819999695, 0.03930371254682541, -0.08747643977403641, -0.09704452008008957, 0.037180472165346146, 0.17493098974227905, -0.012879119254648685, 0.11746474355459213, 0.12806594371795654, 0.06598862260580063, 0.06633255630731583, -0.029871666803956032, -0.0459042526781559, 0.08151478320360184, 0.1969144195318222, -0.05396734178066254, 0.017787057906389236, 0.0777699276804924, -0.2450016289949417, 0.1964421421289444, 0.03243586793541908, -0.16202867031097412, 0.18878796696662903, 0.03802048787474632, 0.08740976452827454, 0.07413642108440399, 0.12772142887115479, 0.19247838854789734, -0.10818730294704437, -0.04209132865071297, 0.18320181965827942, -0.14769405126571655, 0.014473739080131054, -0.012085843831300735, 0.002289163414388895, 0.09628095477819443, -0.20489400625228882, 0.17788591980934143, -0.012484407052397728, -0.008673167787492275, 0.07670220732688904, 0.04541792348027229, -0.07085780054330826, 0.17494411766529083, -0.07703180611133575, 0.14448876678943634, 0.16730181872844696, 0.004426390863955021, -0.20544767379760742, -0.008916034363210201, -0.08464537560939789, 0.13673077523708344, -0.04104505851864815, 0.2528458833694458, -0.19641217589378357, -0.007053030654788017, 0.014948324300348759, 0.029731975868344307, 0.041587959975004196, -0.1264568418264389, -0.05978414788842201, 0.30490338802337646, -0.04309181496500969, 0.3378255367279053, -0.2718855142593384, -0.11659902334213257, -0.010455837473273277, -0.10653994977474213, 0.10181041061878204, -0.2921707332134247, -0.03277125209569931, -0.06623876839876175, 0.07576856762170792, -0.08760914951562881, 0.32518675923347473, -0.07655681669712067, -0.061915431171655655, -0.19126419723033905, 0.1657106578350067, -0.16127362847328186, 0.09507765620946884, -0.0015217862091958523, 0.20657683908939362, 0.07687774300575256, -0.20884308218955994, 0.05647514760494232, 0.09885673224925995, -0.21897009015083313, 0.08748752623796463, 0.1663924902677536, 0.05505029857158661, 0.1402907818555832, -0.07952949404716492, 0.13682782649993896, -0.08006953448057175, 0.2201288640499115, 0.1884126514196396, 0.07705715298652649, -0.2431793361902237, -0.1935705691576004, -0.4254467189311981, 0.1254633218050003, -0.22119054198265076, -0.19725772738456726, 0.016679156571626663, 0.04482425004243851, -0.17552979290485382, -0.13634328544139862, 0.0025943268556147814, 0.07310063391923904, 0.12604285776615143, 0.19689486920833588, -0.24509680271148682, -0.07635114341974258, 0.2748180329799652, -0.0802982896566391, -0.1815410554409027, 0.007062921766191721, 0.10263658314943314, -0.09550151973962784, 0.0557328499853611, -0.09394089132547379, -0.15441474318504333, 0.08565446734428406, -0.15594357252120972, -0.09201601147651672, -0.02511117421090603, -0.193078875541687, 0.19076283276081085, -0.10574904829263687, 0.010636280290782452, 0.11124511808156967, 0.29151853919029236, -0.15879647433757782, 0.0188895296305418, 0.18014644086360931, -0.1158689633011818, -0.10837925225496292, -0.1220538467168808, 0.005802373867481947, 0.006152900401502848, -0.156453937292099, -0.061608489602804184, -0.1194755882024765, 0.22282780706882477, -0.12098588794469833, 0.07007839530706406, 0.2454398274421692, 0.12891225516796112, 0.20780925452709198, -0.1064193919301033, 0.18258598446846008, 0.09974105656147003, -0.19202764332294464, -0.07790306210517883, -0.024835631251335144, -0.02994595095515251, -0.18366138637065887, -0.0410773828625679, -0.12410810589790344, -0.06578875333070755, -0.037711042910814285, 0.15086215734481812, 0.24525028467178345, 0.4728151857852936, 0.40364426374435425, -0.16539369523525238, -0.11652567982673645, -0.13341960310935974, 0.012566809542477131, 0.037753984332084656, 0.04568551480770111, 0.051822345703840256, 0.0692186951637268, -0.036429837346076965, 0.06631869822740555, 0.04468781501054764, -0.05262643098831177, -0.1608516424894333, -0.057214174419641495, 0.03858926519751549, 0.06626729667186737, -0.000934576615691185, 0.08019274473190308, 0.05835165083408356, -0.025387002155184746, 0.19062846899032593, -0.35784077644348145, 0.10758625715970993, 0.011997279711067677, 0.010468980297446251, 0.1902524083852768, 0.0928608700633049, -0.236069917678833, 0.24361218512058258, -0.14423102140426636, 0.21357516944408417, 0.1364574134349823, 0.1951882690191269, -0.4691658914089203, 0.016277270391583443, 0.24369007349014282, -0.2193955034017563, 0.19673123955726624, 0.1352102905511856, -0.182826966047287, -0.009405829943716526, -0.10027342289686203, 0.035762444138526917, -0.03510734438896179, 0.022927166894078255, -0.24950137734413147, 0.076326385140419, -0.08553587645292282, 0.3560678958892822, -0.1929844617843628, -0.027591805905103683, -0.4042338728904724, 0.29230549931526184, -0.0835009217262268, -0.20230358839035034, -0.056510742753744125, -0.18496745824813843, -0.002149426145479083, -0.1024184599518776, 0.09409203380346298, -0.23486755788326263, -0.07114597409963608, -0.0007351751555688679, -0.5613983869552612, -0.09482582658529282, 0.2246653288602829, 0.07559145241975784, -0.032823480665683746, -0.07450211048126221, 0.19634926319122314, 0.12475066632032394, 0.09394935518503189, -0.0017674529226496816, -0.03195365145802498, 0.1628628820180893, -0.13643459975719452, -0.028313448652625084, -0.030687185004353523, 0.05306246131658554, -0.005898869596421719, -0.03150985762476921, 0.06796292215585709, 0.3158847987651825, 0.006718417629599571, -0.07523473352193832, 0.15391454100608826, -0.10315645486116409, 0.12132653594017029, -0.050831057131290436, -0.14958637952804565, -0.2052219957113266, 0.061986733227968216, 0.12169749289751053, 0.22733913362026215, -0.1659691482782364, 0.013029576279222965, 0.03965625539422035, 0.11256178468465805, 0.037310048937797546, 0.25494492053985596, -0.0482039637863636, 0.21544933319091797, -0.14936725795269012, -0.22780261933803558, 0.020997339859604836, -0.06539735943078995, -0.042105548083782196, -0.1975603997707367, 0.27848172187805176, -0.20808592438697815, 0.1021093800663948, 0.27055367827415466, 0.05681227520108223, -0.2635350227355957, 0.14372462034225464, 0.02763212099671364, -0.022769087925553322, -0.12387636303901672, -0.09341568499803543, 0.11587351560592651, -0.10687020421028137, -0.09838416427373886, -0.18700793385505676, -0.007425502873957157, 0.14534910023212433, -0.12844400107860565, 0.15101249516010284, 0.0527174137532711, 0.16388826072216034, -0.06575483828783035, -0.1074950322508812, -0.03549777343869209, -0.13068343698978424, -0.19845350086688995, 0.13711053133010864, 0.10557279735803604, -0.07388458400964737, 0.15351222455501556, 0.2690590023994446, 0.030821193009614944, -0.18061432242393494, -0.12271314114332199, 0.12339688837528229, -0.01664651371538639, 0.012543397955596447, 0.08564522862434387, -0.04515925422310829, -0.05962956324219704, -0.015590428374707699, -0.1409101039171219, 0.026215532794594765, 0.06577721238136292, -0.09931300580501556, 0.05277637764811516, -0.04712967574596405, 0.03200249373912811, -0.10022790729999542, -0.04616701975464821, 0.15263058245182037, -0.17977389693260193, -0.04961519315838814, 0.07144831120967865, 0.13867908716201782, -0.1089867353439331, 0.027484755963087082, 0.19633103907108307, 0.18368397653102875, -0.071519635617733, 0.028937000781297684, 0.1685650646686554, 0.2571980357170105, 0.15868902206420898, 0.021818123757839203, 0.12073809653520584, 0.04663200303912163, -0.1140754446387291, 0.09461870044469833, 0.11647448688745499, 0.047014232724905014, -0.07143497467041016, -0.2090080976486206, 0.2130921334028244, 0.13600097596645355, -0.044569868594408035, 0.08401062339544296, -0.1535484790802002, -0.1210661232471466, 0.1396869570016861, 0.25287461280822754, -0.0478941947221756, -0.16843746602535248, -0.21760578453540802, -0.038998786360025406, -0.06888914108276367, 0.24370984733104706, 0.2489582896232605, 0.02003297582268715, 0.26630911231040955, 0.19864048063755035, -0.0703679695725441, 0.03722541406750679, 0.06374489516019821, -0.1540156602859497, 0.09619983285665512, 0.05731693655252457, -0.12466563284397125, -0.0947180688381195, 0.057694125920534134, -0.022308070212602615, -0.23928312957286835, -0.09936254471540451, -0.01649361103773117, -0.16887541115283966, 0.28776395320892334, -0.1879349946975708, 0.09739869087934494, 0.04307860508561134, 0.03448309749364853, -0.009861045517027378, 0.44969210028648376, -0.06826276332139969, 0.20693086087703705, -0.1272648721933365, 0.03802461177110672, -0.03411157429218292, 0.16111984848976135, -0.2019319087266922, -0.22642429172992706, 0.28832587599754333, 0.020016051828861237, -0.0188654363155365, 0.10382785648107529, 0.012621051631867886, 0.04557983577251434, 0.11950816214084625, 0.10587678849697113, -0.10745983570814133, 0.15923574566841125, -0.37407979369163513, -0.06029763072729111, -0.4041347801685333, 0.2864522337913513, 0.03302688151597977, 0.39465704560279846, -0.2777665853500366, 0.08428270369768143, 0.11367657780647278, 0.033405158668756485, -0.07551230490207672, 0.04297740012407303, 0.019903933629393578, -0.21252283453941345, 0.015822244808077812, -0.12584136426448822, -0.25886163115501404, 0.23795756697654724, -0.014474783092737198, 0.010748150758445263, -0.1381564438343048, -0.17183959484100342, -0.1354743093252182, 0.08952726423740387, 0.005623473785817623, -0.25887787342071533, 0.059485454112291336, -0.12218645215034485, 0.040767256170511246, 0.25821006298065186, 0.10369639098644257, 0.005599287338554859, -0.04718147963285446, -0.2101668119430542, 0.09702908992767334, 0.05712210014462471, 0.06817655265331268, -0.20144018530845642, -0.04392882063984871, 0.050137970596551895, -0.004956747870892286, 0.12874063849449158, -0.0061695752665400505, -0.241799458861351, -0.16614270210266113, -0.002575935795903206, 0.009233953431248665, 0.20650847256183624, -0.162228062748909, -0.044554512947797775, -0.10996834188699722, -0.05763601139187813, 0.033514831215143204, 0.10819557309150696, -0.1290285289287567, 0.15363693237304688, 0.022297542542219162, 0.09993555396795273, 0.0762978345155716, -0.015577608719468117, -0.1547229140996933, 0.025001274421811104, 0.0964222252368927, -0.11136357486248016, -0.09324347972869873, 0.20618674159049988, 0.0061463965103030205, -0.1057555079460144, 0.07166585326194763, 0.09304006397724152, 0.1093713641166687, 0.025427227839827538, -0.26330986618995667, -0.06985954940319061, 0.11625441908836365, -0.1810658872127533, -0.17598506808280945, 0.15582172572612762, -0.006599316373467445, -0.07692272961139679, -0.048786651343107224, -0.02766840159893036, -0.10627642273902893, 0.025759257376194, -0.1338440477848053, -0.15946638584136963, -0.08972705900669098, -0.14647063612937927, -0.17060327529907227, -0.09038427472114563, -0.02204902283847332, 0.16030585765838623, 0.042464520782232285, -0.11285898089408875, -0.0746765062212944, 0.02546784281730652, -0.0003697836655192077, 0.020190564915537834, 0.06592036783695221, 0.09842266887426376, 0.13051782548427582, -0.06145881861448288, 0.04375620186328888, -0.19017325341701508, 0.24215103685855865, -0.013480699621140957, 0.17187994718551636, -0.08677191287279129, 0.14535439014434814, -0.07138463854789734, -0.04699820280075073, -0.029765596613287926, -0.10804008692502975, 0.060188475996255875, 0.027952129021286964, 0.308742493391037, -0.36525759100914, -0.20495612919330597, -0.14535734057426453, -0.022252706810832024, 0.09335476905107498, 0.0890938937664032, 0.014114385470747948, 0.21584007143974304, -0.1492333710193634, 0.0071694809012115, 0.11563341319561005, 0.028665123507380486, -0.0805853083729744, -0.09053678065538406, -0.16480359435081482, 0.23712417483329773, 0.19774995744228363, -0.16362793743610382, -0.03270921856164932, 0.04600081220269203, 0.008251206949353218, -0.1926247924566269, 0.018317697569727898, -0.4035798907279968, -0.08227317035198212, 0.008585561998188496, 0.32894617319107056, 0.12778101861476898, -0.06853365153074265, -0.014658999629318714, -0.1450771689414978, -0.023246871307492256, 0.010394368320703506, 0.07543817907571793, -0.1957680583000183, -0.020646069198846817, 0.023250721395015717, -0.0159006230533123, 0.10206445306539536, -0.0746905505657196, 0.008934063836932182, 0.15181905031204224, -0.11915921419858932, -0.09021861851215363, -0.050683457404375076, -0.02639329433441162, -0.009093070402741432, -0.02374356798827648, -0.22982743382453918, 0.08871740847826004, -0.17359739542007446, 0.21303017437458038, 0.10573557019233704, 0.19453425705432892, 0.1069050282239914, 0.13690322637557983, 0.15537765622138977, -0.22909899055957794, 0.07871345430612564, -0.12439189851284027, -0.0005195190315134823, 0.08003512024879456, -0.1800926774740219, 0.07912508398294449, 0.013170579448342323, -0.03754536062479019, 0.15791988372802734, -0.21621015667915344, -0.05299457535147667, 0.03713477402925491, 0.004469429608434439, 0.15577636659145355, 0.055140186101198196, -0.18140678107738495, -0.2610928416252136, -0.12935148179531097, 0.022767789661884308, 0.2688840925693512, 0.13363780081272125, -0.04714507982134819, -0.1434997320175171, -0.16724611818790436, 0.03611835837364197, 0.40076377987861633, -0.13996818661689758, 0.0711340680718422, 0.11620113253593445, -0.018252190202474594, -0.08262947201728821, -0.37917616963386536, 0.12599040567874908, 0.04303307458758354, -0.09867588430643082, 0.10050370544195175, 0.03897954523563385, -0.2672611474990845, 0.23009425401687622, 0.05740668624639511, 0.08552236109972, 0.05455277860164642, -0.07828858494758606, 0.08514288067817688, -0.14800947904586792, 0.053297851234674454, 0.05028066784143448, -0.0005242240149527788, 0.13233540952205658, -0.041120920330286026, -0.07271943986415863, 0.08941055834293365, 0.15460211038589478, -0.003928488586097956, -0.06323080509901047, 0.10636619478464127, 0.014687429182231426, -0.19927284121513367, -0.00537532102316618, -0.060875922441482544, 0.1789371520280838, 0.2743467688560486, 0.31875771284103394, -0.006222376134246588, -0.1740906685590744, -0.1802120804786682, 0.07973319292068481, -0.20171934366226196, 0.1128624677658081, -0.031240113079547882, -0.18149498105049133, -0.04619058966636658, 0.06709130853414536, -0.14176788926124573, -0.05341688171029091, -0.0003367809986229986, 0.018221020698547363, -0.047756265848875046, -0.019225578755140305, -0.09752178937196732, -0.06540460139513016, -0.007378561422228813, 0.16838233172893524, 0.006736298091709614, -0.1021951213479042, 0.2826201021671295, -0.0683835968375206, -0.04496626555919647, 0.03815850242972374, -0.09118680655956268, 0.26996123790740967, 0.08966350555419922, 0.023816488683223724, 0.11164117604494095, -0.1524285227060318, 0.07652176916599274, 0.23749148845672607, 0.21107803285121918, -0.09435755014419556, -0.25832679867744446, -0.16607823967933655, -0.09319591522216797, 0.11532973498106003, 0.00971943885087967, 0.04887312650680542, 0.16182231903076172, 0.07711789011955261, 0.09716298431158066, -0.08766163885593414, -0.2618769407272339, -0.1623610407114029, 0.09247341752052307, 0.21849924325942993, 0.2005055695772171, 0.03305477648973465, -0.03210929036140442, -0.0011603354942053556, -0.08471188694238663, 0.15083596110343933, 0.20011809468269348, -0.03423808887600899, -0.00831319484859705, 0.08696749061346054, -0.22862179577350616, 0.10247240960597992, -0.08879928290843964, 0.12234961986541748, 0.07925841212272644, 0.020373594015836716, 0.03721413016319275, -0.025225933641195297, 0.11433960497379303, 0.07641764730215073, -0.004980503581464291, -0.1161700114607811, -0.033559951931238174, -0.014596857130527496, 0.09648339450359344, -0.16162148118019104, 0.019158536568284035, -0.10480523109436035, -0.06789392232894897, -0.05777307227253914, 0.05189567804336548, 0.19355548918247223, -0.14838291704654694, -0.06056680530309677, 0.11847668141126633, -0.09423425048589706, -0.06964111328125, -0.041336093097925186, 0.046865422278642654, -0.10463463515043259, -0.306022971868515, -0.017370326444506645, 0.004887650720775127, -0.08315937966108322, 0.21929261088371277, 0.2693324387073517, 0.056306470185518265, -0.19964592158794403, -0.18132959306240082, 0.05938674882054329, -0.08558309078216553, 0.13029508292675018, 0.14615708589553833, 0.07330270111560822, -0.17967849969863892, 0.1442314088344574, 0.11407189071178436, 0.08861365169286728, 0.1259123980998993, 0.030469169840216637, 0.14068756997585297, -0.07841669023036957, 0.12707668542861938, -0.20980136096477509, 0.09185067564249039, -0.15034843981266022, -0.19097104668617249, -0.11824211478233337, 0.21172334253787994, -0.04417018964886665, -0.018607426434755325, 0.06981343030929565, 0.23985500633716583, -0.10892709344625473, -0.07811131328344345, -0.02122632972896099, -0.05824650824069977, 0.1620514988899231, 0.02982236072421074, -0.26223626732826233, -0.050101011991500854, -0.009582482278347015, -0.1941344439983368, 0.0044487412087619305, 0.22105373442173004, -0.1731627732515335, 0.042277831584215164, 0.08846470713615417, -0.14373143017292023, -0.07072168588638306, 0.15156464278697968, -0.16763293743133545, -0.17125026881694794, -0.12140949070453644, 0.22525686025619507, 0.047010790556669235, 0.2891697287559509, -0.3174917697906494, -0.19332844018936157, -0.10189058631658554, 0.1533554047346115, 0.07513663917779922, 0.22727994620800018, -0.2784265875816345, 0.0194246806204319, 0.03046225942671299, 0.1438835710287094, 0.09987436234951019, 0.001320081646554172, -0.03714120760560036, 0.16062802076339722, 0.19122572243213654, -0.061019740998744965, 0.02746911160647869, 0.21313364803791046, -0.1306467354297638, 0.02821502275764942, 0.11291678994894028, 0.0918230190873146, 0.0383853018283844, 0.005988997872918844, 0.1889198124408722, -0.039176151156425476, -0.1469230353832245, -0.14215479791164398, 0.06806941330432892, -0.13466569781303406, -0.1335744559764862, 0.002470084000378847, 0.13910825550556183, -0.1512419432401657, 0.16867820918560028, -0.05521782115101814, 0.23278234899044037, 0.052017658948898315, -0.04329651594161987, 0.0791858658194542, -0.019686825573444366, 0.0343904122710228, 0.009227135218679905, -0.07411999255418777, -0.07076053321361542, 0.11071232706308365, -0.09833832830190659, 0.07649429887533188, -0.09825141727924347, -0.03136322274804115, -0.17129458487033844, 0.14336812496185303, 0.014216046780347824, -0.07792142778635025, -0.06748475134372711, 0.15930849313735962, -0.29834452271461487, -0.02056478150188923, -0.06743048131465912, -0.13964861631393433, -0.34930193424224854, 0.043008748441934586, 0.36831238865852356, 0.08452948927879333, 0.09855909645557404, 0.05249888077378273, 0.22545690834522247, -0.4341111481189728, 0.6367725133895874, 0.19225135445594788, 0.05013151839375496, -0.000930416164919734, 0.13142900168895721, -0.06479077786207199, 0.15896818041801453, -0.08167612552642822, 0.1523410677909851, -0.07903477549552917, -0.10531695187091827, -0.12736278772354126, 0.027370426803827286, 0.024555910378694534, 0.03453495353460312, -0.09838324040174484, -0.036433491855859756, 0.15418803691864014, -0.06285078823566437, 0.20085355639457703, 0.16204042732715607, -0.1092946007847786, 0.09628277271986008, -0.12376387417316437, -0.3296465575695038, 0.12773245573043823, 0.07774121314287186, 0.25590652227401733, 0.0096843671053648, -0.22414684295654297, 0.03076765313744545, 0.06494572758674622, 0.17862695455551147, -0.0183208417147398, -0.08147674798965454, 0.17370422184467316, -0.3084843158721924, -0.2643674612045288, -0.1874629557132721, -0.11790979653596878, -0.13058185577392578, -0.12205631285905838, 0.3976122736930847, -0.08174759149551392, 0.07194076478481293, 0.09348887205123901, -0.15669503808021545, -0.2861483693122864, 0.15549077093601227, 0.20003017783164978, -0.16150839626789093, 0.3178365230560303, 0.13254019618034363, -0.06139729171991348, 0.07311119884252548, 0.09263826161623001, -0.1738443374633789, -0.0196516253054142, -0.11925507336854935, 0.11367381364107132, -0.020340654999017715, 0.15929533541202545, -0.13779012858867645, 0.27707257866859436, 0.005784277338534594, -0.14023646712303162, 0.09869357198476791, -0.1392730325460434, 0.049536723643541336, 0.08917036652565002, -0.08172228932380676, -0.04103397578001022, 0.3181740343570709, -0.10119330137968063, -0.03861616924405098, -0.1673143059015274, -0.024588676169514656, 0.02833005040884018, -0.15465831756591797, 0.21564021706581116, -0.26839810609817505, 0.1518343985080719, -0.1184346079826355, 0.07257701456546783, 0.04418465495109558, 0.15148597955703735, -0.10765700042247772, -0.04716220125555992, 0.05966241657733917, -0.2104201316833496, -0.02847953699529171, 0.04871398210525513, -0.09788913279771805, 0.1769437938928604, 0.11043645441532135, 0.00731778796762228, 0.044930994510650635, 0.017304211854934692, 0.056411854922771454, -0.04215361550450325, 0.11535493284463882, 0.02741990238428116, 0.12069091200828552, 0.04992309585213661, 0.018729135394096375, -0.20413212478160858, 0.051866862922906876, 0.22331541776657104, 0.12475776672363281, -0.09175797551870346, 0.08673161268234253, -0.005618475377559662, -0.051058512181043625, 0.05307998135685921, 0.45867446064949036, 0.4873946011066437, 0.34188586473464966, -0.7732967734336853, -0.21366681158542633, 0.33328092098236084, 0.14992743730545044, 0.08085017651319504, 0.16775158047676086, 0.07088883221149445, -0.7876021862030029, 0.12445301562547684, 0.23941296339035034, -0.46832454204559326, 0.2902272045612335, -0.4098426103591919, -0.13965453207492828, -0.2801054120063782, 0.2715105712413788, -0.14031462371349335, -0.006354824639856815, 0.16126121580600739, -0.11788003146648407, -0.19294673204421997, -0.3897217810153961, 0.1008438766002655, -0.09638462960720062, 0.12445513904094696, 0.03972960263490677, -0.11116465926170349, 0.13586610555648804, -0.1599602848291397, -0.18854443728923798, -0.16900554299354553, 0.14725731313228607, -0.18749579787254333, 0.03546782582998276, -0.01152076292783022, 0.19770319759845734, -0.19712065160274506, -0.24135535955429077, -0.03339783102273941, -0.30831989645957947, 0.10124417394399643, -0.009958204813301563, 0.02286411076784134, 0.33478012681007385, -0.09812512248754501, -0.27678191661834717, 0.16054390370845795, -0.07721186429262161, -0.02824997529387474, 0.09633734822273254, -0.18730561435222626, -0.1531715840101242, 0.2793727219104767, 0.20499677956104279, -0.26415613293647766, -0.06738859415054321, -0.23495839536190033, -0.09681861102581024, 0.06308610737323761, -0.10740657150745392, 0.3030671775341034, -0.1490190178155899, -0.037286028265953064, -0.2067166417837143, 0.32012665271759033, 0.16992036998271942, 0.3048810362815857, 0.17387303709983826, 0.29506009817123413, -0.2676352262496948, -0.22712212800979614, 0.23219433426856995, -0.29949691891670227, 0.3116302192211151, 0.002347493777051568, 0.02625049650669098, -0.3175352215766907, 0.2875336706638336, -0.10519054532051086, -0.17180095613002777, 0.11106908321380615, 0.018498238176107407, -0.04109194874763489, -6.958103040233254e-05, -0.27569758892059326, 0.16686630249023438, 0.17256766557693481, 0.15421688556671143, 0.17816589772701263, -0.2654437720775604, -0.15830808877944946, -0.08251255750656128, -0.26767200231552124, -0.28201526403427124, 0.1418728530406952, 0.06615912914276123, 0.11110518872737885, -0.02146597020328045, 0.12692242860794067, -0.041421640664339066, -0.08717392385005951, 0.11030391603708267, 0.13618876039981842, -0.20720218122005463, 0.2679351270198822, -0.011954925023019314, 0.014649135060608387, -0.36795052886009216, 0.18979088962078094, -0.222585529088974, -0.10259462893009186, -0.061415184289216995, -0.017389994114637375, 0.015034573152661324, -0.13367541134357452, 0.2398030310869217, 0.17197392880916595, -0.20114637911319733, -0.03474166989326477, -0.011353937909007072, 0.0385652631521225, -0.023562446236610413, -0.09994376450777054, 0.04662409797310829, -0.049172915518283844, -0.2674318552017212, 0.21100610494613647, -0.09522026777267456, 0.16245393455028534, 0.3387039303779602, -0.12422122806310654, -0.06730123609304428, 0.07897243648767471, 0.03461773693561554, 0.12746591866016388, -0.09830144047737122, 0.1488831490278244, 0.05867939442396164, 0.12655122578144073, 0.10740821063518524, 0.008726180531084538, 0.007807907648384571, 0.07074319571256638, -0.05291280895471573, -0.04454468935728073, -0.08807364106178284, -0.0004572480684146285, -0.18786171078681946, -0.05124293640255928, -0.13045640289783478, -0.10135822743177414, 0.07576312869787216, -0.17628036439418793, 0.07767359912395477, 0.024419274181127548, 0.0808626115322113, -0.08847181499004364, 0.06558375805616379, 0.3262493312358856, 0.0006861043511889875, 0.2595641613006592, -0.22981519997119904, 0.1776602566242218, -0.29238155484199524, 0.27546069025993347, -0.3978899419307709, -0.21037162840366364, 0.12360729277133942, -0.2276311218738556, 0.3307524621486664, -0.11545751243829727, 0.31820762157440186, -0.17811942100524902, -0.17689752578735352, 0.2432740181684494, -0.19710013270378113, -0.20986388623714447, -0.28628307580947876, -0.011702893301844597, 0.01454999204725027, -0.10080386698246002, 0.23790349066257477, -0.10961469262838364, -0.11194372922182083, -0.06125592067837715, -0.22977519035339355, 0.1326863318681717, 0.2133781760931015, -0.11218645423650742, 0.24883350729942322, -0.048664603382349014, -0.12563499808311462, 0.04706823080778122, -0.2468121349811554, -0.13443231582641602, 0.03427891805768013, 0.10577277094125748, -0.343815416097641, 0.08353158086538315, 0.3912688195705414, 0.14574483036994934, -0.38051503896713257, 0.04076143354177475, -0.22276057302951813, -0.24972033500671387, 0.3801989257335663, 0.27366408705711365, 0.2519526481628418, 0.2775115668773651, -0.49730369448661804, 0.07860775291919708, -0.11652905493974686, -0.04463113099336624, 0.22647616267204285, 0.1924695074558258, -0.19376841187477112, -0.22026607394218445, -0.28148743510246277, 0.3025287091732025, 0.23552517592906952, -0.3471778333187103, 0.025060433894395828, -0.08086148649454117, -0.05261048674583435, 0.23006227612495422, 0.03310505300760269, 0.06998841464519501, -0.03325335308909416, 0.09323886781930923, 0.0211167074739933, 0.22175326943397522, 0.29768112301826477, -0.14124204218387604, -0.4068947434425354, -0.419943243265152, -0.24127785861492157, 0.13626348972320557, 0.395326167345047, -0.09932877123355865, 0.020277976989746094, 0.10826140642166138, -0.3265841007232666, -0.2143084853887558, 0.04384223744273186, 0.0815645307302475, -0.1305779069662094, 0.011028051376342773, -0.14347901940345764, -0.006480625830590725, -0.12090810388326645, 0.043766871094703674, 0.06264191120862961, -0.0005111244972795248, -0.1569124311208725, 0.13120532035827637, -0.17652183771133423, -0.2658686637878418, -0.21239721775054932, -0.34205490350723267, 0.25062158703804016, -0.08548447489738464, -0.2500627934932709, 0.11450590938329697, -0.24703873693943024, -0.012781531549990177, 0.18280532956123352, -0.21276521682739258, 0.14160829782485962, 0.05559471249580383, -0.13271480798721313, 0.02714543044567108, 0.09051845222711563, -0.019421199336647987, 0.008281981572508812, -0.13662202656269073, 0.08053124696016312, 0.003459281986579299, 0.010154451243579388, 0.12036459892988205, 0.1451660543680191, 0.07272516191005707, 0.10480570048093796, -0.07274666428565979, -0.03599025309085846, 0.016172083094716072, -0.34413379430770874, -0.21352344751358032, 0.014706726185977459, -0.2013656347990036, 0.07349174469709396, -0.17162662744522095, 0.19589325785636902, 0.02209591306746006, -0.12371993064880371, 0.16134978830814362, 0.07959886640310287, 0.030849117785692215, -0.21217210590839386, -0.0638761967420578, -0.09540805965662003, -0.18792025744915009, 0.011653069406747818, 0.04987563565373421, 0.08613129705190659, 0.02477501891553402, 0.11189350485801697, 0.17531360685825348, 0.15642787516117096, -0.01721453294157982, 0.043562255799770355, -0.16463489830493927, 0.16716399788856506, 0.35212981700897217, -0.009070099331438541, -0.012221194803714752, 0.13676555454730988, 0.01410186942666769, -0.057103972882032394, 0.3002013862133026, -0.138161763548851, -0.17579051852226257, 0.21386435627937317, 0.13423624634742737, 0.029600411653518677, -0.046823568642139435, 0.029985889792442322, 0.1961590200662613, 0.03252101317048073, -0.34112319350242615, 0.19100844860076904, -0.21099993586540222, 0.21903711557388306, 0.0895582064986229, 0.13298271596431732, -0.0037814455572515726, 0.05144248902797699, 0.06964149326086044, -0.04085761681199074, 0.1199268102645874, -0.12261617183685303, 0.011207479983568192, 0.15581467747688293, -0.2409965842962265, 0.13338637351989746, 0.04762909933924675, 0.17053133249282837, -0.01703738607466221, -0.10426456481218338, 0.21869179606437683, -0.07894876599311829, 0.032616883516311646, -0.13492292165756226, 0.02314247377216816, 0.01766519621014595, -0.10227423161268234, -0.1569727659225464, -0.09336944669485092, -0.14273761212825775, 0.2531448304653168, 0.08228405565023422, -0.13818742334842682, 0.00039717837353236973, 0.06188412755727768, 0.08597851544618607, 0.042974554002285004, 0.05805865675210953, -0.1435776948928833, -0.0372694730758667, -0.20248684287071228, -0.007879317738115788, -0.10677675157785416, -0.034694649279117584, -0.11704585701227188, -0.08972270041704178, -0.13537290692329407, 0.27269962430000305, 0.14169959723949432, -0.2261505275964737, -0.11776771396398544, -0.16911618411540985, -0.06031225621700287, -0.4809705317020416, -0.1252131164073944, 0.030324559658765793, -0.10728108882904053, 0.17061279714107513, 0.13210226595401764, -0.0644879937171936, 0.056858859956264496, 0.05122453719377518, 0.20286497473716736, 0.16594409942626953, -0.08938242495059967, -0.427498996257782, -0.26413071155548096, -0.09843513369560242, -0.26961666345596313, 0.16640785336494446, 0.12777499854564667, 0.1032390296459198, 0.06886491179466248, -0.17845365405082703, -0.13099436461925507, 0.2517072856426239, 0.012454712763428688, 0.1879265308380127, -0.2918403744697571, -0.025714794173836708, 0.4000474810600281, 0.004726966843008995, -0.08231906592845917, 0.13313879072666168, -0.12590335309505463, 0.20167335867881775, 0.052965350449085236, 0.03583059087395668, -0.0727817490696907, 0.04048258066177368, -0.25033900141716003, -0.01073366403579712, 0.2445404827594757, -0.06463578343391418, 0.10982237756252289, -0.28800997138023376, -0.521557092666626, 0.08006981015205383, 0.11903075128793716, -0.16127333045005798, -0.047284141182899475, -0.1124027669429779, 0.13634942471981049, -0.04325425997376442, 0.09280586987733841, -0.00894424133002758, -0.09901949018239975, -0.11425908654928207, 0.24928049743175507, 0.03776131942868233, -0.011704946868121624, -0.14917489886283875, 0.2840348482131958, 0.06205858290195465, 0.12683963775634766, -0.08619177341461182, -0.021295083686709404, 0.01515496801584959, 0.041142601519823074, 0.06631898134946823, 0.07292941212654114, -0.010353253223001957, 0.1594381481409073, 0.16185373067855835, -0.2593797445297241, -0.053069330751895905, -0.06532739847898483, 0.2793852388858795, -0.007528190966695547, 0.00914249662309885, 0.008385117165744305, -0.03675970062613487, 0.06468633562326431, -0.00917032826691866, -0.07864157110452652, 0.04327132925391197, 0.020789870992302895, 0.3388088643550873, -0.024004681035876274, -0.2518483102321625, -0.06725478172302246, -0.007379202172160149, -0.08646857738494873, -0.025377439334988594, 0.04349350184202194, -0.21082313358783722, 0.3114674389362335, -0.06043948978185654, -0.004236053209751844, 0.09868183732032776, -0.07331114262342453, 0.21952790021896362, 0.1227562427520752, 0.21534296870231628, -0.1914289891719818, 0.2989153265953064, -0.13488204777240753, 0.2921069860458374, -0.24804434180259705, 0.20812177658081055, -0.15501077473163605, 0.0036020090337842703, -0.16407130658626556, 0.21803230047225952, 0.3288644552230835, 0.05106761306524277, 0.05167382210493088, 0.3407440185546875, 0.03778919205069542, -0.23222465813159943, 0.24581532180309296, -0.31970858573913574, 0.24147671461105347, -0.08736331760883331, 0.12681794166564941, 0.09655287861824036, 0.013997775502502918, -0.013690570369362831, -0.07560402154922485, 0.05778155475854874, 0.17311622202396393, 0.047651030123233795, 0.18076500296592712, -0.36423569917678833, 0.027913494035601616, -0.05532555654644966, -0.029456768184900284, 0.12133845686912537, -0.14455139636993408, 0.20324638485908508, 0.05504913628101349, 0.1511327177286148, -0.31683939695358276, 0.2658916413784027, -0.006609328556805849, 0.68006432056427, 0.040671978145837784, -0.21658726036548615, -0.010149136185646057, -0.03396674618124962, -0.2162175327539444, -0.07103503495454788, 0.034526512026786804, 0.1196032166481018, -0.03246390074491501, 0.041457630693912506, 0.15752601623535156, 0.010832052677869797, -0.2770433723926544, -0.13207204639911652, -0.1260877251625061, 0.1327797919511795, -0.3877938687801361, -0.12191792577505112, 0.1680881232023239, 0.19719459116458893, 0.014223652891814709, -0.03097294084727764, -0.2190503180027008, 0.24931669235229492, 0.07666762173175812, 0.16590143740177155, -0.3186313211917877, -0.03157605230808258, 0.03667367994785309, 0.21360202133655548, -0.1317276656627655, 0.16989746689796448, -0.23961032927036285, 0.07888586819171906, 0.10147971659898758, 0.16285544633865356, 0.1018291562795639, 0.1175452172756195, -0.07971695065498352, -0.00897081010043621, 0.11569274961948395, -0.07502222806215286, -0.03711531311273575, 0.08980180323123932, 0.10667242854833603, 0.1237976998090744, 0.027414651587605476, -0.024983253329992294, -0.13021551072597504, 0.11575205624103546, 0.16578079760074615, 0.004184569697827101, -0.011198154650628567, -0.08181848376989365, -0.12223166227340698, -0.0923600047826767, -0.1487143188714981, -0.029466155916452408, -0.1877998411655426, 