{"version": "0.5.4", "metadata": {"date": {"year": 2025, "month": 12, "day": 8, "hour": 17, "minute": 25, "second": 56}, "loudness": -27.012121200561523, "gain": 0.807087642100653, "training": {"settings": {"ignore_checks": true}, "data": {"latency": {"manual": 0, "calibration": {"algorithm_version": 1, "delays": [], "safety_factor": 1, "recommended": null, "warnings": {"matches_lookahead": false, "disagreement_too_high": false, "not_detected": true}}}, "checks": {"version": 3, "passed": false}}, "validation_esr": 0.34960836805776724}}, "architecture": "WaveNet", "config": {"layers": [{"input_size": 1, "condition_size": 1, "head_size": 8, "channels": 16, "kernel_size": 3, "dilations": [1, 2, 4, 8, 16, 32, 64, 128, 256, 512], "activation": "Tanh", "gated": false, "head_bias": false}, {"input_size": 16, "condition_size": 1, "head_size": 1, "channels": 8, "kernel_size": 3, "dilations": [1, 2, 4, 8, 16, 32, 64, 128, 256, 512], "activation": "Tanh", "gated": false, "head_bias": true}], "head": null, "head_scale": 0.02}, "weights": [-0.039120350033044815, 0.517694354057312, -0.8309261202812195, -0.7263385653495789, -0.39479008316993713, 0.21198919415473938, -0.007354265078902245, 0.8351126909255981, -0.11528095602989197, 0.250349760055542, -0.3096294701099396, -0.2098609209060669, -0.9124298691749573, -0.6759453415870667, -0.4221336245536804, 0.06901814043521881, 0.08130106329917908, 0.008820045739412308, -0.08064274489879608, -0.04008221998810768, 0.1779598742723465, 0.1352882832288742, -0.05573894456028938, -0.02038271352648735, -0.043369945138692856, -0.010599312372505665, 0.002707573352381587, -0.15306253731250763, -0.11170358210802078, -0.1602020263671875, -0.07100538909435272, 0.14288625121116638, 0.022840533405542374, -0.05539243295788765, -0.07714544236660004, -0.20617395639419556, -0.06436238437891006, 0.1508069485425949, 0.1931849867105484, 0.08871016651391983, -0.004338079132139683, -0.18000996112823486, 0.031712085008621216, -0.11705353111028671, 0.01343754306435585, -0.06789136677980423, 0.07187112420797348, -0.03489501774311066, -0.07427550852298737, -0.017856745049357414, -0.020673131570219994, 0.13440793752670288, 0.030259571969509125, -0.10996037721633911, 0.07655972987413406, -0.11032772064208984, -0.10054857283830643, -0.13018916547298431, -0.12245449423789978, -0.1982247531414032, 0.050790902227163315, 0.045401956886053085, -0.006308435462415218, 0.020795023068785667, 0.037558358162641525, 0.07463742792606354, -0.055980976670980453, 0.022620800882577896, -0.05949925631284714, 0.15312810242176056, -0.09594498574733734, 0.09895782172679901, 0.04590007662773132, 0.13381879031658173, 0.2765425741672516, 0.11568200588226318, 0.03849691525101662, 0.021512946113944054, -0.0022359881550073624, -0.09452112764120102, -0.26963841915130615, 0.1480078548192978, 0.06090128421783447, -0.06791964918375015, -0.025912100449204445, -0.040340736508369446, -0.17611068487167358, -0.053740616887807846, 0.05346691235899925, 0.04013873264193535, 0.01396948006004095, 0.06840744614601135, -0.03662845864892006, 0.07617936283349991, -0.13600485026836395, 0.048015665262937546, 0.051017336547374725, 0.030978629365563393, 0.02121291123330593, -0.10619007050991058, 0.15118561685085297, 0.24964682757854462, -0.07351106405258179, -0.021867625415325165, 0.013101193122565746, -0.014947259798645973, -0.09749077260494232, 0.03462548181414604, -0.024157114326953888, 0.0396006740629673, -0.1636609137058258, 0.13844239711761475, -0.1120816096663475, -0.008351518772542477, 0.22460170090198517, -0.043732013553380966, 0.12893836200237274, -0.06779630482196808, -0.060879532247781754, -0.1327580362558365, 0.1226918175816536, -0.07197076082229614, -0.2363058626651764, 0.13810475170612335, -0.21447311341762543, -0.24981789290905, 0.03864267095923424, -0.00220949063077569, 0.09817880392074585, -0.19786590337753296, -0.0386681966483593, -0.07543568313121796, 0.036342836916446686, 0.07440190762281418, 0.27020105719566345, -0.08514544367790222, -0.05350307375192642, -0.15221662819385529, 0.1497780978679657, 0.16008169949054718, 0.2916855216026306, 0.002102362923324108, 0.06602512300014496, -0.16643314063549042, -0.046374741941690445, -0.13344591856002808, -0.050623904913663864, 0.07882457971572876, -0.15369625389575958, -0.2783251702785492, -0.06725461781024933, -0.20198042690753937, -0.19502583146095276, 0.1498022973537445, 0.0014892645413056016, -0.30128708481788635, 0.16543033719062805, -0.07577075064182281, 0.0861300379037857, -0.17639221251010895, -0.029777251183986664, 0.0308682918548584, -0.12593615055084229, -0.17316091060638428, -0.13225600123405457, -0.05546732246875763, -0.013379520736634731, 0.16651089489459991, -0.06738703697919846, 0.04184465855360031, 0.2387460619211197, 0.0019317064434289932, 0.17677249014377594, 0.1597038358449936, -0.07505172491073608, 0.04843809828162193, -0.11817798018455505, -0.11396560817956924, 0.1077146828174591, -0.05950920283794403, 0.007401656359434128, -0.08318514376878738, -0.00938078947365284, -0.020991992205381393, 0.10599593818187714, 0.14364367723464966, -0.006332665681838989, -0.07218961417675018, -0.21979112923145294, 0.03312460333108902, 0.15905475616455078, 0.20171132683753967, -0.05187135189771652, 0.044723909348249435, -0.004956626333296299, -0.03163598105311394, -0.0313560850918293, 0.16259032487869263, -0.023823611438274384, 0.04809274524450302, 0.11732167750597, 0.15285535156726837, -0.060858484357595444, 0.008882799185812473, -0.028497999534010887, 0.08512912690639496, -0.11872561275959015, 0.10821868479251862, 0.11418677866458893, 0.08698330074548721, -0.004885950591415167, -0.118696428835392, -0.06929393857717514, -0.03927161172032356, 0.09325552731752396, 0.10927452147006989, -0.1014525517821312, 0.018367359414696693, 0.20738351345062256, -0.10635650902986526, 0.07934209704399109, 0.2301109880208969, 0.05916906148195267, -0.08386760950088501, -0.21057459712028503, 0.06440413743257523, -0.039530735462903976, 0.034571655094623566, -0.045370008796453476, -0.11642097681760788, -0.08951989561319351, 0.10842916369438171, 0.10351747274398804, 0.21014298498630524, 0.08354636281728745, -0.1778421700000763, -0.01857171393930912, -0.10372673720121384, 0.02837560512125492, 0.12860482931137085, 0.053353771567344666, 0.19241011142730713, 0.03517450764775276, 0.005388726945966482, 0.16903731226921082, -0.04790117219090462, 0.1158934086561203, -0.02548331581056118, 0.09255693852901459, -0.01402034517377615, 0.015422592870891094, 0.1073685958981514, 0.12730887532234192, -0.10961097478866577, -0.14930887520313263, -0.039235711097717285, -0.11353466659784317, -0.07317636907100677, 0.013469825498759747, -0.05371968075633049, 0.08645253628492355, 0.06978253275156021, 0.029140358790755272, -0.06049423664808273, 0.05931795760989189, -0.09390702098608017, -0.2106669545173645, 0.05306370183825493, 0.07788588106632233, -0.13003674149513245, -0.05324966832995415, -0.033502247184515, 0.016545889899134636, 0.0098255705088377, -0.046826139092445374, -0.23727290332317352, 0.2098279744386673, -0.04658542200922966, 0.15492644906044006, 0.030225539579987526, -0.015646260231733322, -0.2421659231185913, -0.054025787860155106, 0.14899863302707672, 0.1852920949459076, 0.09185192734003067, -0.08456150442361832, -0.11894889920949936, -0.009434730745851994, -0.03562207520008087, -0.24029943346977234, 0.07103753834962845, -0.001755866571329534, -0.17520196735858917, -0.02400541864335537, -0.13441093266010284, -0.07032281160354614, -0.09563179314136505, 0.017274077981710434, -0.2151915431022644, -0.0529523640871048, 0.02505587413907051, 0.043008361011743546, -0.02899583987891674, 0.07161567360162735, -0.21697872877120972, 0.11622391641139984, 0.10244535654783249, 0.1948196440935135, -0.09168650209903717, -0.16478390991687775, -0.16290265321731567, 0.11911707371473312, -0.09649056941270828, -0.0832994282245636, 0.16830292344093323, -0.11437062919139862, -0.13650406897068024, 0.13303063809871674, 0.040088970214128494, 0.130639910697937, -0.06223093718290329, -0.06278009712696075, -0.06084678694605827, 0.1959785521030426, 0.1750236302614212, 0.22395628690719604, -0.05424632504582405, 0.06174372881650925, -0.17092333734035492, -0.006601526401937008, -0.09583879262208939, 0.27027004957199097, 0.006173291709274054, -0.1312890350818634, -0.07108376175165176, 0.19088304042816162, 0.11898315697908401, 0.0042324550449848175, 0.1889980435371399, -0.07890410721302032, -0.1909746378660202, 0.1892867088317871, 0.0375574454665184, -0.22505320608615875, 0.20282694697380066, 0.0307038314640522, -0.05581900104880333, -0.014560094103217125, 0.03062533028423786, 0.03923484683036804, 0.009873130358755589, -0.022038519382476807, -0.06741096824407578, 0.02951490879058838, 0.11893052607774734, 0.12716126441955566, 0.12280477583408356, -0.1628466248512268, -0.14747707545757294, -0.15522103011608124, -0.20326673984527588, -0.2944665253162384, 0.05893570929765701, 0.02200849913060665, -0.03956805542111397, 0.06544187664985657, -0.07791540771722794, 0.06441538035869598, 0.019434772431850433, -0.08524195104837418, 0.000744980585295707, -0.09356123954057693, -0.008045680820941925, 0.04070889204740524, -0.02769690752029419, 0.07889002561569214, -0.02991092950105667, 0.09642554074525833, 0.16141600906848907, 0.2944754362106323, 0.0007260543061420321, 0.01105431653559208, -0.04034866392612457, 0.005493657663464546, 0.09787192195653915, -0.08778975158929825, 0.0463293232023716, -0.11295865476131439, -0.11117560416460037, -0.04021883383393288, -0.09526895731687546, -0.25973182916641235, -0.1343657374382019, -0.1687253713607788, -0.07737018167972565, 0.05412883684039116, 0.0028580946382135153, 0.04555249586701393, 0.1127137765288353, 0.06927765905857086, -0.1657496839761734, 0.04711214452981949, 0.22535304725170135, 0.2615039348602295, -0.1730966717004776, 0.04085779935121536, -0.0949866771697998, 0.004503780975937843, -0.014175319112837315, -0.28501877188682556, 0.0381271094083786, 0.031991902738809586, -0.19663815200328827, -0.03802628070116043, 0.03255819156765938, 0.1436372846364975, -0.09663289040327072, 0.0009778079111129045, -0.009085472673177719, 0.11353368312120438, 0.007368194404989481, 0.211295023560524, 0.007334279827773571, 0.0074259876273572445, -0.3027428388595581, 0.08527791500091553, -0.02549111656844616, 0.13103964924812317, -0.024818111211061478, -0.18722204864025116, -0.13951505720615387, 0.19526270031929016, -0.06871473044157028, -0.2817157804965973, 0.017031267285346985, -0.06542563438415527, -0.3150421380996704, 0.13040252029895782, -0.2257639318704605, -0.3416742980480194, -0.07868001610040665, -0.11972320824861526, -0.10182470828294754, -0.07084864377975464, 0.16690368950366974, 0.09384136646986008, -0.06143499165773392, -0.03797279670834541, -0.28418129682540894, 0.20656447112560272, 0.14458003640174866, 0.28463274240493774, -0.021904515102505684, -0.16377772390842438, -0.022331804037094116, 0.09902099519968033, 0.0012625135714188218, -0.256600946187973, 0.05173087492585182, -0.20823031663894653, -0.19926902651786804, 0.12388071417808533, -0.058270957320928574, 0.17556621134281158, -0.014616156928241253, 0.0014938028762117028, -0.20559903979301453, -0.02528952993452549, 0.02245188318192959, 0.20512154698371887, 0.04782882705330849, 0.042573750019073486, -0.13493821024894714, 0.165914848446846, -0.0829467922449112, 0.012124373577535152, -0.032478056848049164, -0.1389670968055725, -0.06668268144130707, -0.003673819825053215, -0.1271367222070694, -0.25519174337387085, 0.16532005369663239, -0.08355359733104706, -0.031150247901678085, 0.18168234825134277, 0.012838060036301613, -0.13684196770191193, 0.048366427421569824, -0.09630835056304932, -0.12106852233409882, 0.16475963592529297, -0.07156568765640259, 0.24978767335414886, -0.11422906070947647, -0.258594810962677, -0.04090855270624161, 0.13527251780033112, 0.2531873285770416, -0.19372044503688812, 0.07032353430986404, -0.0489286407828331, 0.14292189478874207, 0.15056531131267548, -0.19989719986915588, 0.1023252084851265, 0.08698827028274536, -0.16357861459255219, 0.10634536296129227, -0.012894252315163612, 0.20917461812496185, -0.08861540257930756, -0.0781031921505928, -0.09145331382751465, 0.07633232325315475, -0.06713514775037766, 0.13379132747650146, 0.026414647698402405, -0.04151912033557892, -0.08045092970132828, 0.006672807037830353, 0.06720773130655289, 0.014772702939808369, -0.14101091027259827, -0.10078016668558121, 0.012211487628519535, 0.016012951731681824, 0.02673378586769104, -0.1907636672258377, 0.19638153910636902, 0.16731248795986176, -0.23027509450912476, -0.059700824320316315, -0.08151836693286896, -0.12211301922798157, 0.01931551843881607, -0.06806298345327377, -0.17190806567668915, 0.08215843141078949, -0.049608536064624786, 0.14914445579051971, -0.06953611969947815, -0.08901818841695786, 0.0667249783873558, 0.32840943336486816, -0.2228592187166214, -0.09534455090761185, -0.28553473949432373, 0.242314875125885, -0.031884994357824326, 0.09579045325517654, 0.047142233699560165, 0.012486358173191547, 0.26035168766975403, -0.1104908213019371, 0.06874174624681473, 0.1995711773633957, -0.008918420411646366, -0.0809430480003357, -0.35136741399765015, 0.017949415370821953, -0.026242731139063835, 0.2274765819311142, -0.2205023616552353, 0.031927552074193954, -0.2658529281616211, 0.07373782992362976, 0.18570426106452942, 0.2693781554698944, -0.01941528171300888, -0.006575025152415037, -0.26512929797172546, 0.016225533559918404, 0.08115720003843307, 0.3411537706851959, -0.1568189412355423, -0.047052379697561264, 0.27502232789993286, 0.03895297273993492, 0.06415218114852905, 0.11532149463891983, -0.2273346483707428, 0.1388820856809616, 0.22161944210529327, -0.1718529909849167, 0.12755727767944336, 0.28312167525291443, 0.012646336108446121, 0.0627204105257988, -0.19831892848014832, 0.005961120594292879, -0.2121381312608719, 0.20717625319957733, -0.05928976088762283, 0.11072031408548355, -0.2066837102174759, 0.2402268499135971, 0.08968783169984818, 0.2090454250574112, -0.22977334260940552, -0.10282637178897858, -0.0206526517868042, 0.028363479301333427, -0.11102331429719925, 0.01471783872693777, -0.03155931457877159, -0.014523377642035484, -0.14121998846530914, 0.09261719137430191, -0.09264004975557327, -0.056818604469299316, 0.015184344723820686, -0.01584286242723465, -0.02740328013896942, 0.23487791419029236, 0.0029448147397488356, 0.08327585458755493, 0.0006405118037946522, 0.06885858625173569, -0.14789527654647827, 0.2418491542339325, -0.016962585970759392, -0.06350114941596985, -0.15153343975543976, -0.1485770344734192, 0.20296700298786163, -0.13064008951187134, -0.1791090965270996, 0.06977570056915283, -0.016744233667850494, -0.01043478213250637, 0.12424922734498978, -0.09435638785362244, 0.0035904711112380028, 0.04138894006609917, -0.16585427522659302, -0.07827749103307724, -0.17737479507923126, 0.17409652471542358, -0.10530037432909012, 0.10881627351045609, -0.026086457073688507, -0.03260865807533264, -0.22779498994350433, 0.1389731615781784, -0.03566107898950577, 0.2558879256248474, -0.10895967483520508, 0.011756482534110546, 0.21441225707530975, -0.05661192536354065, 0.16292546689510345, 0.03386589139699936, -0.12416868656873703, -0.10050991922616959, -0.09644350409507751, 0.1449020951986313, -0.09802769869565964, 0.1228780746459961, -0.11577031761407852, -0.08003289252519608, -0.031027358025312424, -0.11457731574773788, 0.04149598628282547, 0.2469286471605301, -0.06586195528507233, 0.07695838063955307, -0.16876818239688873, 0.13205945491790771, -0.10109364986419678, 0.10529298335313797, -0.036489974707365036, 0.07844719290733337, 0.17499637603759766, 0.09768468141555786, 0.026356909424066544, 0.13170060515403748, 0.10315174609422684, 0.007654057815670967, 0.2623087763786316, -0.09475477784872055, 0.02768760919570923, 0.1241525188088417, 0.0601484477519989, 0.08748925477266312, -0.1110929325222969, -0.07002025842666626, 0.1239197850227356, -0.02619948610663414, 0.13607601821422577, -0.06521138548851013, 0.20466971397399902, 0.09697944670915604, -0.016772644594311714, -0.24882933497428894, 0.13614007830619812, -0.13370954990386963, -0.07883169502019882, 0.05903448536992073, -0.08953981846570969, -0.06068872660398483, -0.08908214420080185, 0.04605585336685181, 0.0029300812166184187, -0.06352543085813522, 0.07749380171298981, 0.06792403757572174, 0.009558074176311493, 0.12098636478185654, 0.09427756816148758, -0.1070452630519867, -0.12370342761278152, -0.21453465521335602, 0.2161591649055481, -0.02234097756445408, 0.1084342822432518, -0.01113193016499281, 0.08148268610239029, 0.021476654335856438, 0.16472923755645752, -0.1157565787434578, -0.11644168943166733, -0.03728706017136574, -0.11084071546792984, -0.07961276173591614, 0.17197942733764648, -0.1419302374124527, -0.024013053625822067, -0.03585429489612579, -0.050337087363004684, 0.0070833140052855015, 0.010011359117925167, -0.008722564205527306, -0.04421311989426613, 0.04443298280239105, 0.10072721540927887, -0.16077782213687897, 0.10592743754386902, -0.18599089980125427, -0.017833570018410683, -0.010744928382337093, 0.19380736351013184, -0.13924284279346466, 0.08576324582099915, 0.20377172529697418, -0.002619754523038864, -0.05795104056596756, 0.06539306044578552, -0.1421225219964981, -0.09532178938388824, -0.07621800899505615, 0.20121890306472778, 0.1062629446387291, 0.12058959156274796, -0.019738947972655296, -0.01812293380498886, 0.03177773579955101, 0.039893776178359985, -0.1184174120426178, 0.09820226579904556, -0.0050321174785494804, -0.10797929763793945, 0.05021735280752182, 0.14584313333034515, -0.12342477589845657, 0.04790492728352547, 0.028383517637848854, -0.09211859852075577, 0.040518999099731445, -0.042085520923137665, -0.10403760522603989, 0.15747418999671936, -0.024105433374643326, 0.10694146156311035, -0.014319352805614471, 0.045280374586582184, -0.06668901443481445, 0.2209828794002533, -0.23536376655101776, -0.10892320424318314, 0.002544038463383913, 0.08624061942100525, -0.020906515419483185, -0.0811723843216896, -0.11995738744735718, -0.061067886650562286, -0.12144046276807785, 0.07202886044979095, 0.03683250769972801, -0.01742488332092762, 0.011859521269798279, 0.10231734067201614, 0.0912298783659935, -0.04571739584207535, -0.035323355346918106, -0.09041216224431992, -0.06143677607178688, -0.023361321538686752, -0.006321163848042488, 0.4699583947658539, -0.42260682582855225, 0.7373128533363342, -0.7705284357070923, -0.011803904548287392, 0.8981748223304749, 0.9291325807571411, -0.5153215527534485, 0.12617608904838562, 0.02723972126841545, -0.4976867437362671, -0.2541286051273346, 0.3775423467159271, -0.7090532779693604, 0.13456261157989502, 0.4163318872451782, -0.11527164280414581, 0.20611006021499634, -0.06261840462684631, 0.10438975691795349, 0.19635915756225586, -0.1030544638633728, 0.08590535819530487, -0.05975158140063286, -0.05566010996699333, -0.08224765211343765, 0.09574789553880692, -0.060359980911016464, 0.10539600998163223, 0.024624427780508995, 0.10933227837085724, -0.0642738938331604, 0.020240144804120064, -0.12216974049806595, -0.19962652027606964, 0.07574553042650223, 0.0687432661652565, -0.07437703013420105, -0.06304728239774704, 0.10775434225797653, -0.013874017633497715, 0.19972996413707733, -0.04067507013678551, 0.04657052084803581, 0.05824810639023781, -0.09145226329565048, 0.12171848118305206, 0.14618843793869019, -0.004822668619453907, 0.11358165740966797, -0.019708311185240746, 0.23837532103061676, -0.16796040534973145, -0.2249804139137268, 0.04689602553844452, -0.1592342108488083, -0.05311517044901848, -0.1709514707326889, 0.2566976845264435, -0.19296810030937195, 0.12286338210105896, 0.31847453117370605, 0.0484602153301239, -0.04544111713767052, 0.1959429830312729, -0.13190831243991852, -0.08390858769416809, -0.1368800550699234, 0.003096651053056121, 0.0956258550286293, 0.0038450199645012617, -0.06148447468876839, -0.22539813816547394, 0.045426782220602036, -0.07489293068647385, 0.02086641825735569, 0.17056259512901306, 0.22456026077270508, -0.21120889484882355, -0.03439265489578247, -0.12418573349714279, -0.30435457825660706, -0.2073594629764557, 0.1540500670671463, 0.1684887558221817, 0.14341256022453308, 0.1174233928322792, -0.14614419639110565, 0.08334555476903915, 0.24292133748531342, -0.1789824217557907, 0.18837898969650269, -0.04374922439455986, 0.12430969625711441, -0.11945781111717224, 0.10835739970207214, -0.21092337369918823, -0.03432830795645714, 0.084817074239254, 0.05227111279964447, 0.26490792632102966, 0.243880495429039, 0.20531901717185974, 0.09627560526132584, 0.19138750433921814, -0.022527070716023445, -0.2266591340303421, -0.07795454561710358, -0.03895500302314758, -0.15424546599388123, 0.10656759142875671, 0.11251740902662277, 0.1162162572145462, 0.13607743382453918, 0.214610293507576, 0.160337895154953, -0.2243509739637375, -0.20808416604995728, 0.06328843533992767, -0.06416569650173187, 0.021840566769242287, -0.3448152244091034, -0.1835167557001114, 0.24292272329330444, 0.31505629420280457, -0.14089743793010712, 0.0226108580827713, -0.14097441732883453, 0.2902207374572754, 0.022958969697356224, 0.37587347626686096, -0.3104060888290405, -0.2708899676799774, 0.26833078265190125, 0.35520172119140625, 0.1671566665172577, 0.2241397649049759, -0.13211815059185028, 0.16014093160629272, -0.27929604053497314, 0.08724859356880188, -0.24587757885456085, 0.009113257750868797, 0.0868534967303276, -0.1673075556755066, 0.04816943034529686, -0.3586559593677521, -0.14196398854255676, 0.17201469838619232, -0.1684025377035141, -0.2791285812854767, -0.19962505996227264, -0.31056883931159973, -0.31019023060798645, 0.15781691670417786, 0.21187745034694672, 0.04446956887841225, -0.023311246186494827, -0.08139721304178238, -0.03557636961340904, -0.1660902053117752, 0.058788008987903595, 0.22205103933811188, -0.22858236730098724, -0.2873668670654297, 0.03189815208315849, 0.22233934700489044, -0.03684787452220917, 0.03694640472531319, 0.2028294950723648, 0.1155528575181961, 0.06737150251865387, 0.26243293285369873, 0.17081163823604584, -0.07396475970745087, -0.061142999678850174, 0.0644935891032219, 0.2673923671245575, -0.33887794613838196, 0.18406027555465698, -0.0552678145468235, -0.3277851641178131, -0.051593996584415436, -0.13075710833072662, -0.021964626386761665, -0.23042412102222443, -0.14952315390110016, 0.02820730209350586, -0.08308405429124832, 0.2171078771352768, -0.0568457692861557, 0.1548144519329071, 0.00945509597659111, -0.07112875580787659, 0.15009748935699463, 0.016522733494639397, -0.011023004539310932, -0.12285156548023224, -0.015541471540927887, 0.06009439378976822, -0.01012864988297224, -0.15447267889976501, 0.05104978755116463, -0.24538369476795197, -0.08645261079072952, 0.1517542004585266, -0.13852445781230927, -0.19966073334217072, -0.015512904152274132, -0.01886735111474991, 0.05810346081852913, 0.10089483112096786, 0.06444700062274933, -0.16809844970703125, -0.011577089317142963, 0.06790557503700256, 0.1594354659318924, -0.08755345642566681, -0.17696720361709595, 0.10147494822740555, 0.20362457633018494, -0.11812371760606766, -0.13706694543361664, 0.19610944390296936, -0.037195224314928055, -0.1941661387681961, -0.19402146339416504, 0.14036886394023895, -0.05839970335364342, 0.14544157683849335, 0.1258297860622406, -0.06337304413318634, -0.06385782361030579, -0.1430886685848236, -0.03536200895905495, 0.0818912461400032, -0.17117741703987122, -0.008808139711618423, -0.266101598739624, 0.17717088758945465, -0.16163890063762665, 0.24192281067371368, -0.10154873877763748, -0.12184864282608032, 0.09669806808233261, 0.0024343556724488735, 0.10424891114234924, 0.1326674520969391, -0.2640683948993683, 0.10496534407138824, -0.03707915544509888, -0.09319043159484863, 0.137800931930542, 0.20503313839435577, -0.2307101935148239, 0.0030746657866984606, 0.2854231894016266, 0.03937850147485733, 0.2801615297794342, -0.12879201769828796, -0.14143265783786774, 0.33971479535102844, 0.194462388753891, 0.1914345622062683, -0.06230231374502182, -0.13247926533222198, -0.14161492884159088, -0.2707630693912506, 0.11064944416284561, 0.10004579275846481, 0.09833226352930069, 0.07345673441886902, 0.156920924782753, -0.13612590730190277, 0.203758105635643, -0.2042064666748047, -0.11616887897253036, -0.05822264030575752, 0.1119331419467926, 0.005460668820887804, 0.0936199203133583, -0.17390327155590057, 0.0908050388097763, -0.012559786438941956, 0.03197716549038887, 0.15869954228401184, 0.10615245997905731, -0.027014371007680893, -0.004447552375495434, -0.05401921644806862, -0.13047370314598083, 0.08419930189847946, -0.0706697404384613, 0.0909050777554512, -0.013216900639235973, 0.039113033562898636, -0.07535311579704285, -0.11597917973995209, 0.014580724760890007, -0.03706493601202965, -0.018937407061457634, -0.019800925627350807, 0.0680849701166153, 0.04522935301065445, -0.18974600732326508, 0.25930020213127136, -0.11879982054233551, -0.14229938387870789, -0.049915067851543427, -0.04266258701682091, -0.15039858222007751, 0.013807824812829494, -0.00485253194347024, 0.12450390309095383, -0.25287339091300964, -0.13109572231769562, 0.017091628164052963, -0.06460285186767578, -0.06362401694059372, 0.055318523198366165, -0.14809441566467285, -0.04310671612620354, 0.036316707730293274, -0.03086349554359913, -0.0970788523554802, 0.04207807034254074, -0.16672708094120026, -0.09800274670124054, 0.06795716285705566, -0.1406504362821579, -0.09156018495559692, 0.12908415496349335, -0.10422416031360626, 0.08515262603759766, -0.1293104887008667, 0.014871516264975071, -0.022264305502176285, 0.008273138664662838, 0.15046435594558716, -0.1568065583705902, -0.0316973440349102, 0.037969741970300674, -0.054845623672008514, -0.03245386853814125, 0.14986680448055267, -0.11760271340608597, 0.04820863902568817, -0.09111543744802475, 0.057898618280887604, -0.13958054780960083, 0.0907396450638771, -0.126576766371727, -0.12548580765724182, -0.061580657958984375, 0.13372059166431427, -0.09471677243709564, -0.0449548065662384, 0.09834742546081543, -0.06697224080562592, -0.0373452790081501, -0.08856178820133209, 0.0005258292076177895, -0.0036300066858530045, 0.09335676580667496, 0.044569842517375946, -0.12961502373218536, 0.039443496614694595, 0.023321984335780144, 0.017401060089468956, -0.14475105702877045, -0.098970927298069, 0.13460543751716614, -0.031383953988552094, -0.035991620272397995, 0.03966265171766281, 0.033911168575286865, 0.055071473121643066, 0.02497018501162529, -0.012021712958812714, -0.054781798273324966, 0.043369535356760025, -0.06044550612568855, 0.11952327936887741, -0.18567027151584625, -0.04654354229569435, -0.1456020176410675, -0.0035806316882371902, 0.14956705272197723, 0.1609572470188141, -0.10041290521621704, -0.016551420092582703, 0.020414942875504494, 0.07783610373735428, 0.1256837099790573, 0.0003106988442596048, -0.059964053332805634, 0.12824350595474243, -0.04688088968396187, 0.09605870395898819, -0.037363339215517044, 0.16469290852546692, 0.023202888667583466, 0.12736637890338898, -0.16560222208499908, -0.07914227247238159, -0.07331108301877975, -0.005352869164198637, 0.04466989263892174, -0.012714747339487076, -0.1822219341993332, -0.00910938810557127, -0.05428691208362579, 0.0951162725687027, -0.11706872284412384, -0.11262167245149612, -0.2303839921951294, 0.1353810876607895, 0.1427779644727707, -0.07036225497722626, 0.13697659969329834, 0.07337294518947601, -0.039602652192115784, -0.001170608215034008, -0.027883537113666534, -0.05737675353884697, 0.06565272063016891, -0.08533135056495667, 0.007362239994108677, 0.10363941639661789, -0.10928671807050705, 0.18650737404823303, 0.10658716410398483, 0.015333031304180622, -0.0785675123333931, 0.10660513490438461, -0.02794775553047657, 0.11330589652061462, 0.07638045400381088, 0.09572795778512955, -0.19799615442752838, -0.07891029119491577, 0.09993205219507217, 0.0654485821723938, -0.07114885747432709, 0.006853302475064993, -0.1106191873550415, -0.02928858995437622, -0.06544303894042969, 0.26511818170547485, -0.043217819184064865, 0.10484538227319717, 0.10065124928951263, 0.1397322118282318, -0.15837819874286652, 0.17660389840602875, -0.0059348056092858315, 0.1406824141740799, -0.24744953215122223, 0.15147171914577484, 0.1321384459733963, -0.0831913873553276, 0.0012203502701595426, 0.13571082055568695, -0.23909838497638702, 0.04662676900625229, 0.10745790600776672, 0.0056513575837016106, 0.1976933628320694, 0.06249931827187538, 0.013051397167146206, 0.0032007924746721983, 0.0672270804643631, -0.21053120493888855, -0.08247771114110947, -0.009028881788253784, -0.13629145920276642, 0.15564997494220734, 0.027753259986639023, 0.18278074264526367, 0.06156157702207565, -0.09338206052780151, -0.02692384459078312, 0.03757115826010704, 0.05296207219362259, 0.08355817198753357, -0.04667045548558235, -0.09569958597421646, 0.0754573866724968, -0.03006201609969139, -0.13193204998970032, 0.07660280168056488, 0.09475694596767426, -0.06970466673374176, -0.059788718819618225, -0.1173270121216774, -0.08432675153017044, 0.10466467589139938, -0.14175739884376526, 0.10770267248153687, -0.12899871170520782, 0.013144059106707573, 0.06970621645450592, 0.1810118854045868, 0.07866355031728745, 0.0429353229701519, -0.007767525035887957, -0.006312966346740723, -0.0674280896782875, -0.10128014534711838, 0.010029061697423458, 0.09661088138818741, -0.12118402123451233, 0.047250740230083466, -0.12388883531093597, 0.030804147943854332, 0.11442454159259796, -0.21694514155387878, -0.15157905220985413, 0.13434256613254547, -0.006806104443967342, -0.03298306092619896, 0.033675260841846466, -0.05720151215791702, -0.15030524134635925, -0.11455024033784866, 0.13611482083797455, 0.050400543957948685, -0.07868862897157669, -0.0902583971619606, -0.063834547996521, -0.12638521194458008, -0.1114339753985405, 0.11628063023090363, 0.08846094459295273, -0.07940787076950073, 0.012752450071275234, -0.012708291411399841, 0.00036248259129934013, 0.09003210812807083, 0.05654061958193779, -0.06642790138721466, 0.1032271757721901, 0.03771600499749184, 0.09775013476610184, -0.17908887565135956, 0.07470612227916718, 0.029631054028868675, -0.1950363665819168, -0.10946965217590332, 0.12959393858909607, -0.18901458382606506, 0.19443392753601074, 0.09741716086864471, 0.18742741644382477, -0.12000969797372818, 0.19858890771865845, -0.02346046455204487, 0.013065826147794724, 0.01818978041410446, 0.10729513317346573, -0.01749965362250805, 0.21090424060821533, 0.10930285602807999, 0.12443357706069946, 0.02186843939125538, 0.11199909448623657, 0.004089068621397018, -0.08982837200164795, -0.12401065975427628, 0.07633743435144424, -0.09629412740468979, 0.15428753197193146, -0.21913285553455353, -0.004912212025374174, -0.09093903750181198, 0.07612821459770203, 0.08922749757766724, -0.055507004261016846, 0.08208102732896805, 0.1236533671617508, 0.19225013256072998, -0.08930239826440811, -0.014377007260918617, -0.2095387876033783, 0.2503735423088074, 0.15942798554897308, -0.006586750503629446, 0.02478155493736267, -0.0070319813676178455, 0.060923319309949875, 0.054748259484767914, 0.1209474503993988, 0.3036092519760132, -0.01595800742506981, 0.20179837942123413, -0.10630608350038528, 0.19678367674350739, -0.11377047747373581, 0.2563646137714386, -0.1554686278104782, 0.0792035460472107, -0.2800539433956146, -0.030430858954787254, 0.02381744422018528, 0.09337416291236877, -0.02683885395526886, 0.15541429817676544, -0.2528276741504669, 0.15141546726226807, -0.08958671241998672, -0.14000214636325836, 0.06474529206752777, 0.09221762418746948, 0.002796607557684183, 0.2553006708621979, -0.015896858647465706, -0.005958930589258671, -0.1291370540857315, -0.049999985843896866, -0.1398884803056717, 0.10015230625867844, -0.15826117992401123, 0.14039205014705658, -0.1272279918193817, -0.09946146607398987, -0.02498909831047058, 0.10331553965806961, 0.10772629827260971, -0.06111089140176773, -0.1097182109951973, -0.1258368343114853, -0.015020099468529224, 0.12417703121900558, -0.05243430659174919, -0.07792151719331741, -0.05999454855918884, 0.010785603895783424, -0.16601325571537018, -0.12027842551469803, 0.0950968787074089, -0.0005438405205495656, -0.09405484795570374, -0.011908167973160744, -0.165887251496315, 0.022874778136610985, 0.007208503782749176, 0.029598059132695198, -0.07942073047161102, 0.04800477251410484, -0.22192254662513733, 0.18255719542503357, 0.12219645082950592, 0.13359686732292175, -0.05391520634293556, 0.12626858055591583, -0.23458793759346008, 0.025612691417336464, -0.05557555332779884, -0.0938512533903122, 0.03053920716047287, -0.10104408860206604, -0.04986445605754852, 0.023303797468543053, -0.1509067416191101, -0.046447694301605225, -0.10378272831439972, 0.10558673739433289, 0.010154045186936855, 0.1559668630361557, -0.0820707157254219, 0.09323123842477798, 0.010221870616078377, 0.14053137600421906, 0.19580918550491333, -0.11697324365377426, -0.16006678342819214, -0.10333794355392456, -0.045334938913583755, 0.18255776166915894, 0.11500577628612518, 0.06396842747926712, 0.13327893614768982, 0.03444824740290642, -0.10709884762763977, 0.12290170043706894, 0.17338557541370392, 0.02204742282629013, -0.1331726759672165, 0.0034438075963407755, 0.03856806829571724, 0.06816491484642029, 0.12329959124326706, 0.06779409945011139, -0.15310586988925934, -0.19516415894031525, 0.13862884044647217, -0.015161730349063873, -0.000672104419209063, 0.10485582053661346, 0.011175691150128841, 0.07086064666509628, -0.072158083319664, 0.08365858346223831, 0.09062141180038452, -0.07538366317749023, 0.10663887858390808, 0.09162407368421555, 0.13230280578136444, 0.008310108445584774, 0.17963552474975586, -0.05583183839917183, -0.017520437017083168, -0.041264764964580536, -0.17890265583992004, -0.030601611360907555, -0.04183308035135269, -0.07233355194330215, -0.04262416064739227, -0.15795639157295227, -0.07006188482046127, 0.032968778163194656, 0.08542898297309875, -0.03805587813258171, -0.07058347761631012, 0.06865774095058441, 0.10335633903741837, -0.18140797317028046, -0.002593223936855793, 0.011593857780098915, -0.059370141476392746, 0.1355619877576828, -0.012444371357560158, 0.07935409992933273, -0.017966190353035927, -0.019330376759171486, -0.01792968437075615, -0.09848584234714508, 0.040184129029512405, 0.048848677426576614, 0.0030972976237535477, 0.1090565025806427, -0.040387749671936035, 0.014641319401562214, 0.10319598019123077, -0.07400508224964142, 0.15195411443710327, 0.01849322021007538, -0.10140981525182724, -0.08249804377555847, 0.04705387353897095, -0.1530689150094986, 0.03849814087152481, 0.13851448893547058, -0.07083561271429062, -0.05831288918852806, -0.010069302283227444, -0.08857031911611557, -0.08237482607364655, -0.0650063082575798, -0.11833037436008453, 0.03898855298757553, 0.036443181335926056, -0.12179765850305557, -0.11832577735185623, 0.09816333651542664, 0.013017418794333935, -0.009898236952722073, -0.10136821866035461, 0.05949115380644798, 0.08338500559329987, -0.1147976741194725, -0.1340181976556778, 0.12524737417697906, -0.10981390625238419, 0.12993106245994568, -0.055631574243307114, 0.06035710126161575, -0.09617964923381805, -0.05052834004163742, -0.023496346548199654, 0.07357587665319443, 0.04475998878479004, -0.14563003182411194, -0.11559177935123444, 0.06794300675392151, 0.011472010053694248, -0.0011602650629356503, 0.15270990133285522, 0.1471356302499771, -0.22704797983169556, 0.06306306272745132, 0.11062765121459961, 0.11756407469511032, 0.0059576500207185745, 0.09036460518836975, -0.15999075770378113, -0.20983506739139557, -0.04499971121549606, 0.29376041889190674, 0.0007981731905601919, -0.10235197842121124, 0.25614258646965027, 0.002365869702771306, -0.05175745487213135, 0.16635163128376007, -0.023539314046502113, -0.025251224637031555, 0.1258067637681961, -0.04671470448374748, 0.015568585135042667, 0.18536707758903503, 0.03691845387220383, -0.05719354748725891, -0.19340215623378754, -0.16594015061855316, 0.04387669637799263, 0.20780184864997864, -0.025004737079143524, -0.05107094720005989, -0.03175760805606842, -0.022140206769108772, -0.16924411058425903, -0.02280288003385067, 0.0604621022939682, 0.13695305585861206, 0.03348970413208008, 0.01833485998213291, 0.004802516661584377, 0.10756304115056992, 0.03350153937935829, -0.08606041222810745, -0.03894684091210365, 0.2594832181930542, 0.03172171488404274, -0.03950740769505501, -0.12768803536891937, 0.13756771385669708, 0.08581451326608658, 0.2514062523841858, 0.06472541391849518, 0.18855047225952148, -0.20133870840072632, -0.06883147358894348, -0.2526737451553345, 0.06376952677965164, -0.06768611073493958, 0.011050797998905182, -0.044944725930690765, -0.05802873894572258, -0.035000212490558624, -0.06626688688993454, -0.014067371375858784, -0.04740707203745842, -0.1544497311115265, 0.07719071954488754, 0.18837779760360718, 0.03228790685534477, -0.03018787130713463, 0.146591916680336, -0.04852452501654625, -0.11495375633239746, -0.20900258421897888, 0.08557034283876419, 0.06396627426147461, -0.04015283286571503, 0.08122871816158295, -0.09252230823040009, 0.12686149775981903, 0.10417529195547104, 0.026672109961509705, 0.1355757713317871, 0.08949211984872818, -0.07609027624130249, 0.03316701948642731, 0.05885345861315727, -0.027945179492235184, 0.17073160409927368, -0.023053515702486038, -0.11303726583719254, -0.09392053633928299, -0.13556332886219025, 0.15764077007770538, -0.06530442088842392, -0.0913243368268013, -0.03748989477753639, -0.16632796823978424, -0.14200004935264587, 0.0869351252913475, -0.044260747730731964, 0.11959465593099594, 0.072824627161026, -0.03697594627737999, 0.040774017572402954, -0.07942347228527069, 0.15716536343097687, 0.19660423696041107, 0.010528386570513248, 0.1686340570449829, -0.14516066014766693, -0.02288684993982315, 0.11383211612701416, -0.08526010066270828, 0.050911057740449905, -0.009595346637070179, -0.02990327589213848, -0.12254256755113602, 0.11045125126838684, -0.062213752418756485, -0.025686508044600487, 0.00032751893741078675, 0.049115702509880066, 0.03184305876493454, -0.07196032255887985, -0.06057827174663544, 0.027010513469576836, 0.03148225322365761, 0.1256406158208847, 0.05908988043665886, 0.10515343397855759, -0.11326000094413757, 0.06643690168857574, -0.040311187505722046, -0.00990834180265665, 0.019067253917455673, -0.02052459865808487, 0.04181534796953201, 0.1168932393193245, -0.09892582893371582, -0.013253663666546345, -0.1278553456068039, -0.001935550244525075, 0.11094529181718826, 0.055647872388362885, 0.09300337731838226, 0.022553039714694023, -0.009168237447738647, 0.05343737453222275, -0.020584186539053917, 0.0921146497130394, 0.07476356625556946, -0.10367825627326965, 0.14306826889514923, 0.006406737025827169, 0.02576698549091816, -0.06578919291496277, -0.03624408319592476, 0.027384331449866295, -0.09232698380947113, -0.11737621575593948, -0.052347857505083084, -0.04035482555627823, 0.11339465528726578, 0.10619355738162994, -0.10506262630224228, -0.01162566989660263, -0.02883191965520382, -0.12203843146562576, -0.010759984143078327, -0.054027874022722244, 0.1461801379919052, -0.12218967080116272, -0.10841595381498337, -0.024765530601143837, 0.0797191932797432, 0.16305875778198242, -0.02553197368979454, -0.13853146135807037, 0.03289034962654114, 0.17183303833007812, 0.007632437627762556, 0.0009187702089548111, 0.09817304462194443, 0.043032869696617126, 0.08336992561817169, 0.11407031118869781, 0.18170204758644104, 0.050049085170030594, -0.22408215701580048, 0.04046130180358887, 0.009274307638406754, 0.1485094279050827, 0.028583938255906105, 0.12955845892429352, -0.28460443019866943, 0.043054912239313126, -0.26774701476097107, 0.08941831439733505, -0.05997360125184059, -0.03532430902123451, 0.07912185788154602, -0.024212542921304703, -0.08003023266792297, 0.2579565644264221, 0.006632430478930473, 0.0064628226682543755, 0.10633619129657745, -0.004010080825537443, -0.015948841348290443, 0.20830371975898743, -0.10710731148719788, -0.09558878093957901, -0.0050407107919454575, -0.17281946539878845, -0.11990398168563843, 0.0044246395118534565, 0.1469837874174118, 0.12294698506593704, -0.12786298990249634, -0.175803542137146, 0.11641497910022736, -0.11195524781942368, 0.07336287200450897, 0.05994086340069771, 0.0962877869606018, -0.04095936939120293, 0.12017299234867096, 0.12999096512794495, 0.04574521631002426, 0.09046512842178345, -0.08205579221248627, -0.07464416325092316, 0.028758704662322998, 0.04498599097132683, 0.022783435881137848, -0.2454887479543686, -0.08768897503614426, 0.03649409860372543, 0.1402588039636612, -0.17279759049415588, 0.12406574189662933, -0.23948100209236145, -0.22231139242649078, -0.16609637439250946, 0.03276360034942627, 0.050974395126104355, -0.07036907225847244, 0.11962651461362839, 0.13718996942043304, -0.07754763215780258, 0.18232639133930206, -0.0073550078086555, -0.13065814971923828, 0.04713238403201103, 0.08150166273117065, -0.12817572057247162, -0.07128110527992249, 0.07741633802652359, 0.0047898488119244576, 0.13084843754768372, -0.07355126738548279, -0.03941519930958748, -0.027183402329683304, 0.08188272267580032, 0.09952407330274582, 0.08331391960382462, 0.06716690212488174, 0.11404326558113098, 0.08724432438611984, -0.025511611253023148, 0.0796075388789177, -0.08019354194402695, 0.09836611151695251, 0.10571041703224182, 0.12641923129558563, -0.08565346896648407, -0.061353862285614014, 0.04214632138609886, 0.08674333244562149, 0.06544321775436401, 0.05099431425333023, 0.025199223309755325, -0.052043616771698, -0.1251482516527176, 0.1918744146823883, 0.1945994347333908, -0.6362618207931519, 0.0641140416264534, -0.6857859492301941, -0.5736685991287231, -0.5095272660255432, 0.9993210434913635, -0.9527424573898315, -0.5512600541114807, -0.9191535115242004, 0.26625338196754456, -0.7571374773979187, -0.0022816576529294252, -0.7856218814849854, -0.1273576319217682, -0.06522571295499802, -0.0027123214676976204, 0.17261013388633728, 0.23053380846977234, 0.037484608590602875, -0.2628697156906128, -0.012157217599451542, -0.2292303442955017, -0.06946524232625961, 0.012190509587526321, 0.11470218002796173, -0.012906141579151154, 0.1573214828968048, -0.012104789726436138, 0.03700505197048187, 0.06277680397033691, -0.08392029255628586, 0.03090154379606247, 0.05418333038687706, -0.15246586501598358, 0.06701771169900894, 0.07169246673583984, -0.0822998583316803, 0.10434678941965103, -0.16143427789211273, 0.08025627583265305, 0.30070748925209045, -0.14320357143878937, 0.04811713099479675, 0.1676347255706787, 0.10596176236867905, -0.04502532258629799, -0.19768314063549042, 0.03518042713403702, 0.22083646059036255, 0.07567404955625534, 0.12571653723716736, 0.03520985692739487, 0.12639717757701874, -0.09268282353878021, 0.04190114140510559, -0.23676984012126923, -0.10091294348239899, -0.06923209875822067, 0.0860871896147728, 0.1965596079826355, 0.04478690028190613, 0.09726649522781372, 0.06068538874387741, -0.1651097685098648, -0.11519986391067505, -0.19446009397506714, -0.024020034819841385, -0.07328242808580399, -0.05303503945469856, -0.01729847490787506, 0.053952209651470184, 0.135027214884758, 0.2682347595691681, 0.25869011878967285, -0.1703178733587265, 0.02728661149740219, -0.05288589000701904, 0.27791839838027954, 0.02048349380493164, -0.15186026692390442, -0.15856729447841644, 0.19292105734348297, 0.003512920346111059, -0.08202914148569107, 0.25118696689605713, 0.1184307411313057, -0.07458315789699554, -0.08814438432455063, 0.24555246531963348, -0.18055641651153564, -0.11727456748485565, -0.12697982788085938, -0.1448056995868683, -0.15369544923305511, -0.047116246074438095, -0.2892087697982788, -0.12369658052921295, 0.05793238431215286, -0.14696882665157318, -0.05436665937304497, -0.08462957292795181, 0.08292863517999649, 0.19547158479690552, -0.046764351427555084, -0.152590811252594, -0.1851055920124054, -0.08820874989032745, 0.04429470747709274, 0.07931290566921234, 0.08592990040779114, -0.10985495150089264, 0.13758781552314758, -0.2842840254306793, 0.08509113639593124, 0.27054163813591003, -0.3096395432949066, -0.2111942023038864, 0.03891116753220558, -0.01445024460554123, -0.18037140369415283, 0.06458723545074463, 0.00881785899400711, -0.07321769744157791, -0.049715761095285416, 0.30347907543182373, 0.061040014028549194, 0.07659362256526947, 0.01985127665102482, 0.0850939229130745, 0.18947185575962067, -0.042575862258672714, -0.049974411725997925, 0.07853224128484726, -0.11477909982204437, 0.25885286927223206, -0.2661857306957245, 0.04305458813905716, -0.2056676298379898, 0.14172248542308807, 0.18531447649002075, 0.08284395933151245, 0.041656095534563065, 0.10929594933986664, -0.1914546936750412, -0.22862251102924347, -0.25697439908981323, -0.09984074532985687, -0.11744815111160278, -0.1349027454853058, 0.07773219048976898, 0.05332399159669876, 0.2696262001991272, -0.13801412284374237, 0.020045870915055275, 0.1319064199924469, -0.13716784119606018, 0.27069658041000366, -0.14912858605384827, -0.07795897126197815, 0.031001297757029533, 0.22988200187683105, 0.13952888548374176, -0.21836891770362854, 0.20964713394641876, 0.003970797639340162, 0.025536080822348595, -0.046532053500413895, 0.17721441388130188, 0.3169143497943878, 0.125889852643013, -0.008371053263545036, 0.11376703530550003, -0.2281164675951004, -0.07034241408109665, -0.11335213482379913, -0.13435398042201996, 0.0733480378985405, 0.02515115775167942, -0.05425894632935524, -0.06607203185558319, 0.01100082416087389, 0.1851574182510376, 0.1996542513370514, -0.1568840593099594, 0.12237769365310669, 0.09330156445503235, 0.021718647330999374, -0.0438205823302269, 0.050589222460985184, 0.05647198483347893, 0.18941274285316467, -0.16343526542186737, -0.024626636877655983, -0.07990912348031998, -0.05403086915612221, 0.180230513215065, 0.23574179410934448, -0.30611467361450195, 0.10033722966909409, 0.19311563670635223, -0.0020364043302834034, -0.18053415417671204, -0.03477701172232628, 0.14004464447498322, -0.09165000915527344, -0.14856740832328796, -0.2644168734550476, -0.16261470317840576, 0.15207287669181824, -0.0036263633519411087, 0.016755228862166405, -0.2025919258594513, 0.10807928442955017, -0.1265353262424469, -0.04613369703292847, -0.2693822383880615, -0.2477414608001709, 0.20664428174495697, -0.21463890373706818, -0.021358873695135117, -0.025673989206552505, 0.1097307875752449, 0.00797534454613924, -0.14846935868263245, 0.19567354023456573, -0.1982167512178421, 0.062439046800136566, -0.12918075919151306, -0.06919743120670319, 0.17396630346775055, 0.1601802110671997, 0.0599101223051548, -0.06412233412265778, 0.19999933242797852, 0.040754031389951706, 0.004244291689246893, -0.10094283521175385, 0.043458595871925354, 0.15520597994327545, 0.05956555902957916, -0.06071244180202484, -0.13263699412345886, -0.07406695932149887, 0.1325051635503769, 0.017783991992473602, -0.08878051489591599, 0.06943078339099884, -0.17617732286453247, 0.034717053174972534, -0.17435689270496368, 0.023333240300416946, 0.21198461949825287, 0.16772502660751343, 0.16474637389183044, -0.190077543258667, -0.15797129273414612, -0.045579977333545685, -0.32221248745918274, 0.0777026116847992, -0.3189564049243927, -0.05090808868408203, 0.35900887846946716, -0.1859838366508484, 0.2550288140773773, -0.08251982927322388, 0.12402836978435516, -0.015485430136322975, -0.3358830511569977, -0.22318843007087708, -0.08431538194417953, 0.02216149866580963, 0.022594423964619637, -0.05479655787348747, -0.11482035368680954, -0.013545426540076733, 0.1229526624083519, 0.13277123868465424, 0.13223248720169067, 0.03226795047521591, 0.07815679162740707, -0.17566582560539246, 0.03819659724831581, -0.24612131714820862, -0.09954103082418442, -0.08164765685796738, 0.10781511664390564, -0.15600533783435822, -0.038374219089746475, 0.006288984324783087, -0.048100925981998444, -0.05056837573647499, 0.1254308968782425, -0.1471801996231079, 0.11409445852041245, 0.12019756436347961, -0.0961727723479271, -0.021451273933053017, 0.1739911586046219, 0.014032312668859959, -0.008463747799396515, 0.17376935482025146, 0.14467601478099823, -0.0940849557518959, 0.07438143342733383, -0.11416489630937576, 0.036644890904426575, -0.06679890304803848, 0.13540808856487274, -0.1878419816493988, 0.006709516514092684, -0.0026183449663221836, 0.042832210659980774, -0.11668626219034195, 0.13841314613819122, -0.03909197822213173, 0.023652208968997, -0.09934430569410324, -0.00826963409781456, -0.00472398241981864, -0.1834734082221985, 0.07201070338487625, 0.030769294127821922, -0.12226282060146332, 0.03411657735705376, 0.007308301515877247, 0.0538630411028862, -0.10213566571474075, 0.28007322549819946, -0.18757015466690063, 0.024696115404367447, 0.001161413500085473, 0.25131335854530334, -0.11042162775993347, -0.007984369993209839, -0.08672884106636047, 0.11896480619907379, -0.10466217249631882, 0.10557905584573746, -0.12475866824388504, 0.1689053177833557, 0.047910403460264206, 0.1756850928068161, -0.04847858101129532, -0.08626030385494232, -0.11094224452972412, 0.14087337255477905, -0.03412727639079094, 0.014471982605755329, -0.05347326025366783, 0.026177721098065376, -0.1339688003063202, 0.11185097694396973, -0.09579940140247345, 0.12277659773826599, -0.04263835772871971, -0.10107303410768509, -0.04766829311847687, 0.02583639696240425, -0.008503267541527748, -0.13982276618480682, 0.12567608058452606, 0.10476376116275787, 0.04959120601415634, 0.14464087784290314, 0.04308132082223892, -0.0010127919958904386, -0.07812770456075668, -0.2523253858089447, -0.14411607384681702, -0.026697885245084763, 0.10297247767448425, -0.06518305093050003, -0.0716736689209938, -0.02205251343548298, -0.13117018342018127, 0.0061999172903597355, 0.11894242465496063, 0.14873285591602325, 0.014445492066442966, 0.11924203485250473, 0.03011542744934559, 0.026655126363039017, -0.10198931396007538, -0.09625525027513504, 0.10035041719675064, 0.026751838624477386, -0.10218609124422073, 0.04566403105854988, -0.05819069221615791, 0.1475926786661148, -0.13525736331939697, 0.059911083430051804, 0.14158745110034943, -0.05486058443784714, -0.15032391250133514, 0.04817688465118408, 0.1193961426615715, -0.02641766518354416, -0.0971326157450676, 0.0389285683631897, 0.09666585177183151, 0.00850688200443983, -0.019400864839553833, 0.08041707426309586, 0.0080640884116292, 0.052238576114177704, -0.006727538537234068, 0.04841560870409012, -0.04871358349919319, 0.06374714523553848, -0.13079415261745453, -0.17585539817810059, 0.045218244194984436, -0.012232194654643536, -0.014088382013142109, -0.0030161580070853233, 0.10956285148859024, 0.08519911766052246, 0.03744145482778549, 0.13443410396575928, -0.029513996094465256, 0.04340063035488129, 0.11422904580831528, 0.08500870317220688, -0.20221148431301117, -0.015677858144044876, -0.03376301750540733, 0.21827897429466248, -0.04299201816320419, -0.008519914001226425, -0.08859384059906006, 0.21905753016471863, -0.11546020209789276, 0.09064324200153351, -0.0012995232827961445, 0.16095153987407684, 0.11068374663591385, -0.07087486237287521, 0.10558071732521057, 0.03501196578145027, -0.1653292328119278, 0.06684260070323944, -0.009134144522249699, -0.03687955439090729, -0.08638931065797806, -0.04916209727525711, 0.1254042536020279, 0.15305225551128387, -0.005250819958746433, -0.17458422482013702, -0.058982886373996735, -0.01967228762805462, 0.1323784589767456, 0.04538998752832413, 0.05107571929693222, -0.023561421781778336, -0.13530832529067993, -0.1525944173336029, -0.12371169030666351, 0.10776034742593765, 0.06815855205059052, -0.04364073649048805, 0.19052153825759888, -0.10289487987756729, -0.11397557705640793, 0.06293772161006927, -0.02695995569229126, -0.07372766733169556, 0.1537702977657318, 0.0030150634702295065, 0.06208905950188637, 0.13752901554107666, -0.042741838842630386, 0.13081881403923035, -0.2680683434009552, 0.1398206502199173, -0.027930142357945442, -0.050098128616809845, -0.10896047204732895, -0.013430222868919373, -0.005203739739954472, 0.07279428839683533, 0.04454242065548897, -0.08876816928386688, 0.13743869960308075, 0.039185281842947006, 0.039861276745796204, 0.1396344155073166, 0.01346567552536726, -0.1392827183008194, 0.007450093049556017, -0.03319375216960907, 0.032363150268793106, 0.05835629254579544, -0.056231118738651276, -0.15674301981925964, -0.14575310051441193, 0.1400488168001175, -0.04560345783829689, -0.0760250836610794, -0.058979857712984085, -0.0031332180369645357, -0.1543925553560257, 0.2229543775320053, 0.14738479256629944, 0.2158927023410797, 0.023905958980321884, -0.06718006730079651, -0.05459784343838692, 0.17971281707286835, -0.11516791582107544, 0.16389843821525574, -0.006420449819415808, -0.08667770773172379, 0.04383334890007973, 0.0855882465839386, -0.040964916348457336, -0.13827812671661377, 0.19589437544345856, -0.1306736320257187, -0.11873152107000351, 0.23920486867427826, 0.4795391261577606, -0.27460089325904846, -0.1566440314054489, 0.2479456663131714, -0.011647546663880348, -0.04429212585091591, 0.059878602623939514, -0.03491621091961861, -0.033113475888967514, 0.05094335973262787, -0.16102489829063416, -0.108946792781353, -0.055175360292196274, -0.16670534014701843, -0.008432871662080288, 0.05093017593026161, -0.03336133062839508, 0.060699716210365295, -0.16268934309482574, 0.029620803892612457, 0.14868894219398499, -0.07614804804325104, 0.09390494227409363, -0.02990877442061901, -0.14288727939128876, -0.10479208081960678, 0.18971997499465942, 0.12070252746343613, -0.050460413098335266, -0.25486069917678833, -0.15877926349639893, -0.028752997517585754, 0.06439360231161118, 0.1626811921596527, 0.03958258777856827, -0.10946694016456604, 0.09890586882829666, -0.010439364239573479, -0.015713416039943695, 0.150779590010643, -0.07070553302764893, -0.15079113841056824, 0.045475151389837265, 0.060039084404706955, -0.04766502231359482, 0.14645163714885712, -0.09839414805173874, -0.15793628990650177, -0.120938740670681, 0.15085531771183014, -0.013465089723467827, -0.246316060423851, -0.19374045729637146, -0.11135302484035492, 0.046355243772268295, -0.04000755399465561, -0.020885666832327843, 0.011081420816481113, -0.1786230057477951, -0.15317265689373016, -0.04443059116601944, 0.15513470768928528, 0.10618328303098679, -0.04326147958636284, -0.08372068405151367, 0.04281400144100189, 0.02269895002245903, 0.09551642835140228, -0.012364322319626808, 0.023938070982694626, 0.051029857248067856, -0.018528517335653305, 0.17990629374980927, 0.10895220935344696, -0.1553594022989273, -0.18953953683376312, -0.0611647330224514, 0.16572508215904236, -0.039651766419410706, 0.19791686534881592, -0.11209897696971893, -0.2396722435951233, -0.007190738804638386, -0.07550571113824844, -0.045030031353235245, -0.1122310534119606, -0.02550506591796875, -0.1428540050983429, -0.15596862137317657, 0.12942247092723846, -0.051034215837717056, -0.11643170565366745, 0.034255191683769226, -0.2336641252040863, -0.050404805690050125, 0.047316666692495346, 0.26364386081695557, -0.0370861180126667, 0.10696913301944733, 0.01918318122625351, 0.001698230393230915, -0.1584240049123764, 0.041871078312397, 0.13837064802646637, 0.10613585263490677, -0.1075993999838829, 0.0076472144573926926, 0.06780695170164108, -0.13510915637016296, 0.02404313161969185, 0.04589036479592323, -0.0640525370836258, 0.06961079686880112, -0.0476871058344841, -0.030021315440535545, 0.01595477946102619, -0.0775730311870575, -0.04707599803805351, 0.03781363368034363, 0.03255758807063103, -0.05317606404423714, 0.04223870113492012, -0.010929929092526436, 0.015460384078323841, 0.12356802076101303, -0.12368543446063995, -0.15940703451633453, 0.02752481959760189, -0.0782676413655281, 0.11265875399112701, -0.0738779604434967, -0.019773278385400772, -0.061201367527246475, -0.15683256089687347, -0.09162002056837082, 0.03224770724773407, 0.07723258435726166, 0.12316925823688507, -0.1421741098165512, -0.02073713392019272, -0.01727597415447235, 0.10309936851263046, -0.09615008533000946, -0.05111638084053993, -0.18730324506759644, 0.20322035253047943, -0.28988030552864075, -0.03907369449734688, 0.24564455449581146, 0.01856265217065811, 0.19307377934455872, -0.12486577033996582, 0.10440412163734436, -0.12244511395692825, 0.5066949725151062, -0.15836836397647858, 0.004671683069318533, 0.0184756089001894, 0.01721639186143875, -0.08778094500303268, 0.06788809597492218, 0.08104999363422394, -0.03571857139468193, -0.01813257485628128, 0.13236354291439056, 0.10901650786399841, -0.005911088082939386, 0.09166557341814041, -0.010786468163132668, -0.10128216445446014, 0.01801464892923832, 0.09141918271780014, -0.09161897003650665, 0.02828938700258732, 0.04871493950486183, 0.09977208822965622, 0.09104924649000168, 0.07092178612947464, 0.11715343594551086, -0.1295294165611267, -0.1468438357114792, 0.4492160677909851, -0.08372104167938232, -0.19501100480556488, 0.07057949155569077, -0.2202305793762207, 0.07561847567558289, -0.08051972091197968, 0.09853314608335495, 0.00965376477688551, 0.39891642332077026, -0.07204703241586685, 0.2560873031616211, -0.5846882462501526, -0.05725878104567528, -0.20498165488243103, 0.02572386898100376, -0.13820910453796387, 0.11501430720090866, 0.06125052645802498, 0.06858550757169724, -0.11541695147752762, 0.19283032417297363, 0.05077909305691719, -0.03632481396198273, -0.06332667917013168, -0.07068463414907455, -0.05742758512496948, 0.026912512257695198, 0.06989932060241699, -0.12892603874206543, -0.07980261743068695, -0.07968312501907349, -0.16021111607551575, -0.034746475517749786, -0.1328383833169937, 0.02142946608364582, -0.1405414640903473, -0.19609978795051575, -0.05243202671408653, -0.16525742411613464, 0.18297797441482544, 0.19912707805633545, -0.016260560601949692, -0.027173012495040894, 0.042579151690006256, 0.023696592077612877, 0.042026620358228683, -0.26547810435295105, 0.3351053297519684, -0.1358029693365097, -0.044271767139434814, 0.013256245292723179, -0.03405078500509262, -0.052880771458148956, -0.190584197640419, 0.0613081157207489, -0.21479034423828125, 0.1509474217891693, -0.09072011709213257, 0.5066910982131958, -0.3971303701400757, 0.07360636442899704, 0.0215426255017519, 0.12655150890350342, -0.07311686128377914, 0.048063889145851135, -0.016765916720032692, 0.14682121574878693, 0.02201404981315136, 0.31956568360328674, -0.14543353021144867, 0.0385901965200901, 0.03969819098711014, 0.028337687253952026, 0.1550322026014328, -0.08648919314146042, 0.07076188921928406, -0.029818162322044373, 0.09333933144807816, 0.09635338187217712, -0.01953977905213833, 0.1945984959602356, -0.15174470841884613, 0.03809475526213646, 0.03340744227170944, 0.07406798005104065, -0.04608771577477455, 0.15885430574417114, -0.07799483835697174, 0.0497702956199646, -0.13689924776554108, 0.05914971977472305, 0.010006539523601532, 0.10289935767650604, -0.040136903524398804, 0.056625351309776306, 0.22332918643951416, 0.008035000413656235, 0.06203991174697876, 0.09487703442573547, -0.09564302116632462, 0.09386689215898514, -0.09604483842849731, -0.017692968249320984, -0.12437787652015686, 0.42506134510040283, -0.36054727435112, 0.013319103047251701, -0.6779102683067322, 0.3078264892101288, -0.13117621839046478, -0.023738699033856392, 0.008444252423942089, 0.06982944160699844, -0.09999292343854904, 0.07887677103281021, -0.1571713089942932, 0.1729954332113266, 0.15181897580623627, -0.07691344618797302, 0.03669045493006706, 0.18150800466537476, 0.005039033014327288, -0.034025587141513824, 0.0258380975574255, -0.13578137755393982, -0.310222327709198, -0.12090421468019485, -0.07251124083995819, 0.03641076758503914, 0.15218646824359894, 0.09205629676580429, -0.08194747567176819, -0.2566448450088501, -0.1409904658794403, 0.07795984297990799, 0.041927844285964966, -0.05797698721289635, 0.009978371672332287, -0.18615634739398956, -0.08539743721485138, -0.04057534411549568, 0.08398191630840302, -0.1090114414691925, 0.16131335496902466, 0.19725026190280914, -0.04673931375145912, -0.020178018137812614, 0.04297517240047455, -0.06088778376579285, -0.09295183420181274, 0.27463406324386597, -0.16527409851551056, -0.00676768459379673, 0.2743908166885376, 0.5697193145751953, -0.6122080683708191, -0.2544589042663574, 0.0248678270727396, -0.11041910201311111, 0.2466498762369156, 0.06651866436004639, 0.017453253269195557, -0.16221968829631805, 0.0670071691274643, -0.24114221334457397, 0.08251548558473587, -0.041860297322273254, -0.03772200644016266, -0.1239943876862526, 0.13206878304481506, 0.11972688883543015, 0.06131015717983246, -0.030336275696754456, 0.06586866080760956, 0.02686665765941143, -0.06439123302698135, 0.14514166116714478, -0.13341735303401947, 0.05607237666845322, -0.07551857829093933, 0.07842075079679489, 0.0729314535856247, -0.16519296169281006, -0.047481901943683624, -0.17159704864025116, -0.010430020280182362, 0.02341124787926674, 0.1673678606748581, 0.11320613324642181, -0.0504695400595665, 0.09642205387353897, -0.15969717502593994, 0.09130322188138962, -0.03884866088628769, 0.036350663751363754, -0.14327947795391083, 0.1212860569357872, 0.09348897635936737, -0.024692825973033905, 0.12697778642177582, 0.004427728708833456, -0.14539624750614166, -0.13407127559185028, 0.21102355420589447, -0.06114021688699722, -0.11054699867963791, -0.10438177734613419, -0.13269083201885223, 0.09185513854026794, -0.10074342787265778, -0.025027887895703316, 0.0892174020409584, 0.025707250460982323, -0.20222987234592438, -0.1365475058555603, 9.041185694513842e-05, 0.1770734339952469, -0.11626159399747849, 0.08520052582025528, 0.09691160917282104, -0.0063999793492257595, -0.010124335065484047, -0.051510993391275406, -0.10835688561201096, 0.04258875921368599, 0.009156675077974796, 0.11778918653726578, 0.0032484405674040318, -0.04045984148979187, -0.08233828097581863, 0.09804998338222504, -0.015019452199339867, 0.13480496406555176, -0.12758396565914154, 0.13989073038101196, -0.12717579305171967, 0.01425783708691597, -0.17001725733280182, 0.012674910947680473, 0.04913436621427536, -0.022000163793563843, -0.06580496579408646, 0.1546730250120163, 0.02841983549296856, -0.0417182594537735, 0.16760364174842834, -0.06517358869314194, -0.10742466896772385, -0.03290116786956787, -0.12850086390972137, -0.07627084851264954, 0.03346648067235947, 0.22711046040058136, 0.026528403162956238, -0.02702491730451584, 0.08273271471261978, 0.018849525600671768, 0.05426771938800812, 0.024258475750684738, 0.06277992576360703, -0.18270453810691833, 0.15158432722091675, -0.08211308717727661, -0.032011259347200394, 0.12421884387731552, -0.04542884975671768, -0.09238477796316147, -0.14669831097126007, 0.15287449955940247, -0.02128322795033455, -0.14946049451828003, -0.024824339896440506, -0.010725915431976318, -0.08453976362943649, 0.027719352394342422, 0.0003370099002495408, -0.04559146612882614, 0.05855800583958626, -0.14852891862392426, 0.12816502153873444, 0.05467591807246208, 0.06646557152271271, 0.03815719857811928, -0.033523328602313995, -0.01337492186576128, 0.11622986197471619, 0.02176552824676037, -0.06574925780296326, -0.0917602926492691, -0.04529368504881859, -0.08155027031898499, 0.04049554094672203, -0.04922659322619438, -0.04723567143082619, 0.12115014344453812, 0.08568395674228668, -0.27853715419769287, 0.0699043795466423, -0.019683172926306725, 0.460501492023468, -0.11284224689006805, -0.16869895160198212, 0.0018697953782975674, 0.0075528742745518684, 0.021525951102375984, 0.034642938524484634, 0.16976527869701385, -0.2199767529964447, 0.021409686654806137, 0.05428159981966019, -0.07746610790491104, 0.07257029414176941, 0.163490429520607, -0.02764345519244671, 0.07327735424041748, 0.02110470086336136, 0.08891076594591141, -0.12318677455186844, -0.20008635520935059, 0.05838965252041817, -0.05322793498635292, 0.07081318646669388, -0.005849878769367933, 0.05270073935389519, 0.018270380795001984, 0.0364484079182148, -0.04013008624315262, 0.07331093400716782, -0.07759972661733627, 0.09514499455690384, -0.0026788918767124414, 0.003923185635358095, -0.11487116664648056, 0.14459937810897827, -0.1639578491449356, 0.19132322072982788, 0.24832016229629517, -0.1269083172082901, 0.09672487527132034, -0.0882660448551178, 0.033965982496738434, 0.09352657943964005, 0.03326166793704033, 0.11040201038122177, -0.0010927821276709437, 0.059674762189388275, 0.12809142470359802, -0.19150567054748535, 0.047125767916440964, 0.06220252439379692, 0.0295834019780159, 0.03227213770151138, -0.10154666006565094, 0.033660728484392166, 0.014843442477285862, -0.05574207007884979, -0.02866550348699093, 0.053394004702568054, 0.02851862460374832, 0.046073634177446365, -0.013137884438037872, -0.08479579538106918, 0.010205217637121677, -0.029570257291197777, 0.034505970776081085, -0.4535408616065979, -0.562907338142395, 0.7369673848152161, 0.3333185613155365, -0.6032926440238953, 0.2684573829174042, -0.2418428212404251, -0.1309070587158203, 0.7354093790054321, -0.9322509765625, 1.3052663803100586, 0.4827744662761688, 0.025046348571777344, -0.33609989285469055, 0.12258806079626083, -0.7744285464286804, 0.14557714760303497, -0.12857353687286377, 0.07546885311603546, -0.35057368874549866, 0.24170714616775513, -0.05311838537454605, 0.31523633003234863, 0.023327261209487915, 0.07529275864362717, 0.1848706156015396, 0.2044592797756195, 0.2166300117969513, -0.25058284401893616, 0.07878658920526505, 0.0026904046535491943, -0.12840387225151062, 0.06176455691456795, -0.030606620013713837, 0.047242019325494766, 0.02518429234623909, 0.18921424448490143, -0.08334037661552429, 0.0577964261174202, -0.10821457952260971, -0.3312765657901764, 0.014524716883897781, -0.05661721155047417, -0.09171126037836075, 0.03859252110123634, 0.3102622628211975, 0.1169317215681076, -0.04105224460363388, 0.07364021241664886, -0.07114964723587036, 0.027085009962320328, -0.1202002689242363, 0.08997327089309692, -0.0010906797833740711, -0.11439716815948486, -0.1843838095664978, -0.1400291621685028, -0.09133563935756683, -0.34390789270401, -0.030294202268123627, 0.2755102515220642, -0.23623992502689362, -0.03148500248789787, 0.03524947911500931, 0.3216642737388611, -0.01769624464213848, 0.14053356647491455, 0.08229345828294754, -0.18690739572048187, 0.23941192030906677, -0.32467779517173767, 0.1627694070339203, 0.3099275827407837, -0.10245805978775024, 0.14843791723251343, 0.1599375456571579, 0.11484182626008987, 0.0959654375910759, 0.08356762677431107, -0.11167975515127182, 0.052197884768247604, -0.13215230405330658, 0.223392516374588, -0.27543875575065613, 0.2498556226491928, -0.32211732864379883, 0.23629601299762726, 0.02425471507012844, 0.06285690516233444, 0.05366503819823265, -0.12459304928779602, 0.16229823231697083, -0.2504144012928009, -0.11635050922632217, 0.1896379590034485, -0.10774220526218414, -0.17419680953025818, -0.09468640387058258, -0.0558178685605526, -0.1780632883310318, -0.024559827521443367, -0.16164614260196686, 0.28933268785476685, 0.03583698719739914, -0.08805903047323227, -0.11283858865499496, 0.022093050181865692, 0.15067368745803833, -0.027274373918771744, 0.15685057640075684, 0.13783998787403107, 0.09744170308113098, -0.02276766672730446, 0.0467061884701252, -0.10114496201276779, 0.03137515112757683, 0.20310385525226593, -0.11046896874904633, 0.03997434303164482, -0.0006382801802828908, -0.23272068798542023, 0.22068823873996735, 0.18770010769367218, -0.12401237338781357, 0.10881973803043365, 0.13221926987171173, 0.05954522266983986, 0.06713949888944626, 0.1303720772266388, 0.22780197858810425, -0.15761415660381317, -0.08015138655900955, 0.15140953660011292, -0.15050920844078064, 0.03875463455915451, -0.05234229564666748, 0.028201263397932053, 0.066966712474823, -0.13098542392253876, 0.16544170677661896, -0.01307925395667553, 0.05097832903265953, 0.06269360333681107, 0.0005411772290244699, -0.08096984028816223, 0.20895403623580933, -0.08746115863323212, 0.16803865134716034, 0.18703234195709229, 0.0004796282737515867, -0.2171580195426941, -0.006086460780352354, -0.1339944452047348, 0.14634756743907928, -0.08787865191698074, 0.25692716240882874, -0.2326066941022873, -0.008938874118030071, 0.05452693626284599, 0.02897528000175953, 0.08247818797826767, -0.06797303259372711, -0.09347649663686752, 0.29160603880882263, -0.059160854667425156, 0.32247394323349, -0.24927394092082977, -0.14271675050258636, -0.023391732946038246, -0.10892244428396225, 0.08307386189699173, -0.2992909550666809, -0.0005243172636255622, -0.08666146546602249, 0.11508502066135406, -0.12122178077697754, 0.3489959239959717, -0.07524104416370392, -0.12696893513202667, -0.1932448446750641, 0.2165706902742386, -0.17377354204654694, 0.08857742697000504, -0.031456928700208664, 0.22012895345687866, 0.10637670755386353, -0.21872207522392273, 0.06845925003290176, 0.05216168984770775, -0.24934332072734833, 0.0878462940454483, 0.23279257118701935, 0.08091934025287628, 0.07469572126865387, -0.03755588084459305, 0.15217921137809753, -0.14939795434474945, 0.25392746925354004, 0.16722416877746582, 0.11076334118843079, -0.26337137818336487, -0.26819613575935364, -0.3093250095844269, 0.12903940677642822, -0.16584071516990662, -0.23879486322402954, 0.07656843215227127, 0.07703786343336105, -0.18476602435112, -0.219309464097023, 0.007929370738565922, 0.005520673934370279, 0.1268545538187027, 0.15196967124938965, -0.25837796926498413, -0.1349894255399704, 0.227156400680542, -0.014114613644778728, -0.13067598640918732, 0.03445053845643997, 0.007613947615027428, 0.007680920884013176, 0.06005468592047691, -0.1145084798336029, -0.15931394696235657, 0.05604274198412895, -0.1459255963563919, -0.06775343418121338, -0.029581895098090172, -0.1631837636232376, 0.1744261384010315, -0.1412958949804306, 0.0017056534998118877, 0.05931840464472771, 0.25302544236183167, -0.19180822372436523, 0.02192044071853161, 0.18647818267345428, -0.1336662322282791, -0.08140009641647339, -0.05672598257660866, 0.13400819897651672, -0.0011946173617616296, -0.08178631216287613, -0.09363235533237457, -0.10188183933496475, 0.14884038269519806, -0.15467718243598938, 0.06682094186544418, 0.20220133662223816, 0.11760987341403961, 0.18981587886810303, -0.08645430207252502, 0.12582887709140778, 0.07589821517467499, -0.25034958124160767, -0.07791635394096375, -0.03747861832380295, -0.06853526830673218, -0.18676471710205078, -0.05374204367399216, -0.050294969230890274, -0.06974479556083679, -0.11983262002468109, 0.1799500584602356, 0.23606939613819122, 0.4159688651561737, 0.32296741008758545, -0.22378772497177124, -0.10805097967386246, -0.1982652246952057, 0.049137718975543976, 0.05754822865128517, 0.046195026487112045, 0.08551876246929169, 0.14766545593738556, -0.06471443176269531, 0.10959088057279587, 0.0994216650724411, -0.05769896134734154, -0.1664118617773056, -0.11357609927654266, 0.07059895247220993, 0.07485268265008926, 0.10349036753177643, 0.11848790943622589, 0.0827384889125824, -0.027204081416130066, 0.24836134910583496, -0.2785815894603729, 0.12219104915857315, -0.02202051319181919, -0.059884894639253616, 0.12249775230884552, 0.1308360993862152, -0.15984314680099487, 0.24143102765083313, -0.18739795684814453, 0.16525955498218536, 0.1635855734348297, 0.20615415275096893, -0.40058743953704834, 0.0017213373212143779, 0.27581220865249634, -0.18418075144290924, 0.1336715817451477, 0.10828862339258194, -0.20628739893436432, -0.05482105165719986, -0.06413812935352325, 0.07191988825798035, -0.04037422314286232, 0.00361586082726717, -0.2492160052061081, 0.06467557698488235, -0.09692911803722382, 0.2914680242538452, -0.1820908486843109, -0.011538400314748287, -0.35823696851730347, 0.28113630414009094, -0.030768586322665215, -0.1529974341392517, -0.10370106250047684, -0.17509587109088898, 0.006868995260447264, -0.0672643631696701, 0.061984021216630936, -0.2858285903930664, -0.04907136410474777, 0.012688172049820423, -0.46626725792884827, -0.04410338029265404, 0.1730254888534546, -0.10999301075935364, 0.024471601471304893, -0.09491341561079025, 0.1545739769935608, 0.030440013855695724, 0.1528209000825882, -0.04602831229567528, -0.09881027042865753, 0.10308787971735, -0.11482645571231842, 0.005186127033084631, -0.012606103904545307, 0.09728721529245377, 0.018902331590652466, -0.04437924548983574, 0.06937507539987564, 0.24711047112941742, -0.005549557041376829, -0.09645049273967743, 0.13889987766742706, -0.12478432059288025, 0.1634552925825119, -0.08299894630908966, -0.1380370557308197, -0.17928099632263184, 0.02614120952785015, 0.11588332056999207, 0.2202698141336441, -0.14600686728954315, 0.02162267453968525, 0.058789417147636414, 0.15287840366363525, 0.02586597576737404, 0.23876743018627167, -0.04348699748516083, 0.1996256411075592, -0.10381797701120377, -0.20717841386795044, 0.0009748078882694244, 0.010136870667338371, 0.01735100708901882, -0.13616670668125153, 0.2724992036819458, -0.22663111984729767, 0.08791470527648926, 0.2582336962223053, 0.0030516667757183313, -0.21465608477592468, 0.13746191561222076, -0.030147042125463486, -0.030850790441036224, -0.06670232117176056, -0.02151903696358204, 0.11969085782766342, -0.041691090911626816, -0.13389591872692108, -0.19174933433532715, -0.03844788670539856, 0.12754471600055695, -0.13803546130657196, 0.05076325312256813, 0.022398224100470543, 0.16258952021598816, -0.04244605079293251, -0.10649749636650085, -0.048957932740449905, -0.08769408613443375, -0.20533713698387146, 0.016482440754771233, 0.09356644004583359, -0.07612374424934387, 0.12880975008010864, 0.15413621068000793, 0.03993632644414902, -0.1902102828025818, -0.09276038408279419, 0.11170630902051926, 0.056488439440727234, -0.008191658183932304, 0.06904398649930954, -0.11945924162864685, -0.03817380964756012, -0.018913142383098602, -0.12943515181541443, -0.04691145196557045, 0.052165597677230835, -0.09388171881437302, 0.03947185352444649, 0.004357054363936186, -0.08209849894046783, -0.08524830639362335, -0.019226031377911568, 0.1182396337389946, -0.16380393505096436, -0.04304087162017822, 0.06067855656147003, 0.1030997484922409, -0.08194142580032349, 0.021817462518811226, 0.15817701816558838, 0.10194237530231476, -0.03340032324194908, 0.051221784204244614, 0.1557435840368271, 0.14326569437980652, 0.08813522756099701, -0.03726453334093094, 0.1238657534122467, 0.09251020103693008, -0.09758385270833969, 0.08713411539793015, 0.12364307790994644, 0.011470317840576172, -0.059910718351602554, -0.1680382639169693, 0.21557940542697906, 0.09048279374837875, -0.0472259558737278, 0.006579595152288675, -0.1132122129201889, -0.10026685893535614, 0.13378076255321503, 0.2008543759584427, -0.06552919745445251, -0.1765206903219223, -0.2065100222826004, 0.0021973808761686087, 0.02366425283253193, 0.17764322459697723, 0.19588066637516022, -0.027307644486427307, 0.11838939040899277, 0.17963457107543945, -0.04917550086975098, 0.008908434771001339, 0.09439121186733246, -0.12091467529535294, 0.19757334887981415, 0.06103021651506424, -0.1616753190755844, -0.10071074962615967, 0.044939544051885605, -0.10596431791782379, -0.0935777798295021, -0.073452889919281, 0.004806211218237877, -0.15492813289165497, 0.25879016518592834, -0.18392615020275116, 0.037098854780197144, 0.0904974415898323, 0.00034651957685127854, -0.12668155133724213, 0.333896666765213, -0.0638478472828865, 0.17222468554973602, -0.13125869631767273, -0.002852638717740774, 0.028562873601913452, 0.14471210539340973, -0.1683586984872818, -0.21322457492351532, 0.2838890552520752, 0.05935349687933922, -0.07055702805519104, 0.09089623391628265, 0.0319434218108654, 0.05695990100502968, 0.09141773730516434, 0.11374610662460327, -0.1281859576702118, 0.14429031312465668, -0.35989582538604736, -0.04766746610403061, -0.3317735493183136, 0.2521679103374481, -0.010647471062839031, 0.31081461906433105, -0.2835899293422699, -0.05575096607208252, 0.0028148461133241653, 0.1079108789563179, -0.10857591032981873, 0.013470309786498547, -0.020352354273200035, -0.2054426074028015, 0.06525060534477234, -0.173363596200943, -0.24478255212306976, 0.1926681101322174, -0.029392246156930923, 0.11807547509670258, -0.02101851813495159, -0.23517824709415436, -0.13854363560676575, 0.10016784071922302, -0.0712502971291542, -0.14382335543632507, 0.12004948407411575, -0.06571320444345474, 0.01653638295829296, 0.20532767474651337, 0.05625243857502937, 0.038824547082185745, 0.017274031415581703, -0.17061874270439148, 0.0789548009634018, 0.04803643003106117, -0.08055519312620163, -0.22870568931102753, -0.04671752452850342, 0.05166901648044586, -0.032412089407444, 0.15806809067726135, -0.0330931730568409, -0.18437042832374573, -0.1426573544740677, -0.024150686338543892, -0.013738289475440979, 0.20462603867053986, -0.158062145113945, -0.03230976685881615, -0.09619902074337006, 0.003255729330703616, 0.008473088964819908, 0.07533353567123413, -0.16550633311271667, 0.14349643886089325, -0.022706568241119385, 0.08009197562932968, 0.059551503509283066, -0.009472895413637161, -0.1458086520433426, 0.0277040246874094, 0.11792328208684921, -0.12433979660272598, -0.11917399615049362, 0.20030201971530914, -0.10832031816244125, -0.02712917886674404, 0.18179179728031158, 0.07653094828128815, 0.08445993810892105, 0.07463733106851578, -0.28364554047584534, -0.1326368898153305, -0.036829471588134766, -0.003868664847686887, -0.0499870739877224, 0.188338503241539, -0.01839725486934185, -0.09725235402584076, -0.08801689743995667, -0.0333489291369915, -0.1042185053229332, 0.07208482921123505, -0.15456615388393402, -0.13815933465957642, -0.06272874772548676, -0.1635160893201828, -0.06847285479307175, -0.08500971645116806, -0.05221995711326599, 0.1839580088853836, 0.12025537341833115, -0.07865868508815765, -0.1436312347650528, -0.002975254552438855, -0.02091953344643116, 0.05017384886741638, 0.02025643177330494, 0.0830899029970169, 0.042800914496183395, -0.034537579864263535, 0.0247415229678154, -0.09675400704145432, 0.1736782193183899, 0.019512681290507317, 0.19502605497837067, -0.014856301248073578, 0.02010427415370941, -0.12345132976770401, -0.06447772681713104, -0.05981351062655449, -0.1323344111442566, 0.10414136201143265, 0.06034296751022339, 0.14975498616695404, -0.21271057426929474, -0.19708286225795746, -0.12346050143241882, -0.07515909522771835, 0.012364137917757034, 0.08819207549095154, 0.04376859962940216, 0.20179219543933868, -0.12483342736959457, -0.006386636756360531, 0.10838110744953156, 0.009576807729899883, 0.02390916272997856, -0.05958179384469986, -0.1430162638425827, 0.22030459344387054, 0.13420802354812622, -0.15977485477924347, -0.08984041959047318, 0.0184014942497015, -0.016618279740214348, -0.17521484196186066, -0.005578047130256891, -0.2996242046356201, -0.06957230716943741, -0.030932454392313957, 0.2578222453594208, 0.12356315553188324, -0.037781424820423126, -0.03878992050886154, -0.12307372689247131, 0.006942568812519312, 0.020695865154266357, 0.03622588515281677, -0.19932538270950317, 0.018751729279756546, 0.019022352993488312, -0.008529446087777615, 0.09284911304712296, -0.055929817259311676, 0.035993464291095734, 0.15250495076179504, -0.09737830609083176, -0.11735248565673828, -0.025106610730290413, -0.01181766390800476, -0.02245832234621048, -0.056702956557273865, -0.2372313290834427, 0.07231148332357407, -0.15871480107307434, 0.18498581647872925, 0.02304176054894924, 0.132611483335495, 0.017751196399331093, 0.04181085526943207, 0.002241315320134163, -0.25496184825897217, 0.0645383670926094, -0.14240047335624695, -0.014445534907281399, 0.07207107543945312, -0.15734833478927612, 0.07071398943662643, 0.0037120929919183254, 0.008613817393779755, 0.20245683193206787, -0.18496859073638916, -0.04947606101632118, 0.012519078329205513, -0.019176723435521126, 0.09096688032150269, -0.05926124379038811, -0.15507382154464722, -0.20695506036281586, -0.10051591694355011, -0.01596224308013916, 0.2230379283428192, 0.10528775304555893, -0.06148284301161766, -0.13795605301856995, -0.11880043148994446, 0.04053817316889763, 0.22047939896583557, -0.17515693604946136, 0.03777635097503662, 0.10473145544528961, -0.006042537745088339, -0.06689523160457611, -0.3144507110118866, 0.15921878814697266, 0.07650639116764069, -0.06058255583047867, 0.07361721992492676, -0.012809141539037228, -0.12738656997680664, 0.2720972001552582, 0.09775886684656143, 0.037713710218667984, 0.06309833377599716, -0.011585293337702751, 0.07530665397644043, -0.1724535971879959, -0.01096032653003931, 0.049524009227752686, -0.04190174490213394, 0.06568638235330582, -0.024922970682382584, -0.11834663152694702, 0.05093259736895561, 0.11752674728631973, -0.01016178261488676, 0.005860851611942053, 0.09578491002321243, 0.04143938794732094, -0.17339980602264404, -0.01663915254175663, -0.10250689089298248, 0.15692661702632904, 0.18362782895565033, 0.21796095371246338, 0.03458774462342262, -0.11929860711097717, -0.15380293130874634, 0.048340555280447006, -0.15613363683223724, 0.11378160864114761, -0.038861267268657684, -0.20337650179862976, -0.024734558537602425, 0.0567353218793869, -0.11670032143592834, -0.07377663254737854, -0.01734248176217079, 0.028579575940966606, -0.047558192163705826, -0.016743818297982216, -0.11572590470314026, -0.050560563802719116, 0.022440887987613678, 0.11797014623880386, -0.020131781697273254, -0.09908677637577057, 0.25888410210609436, -0.047934211790561676, 0.05300984904170036, 0.05213537812232971, -0.11562218517065048, 0.17736949026584625, 0.055445749312639236, 0.001582812867127359, 0.13837917149066925, -0.15155430138111115, 0.07261443883180618, 0.1760384738445282, 0.20738351345062256, -0.020231004804372787, -0.22015930712223053, -0.17195886373519897, -0.10087176412343979, 0.05841616913676262, 0.01825796253979206, 0.028809113427996635, 0.14823798835277557, 0.10530275106430054, 0.1059960350394249, -0.09518274664878845, -0.19788730144500732, -0.08688180148601532, 0.07035553455352783, 0.1725061535835266, 0.18135525286197662, 0.04393058270215988, -0.05322056636214256, 0.016281789168715477, -0.03923908621072769, 0.1467287838459015, 0.1671714037656784, -0.06284905970096588, -0.060862939804792404, 0.10733237862586975, -0.2460290789604187, 0.1086772233247757, -0.12131001055240631, 0.09301654994487762, 0.15753696858882904, 0.015688953921198845, 0.01870671845972538, -0.00822784099727869, 0.1184905618429184, 0.043249089270830154, 0.021908311173319817, -0.11085449159145355, 0.015829717740416527, 0.013444377109408379, 0.12641499936580658, -0.06891370564699173, 0.0010693222284317017, 0.002298645442351699, -0.09063447266817093, -0.10460902005434036, 0.014520799741148949, 0.18602260947227478, -0.18843694031238556, -0.13822515308856964, 0.06832270324230194, -0.06241098418831825, -0.06311412155628204, 0.03477016091346741, 0.08393801748752594, -0.05442706495523453, -0.2580714225769043, -0.049672432243824005, -0.01826232671737671, -0.052198681980371475, 0.21013832092285156, 0.14781621098518372, 0.08339445292949677, -0.21292835474014282, -0.16473767161369324, 0.04569613188505173, -0.07925748825073242, 0.12219103425741196, 0.10932371765375137, 0.028603296726942062, -0.1639091819524765, 0.1571619063615799, 0.07360609620809555, 0.047126952558755875, 0.16251273453235626, 0.005064626690000296, 0.07205802947282791, -0.1104368045926094, 0.08507223427295685, -0.1632741242647171, 0.11432014405727386, -0.1304910033941269, -0.1881805807352066, -0.08873546123504639, 0.2337404042482376, -0.05378042161464691, -0.0032850350253283978, 0.0024846054147928953, 0.22468453645706177, -0.10553371161222458, -0.08871084451675415, -0.02104065753519535, -0.08899696916341782, 0.12229419499635696, 0.05216154083609581, -0.21502622961997986, 0.01657346822321415, -0.015563770197331905, -0.20012392103672028, -0.03887717425823212, 0.2540075182914734, -0.1543145477771759, -0.06507357954978943, 0.026282748207449913, -0.15224580466747284, -0.1446562558412552, 0.16299864649772644, -0.20473246276378632, -0.14066095650196075, -0.07199767976999283, 0.1858762502670288, 0.012954900972545147, 0.266655296087265, -0.2767147719860077, -0.13321880996227264, -0.06246216222643852, 0.1452825367450714, 0.02306419610977173, 0.18216779828071594, -0.2656656503677368, -0.024892009794712067, 0.05274138227105141, 0.1540072113275528, 0.08216621726751328, 0.011965499259531498, -0.05686621367931366, 0.16386133432388306, 0.1494392305612564, -0.08834496140480042, -0.03529752790927887, 0.20722562074661255, -0.09742388129234314, 0.06522290408611298, 0.11114093661308289, -0.0213528573513031, 0.01967419497668743, 0.026266463100910187, 0.22202368080615997, 0.044806260615587234, -0.021766986697912216, -0.12257108837366104, 0.07062873989343643, -0.219350665807724, 0.0004040442581754178, 0.09643439948558807, 0.13470523059368134, -0.14910869300365448, 0.12017832696437836, -0.0701720342040062, 0.20017296075820923, -0.006613181438297033, 0.041973914951086044, 0.15551424026489258, -0.10647010058164597, 0.10455507040023804, 0.08558584749698639, -0.13442689180374146, -0.14108413457870483, 0.07045755535364151, -0.0402020625770092, 0.09477166831493378, -0.08879141509532928, -0.014768865890800953, -0.1970272809267044, 0.11725357919931412, 0.09668175131082535, -0.048312027007341385, 0.018956944346427917, 0.3059421181678772, -0.3305738568305969, 0.08611354231834412, 0.034597329795360565, -0.005029098130762577, -0.09870831668376923, -0.12728674709796906, 0.2668432593345642, -0.03442925214767456, -0.0027027023024857044, 0.02421863004565239, 0.1490057408809662, -0.4186931848526001, 0.590768039226532, 0.09591157734394073, -0.023175572976469994, 0.014795226976275444, 0.15339839458465576, -0.03040090575814247, 0.039507605135440826, 0.009810243733227253, 0.129155695438385, -0.009200584143400192, -0.017056694254279137, -0.05921788886189461, 0.024520806968212128, 0.03846394643187523, -0.03519374132156372, -0.06120552867650986, -0.04045017436146736, 0.05995190888643265, -0.12954340875148773, 0.08782478421926498, 0.10954228788614273, -0.08833260089159012, 0.03486504778265953, -0.1389153003692627, -0.14231927692890167, 0.08809559047222137, 0.08138678222894669, 0.2189042866230011, 0.04711960628628731, -0.13103541731834412, 0.03214019909501076, 0.07880038022994995, 0.13267898559570312, -0.01927391067147255, -0.056471288204193115, 0.1429542601108551, -0.2554909884929657, -0.24145415425300598, -0.155746191740036, -0.02934686280786991, -0.11752483248710632, -0.0826256275177002, 0.27283573150634766, -0.12593768537044525, -0.02155902236700058, 0.10009782016277313, -0.14190009236335754, -0.2460518628358841, 0.12659117579460144, 0.09225792437791824, -0.18091800808906555, 0.2837185859680176, 0.08242969959974289, -0.11760305613279343, 0.05540180578827858, -0.014550311490893364, -0.21488815546035767, -0.07044129818677902, -0.15749385952949524, 0.10002245754003525, -0.028301725164055824, 0.10222318768501282, -0.12362120300531387, 0.2532803416252136, -0.015914246439933777, -0.13964501023292542, 0.0903150662779808, -0.09165675193071365, -0.004682027734816074, 0.06560865044593811, -0.0788317397236824, -0.06471052020788193, 0.22136899828910828, -0.06713442504405975, -0.02492397092282772, -0.1429043710231781, -0.0586455874145031, 0.0360187329351902, -0.13978108763694763, 0.19820767641067505, -0.28651031851768494, 0.14018753170967102, -0.13620176911354065, 0.05559096485376358, -0.04579346254467964, 0.10261709988117218, -0.1348469853401184, -0.07484616339206696, 0.020810618996620178, -0.22258144617080688, 0.07443219423294067, 0.09090210497379303, -0.07435619086027145, 0.16531464457511902, 0.10047713667154312, -0.00426179263740778, 0.12200207263231277, 0.0186628270894289, 0.05448069050908089, -0.03920764476060867, 0.10429840534925461, -0.08735118061304092, 0.1099560484290123, 0.0812927633523941, -0.04340080916881561, -0.2070549726486206, 0.054272472858428955, 0.1877707839012146, 0.05537674203515053, -0.08609398454427719, 0.08528418838977814, 0.05905657261610031, -0.047356411814689636, 0.05949654430150986, 0.5104906558990479, 0.38577237725257874, 0.389892578125, -0.8354586958885193, -0.34080225229263306, 0.2617304027080536, 0.2248149812221527, -0.02103359065949917, 0.26329201459884644, 0.16334350407123566, -0.8417564034461975, 0.18633057177066803, 0.09788396954536438, -0.5719274282455444, 0.1847890019416809, -0.34624502062797546, -0.07705749571323395, -0.3158896267414093, 0.30407941341400146, -0.21574892103672028, -0.04112158343195915, 0.0999036505818367, -0.05550427734851837, -0.213928684592247, -0.31830188632011414, 0.12209296971559525, -0.12574808299541473, 0.12309157103300095, 0.004218534100800753, -0.14397799968719482, 0.13143107295036316, -0.12131883203983307, -0.16106142103672028, -0.16620182991027832, 0.1314440220594406, -0.19010894000530243, 0.10469294339418411, -0.00026235703262500465, 0.19603011012077332, -0.1686650961637497, -0.12595762312412262, -0.027127308771014214, -0.2516496181488037, 0.10666964948177338, -0.014878516085445881, 0.08732184767723083, 0.17559480667114258, 0.1108444482088089, -0.32840925455093384, 0.26207295060157776, -0.14004603028297424, -0.12011002004146576, 0.08162710815668106, -0.15619832277297974, -0.15544219315052032, 0.194577157497406, 0.24327868223190308, -0.23679806292057037, -0.04670025408267975, -0.28261005878448486, 0.014197280630469322, 0.08305276930332184, -0.02192544937133789, 0.29759547114372253, -0.23456382751464844, 0.002561804372817278, -0.20058086514472961, 0.33854416012763977, 0.22450852394104004, 0.3443405032157898, 0.1547851413488388, 0.2571265399456024, -0.23101447522640228, -0.2054140418767929, 0.1948188692331314, -0.29057952761650085, 0.3337854743003845, 0.052288904786109924, 0.09393006563186646, -0.2146524339914322, 0.2967698872089386, -0.12955300509929657, -0.08873860538005829, 0.0360763780772686, 0.004188647028058767, -0.11042065918445587, 0.010660494677722454, -0.27950263023376465, 0.2171035259962082, 0.23600929975509644, 0.11300551891326904, 0.21476098895072937, -0.2848617136478424, -0.13774210214614868, -0.15192341804504395, -0.2360440194606781, -0.30943721532821655, 0.17391668260097504, 0.11963359266519547, 0.07209960371255875, -0.03283829241991043, 0.09949825704097748, -0.003918272443115711, -0.11343088746070862, 0.1363990157842636, 0.15177834033966064, -0.24751080572605133, 0.22414036095142365, -0.03263602405786514, 0.07577883452177048, -0.29415392875671387, 0.1607833355665207, -0.1288631111383438, -0.12172617018222809, -0.06986889243125916, -0.005939849652349949, -0.02542562037706375, -0.1613951474428177, 0.21830232441425323, 0.09176383167505264, -0.21669849753379822, 0.01620926707983017, 0.05315050855278969, 0.004215436056256294, 0.026497207581996918, -0.05984748154878616, 0.08967389166355133, -0.16404353082180023, -0.2417297065258026, 0.20941706001758575, -0.10842989385128021, 0.18926720321178436, 0.3651469349861145, -0.11205746978521347, -0.041264552623033524, 0.15056857466697693, 0.004182502161711454, 0.08583453297615051, -0.07440804690122604, 0.13658425211906433, 0.04488437995314598, 0.05846709758043289, 0.09487581253051758, 0.00922330655157566, -0.03644218295812607, 0.07478655874729156, -0.04901648685336113, -0.06865864247083664, -0.031588807702064514, 0.001972767524421215, -0.21461209654808044, -0.09801080077886581, -0.10610110312700272, -0.08322965353727341, 0.05124559625983238, -0.17452646791934967, 0.0970446839928627, 0.09020252525806427, 0.09153924882411957, -0.061111897230148315, -0.0017129351617768407, 0.284567266702652, -0.02235037088394165, 0.2536469101905823, -0.16820178925991058, 0.184886172413826, -0.25691381096839905, 0.22534675896167755, -0.34122344851493835, -0.17518581449985504, 0.15267008543014526, -0.22703500092029572, 0.3192649483680725, -0.11359354853630066, 0.27964386343955994, -0.11544889211654663, -0.1446271389722824, 0.22688084840774536, -0.21314027905464172, -0.2003161609172821, -0.29072853922843933, -0.0007273547234944999, -0.022654522210359573, -0.14608778059482574, 0.22849273681640625, -0.08178050071001053, -0.08055535703897476, -0.07003109157085419, -0.21377424895763397, 0.10091178119182587, 0.18686087429523468, -0.11267487704753876, 0.2658265233039856, -0.017682792618870735, -0.12831000983715057, 0.002076453296467662, -0.2738072872161865, -0.17345599830150604, -0.014579719863831997, 0.0875476598739624, -0.25378191471099854, 0.08408404886722565, 0.3335539996623993, 0.20842142403125763, -0.3166564106941223, 0.11428952217102051, -0.19605045020580292, -0.2912411093711853, 0.29457423090934753, 0.2105146199464798, 0.2262832075357437, 0.2495148628950119, -0.46113845705986023, 0.021027635782957077, -0.22700926661491394, 0.03372368589043617, 0.24589957296848297, 0.13814541697502136, -0.17859850823879242, -0.13891655206680298, -0.3752446174621582, 0.377481609582901, 0.07442633807659149, -0.2594098746776581, 0.06670437753200531, -0.0068130046129226685, -0.009895630180835724, 0.24193443357944489, -0.06355715543031693, 0.07509757578372955, -0.10775776952505112, 0.06035742536187172, -0.0007578401127830148, 0.2132645845413208, 0.21793149411678314, -0.10520316660404205, -0.32726049423217773, -0.29142773151397705, -0.10668330639600754, 0.01253711897879839, 0.4400744140148163, -0.09407874941825867, 0.02834821678698063, 0.08945726603269577, -0.36455899477005005, -0.2618280351161957, 0.015158280730247498, 0.12626363337039948, -0.15400376915931702, 0.004109425935894251, -0.16524852812290192, 0.03476021811366081, -0.11543641239404678, 0.016128193587064743, 0.029232030734419823, -0.0515127032995224, -0.21384112536907196, 0.1929454803466797, -0.209266796708107, -0.16448894143104553, -0.17377600073814392, -0.24087508022785187, 0.19979068636894226, -0.026790834963321686, -0.20924334228038788, 0.05627475678920746, -0.17142534255981445, -0.044114746153354645, 0.17049391567707062, -0.18645785748958588, 0.13021905720233917, 0.10663984715938568, -0.15498127043247223, 0.02864781580865383, 0.064960777759552, -0.03743499889969826, 0.050326213240623474, -0.07219266146421432, 0.0449371300637722, 0.014906966127455235, -0.06689426302909851, 0.1400059014558792, 0.12420433759689331, 0.0701364129781723, 0.07596500962972641, -0.13569343090057373, -0.05460566282272339, -0.008327499032020569, -0.24797137081623077, -0.1840038299560547, 0.04423356428742409, -0.2453952133655548, 0.05296999216079712, -0.08763090521097183, 0.051285918802022934, 0.11120830476284027, -0.10328375548124313, 0.11853896826505661, 0.09732084721326828, 0.020551029592752457, -0.1761210858821869, -0.06388243287801743, -0.11957535147666931, -0.1608234941959381, 0.03217700868844986, 0.07980446517467499, 0.07921504974365234, 0.00755057018250227, 0.11666184663772583, 0.1294301599264145, 0.26184311509132385, -0.050703685730695724, 0.07188668102025986, -0.16720137000083923, 0.12248646467924118, 0.3328576683998108, 0.015409772284328938, -0.016276536509394646, 0.15943682193756104, -0.037657007575035095, -0.03604365512728691, 0.3157691955566406, -0.0987406075000763, -0.11591632664203644, 0.365284264087677, 0.056886639446020126, 0.11609385162591934, -0.05252086743712425, -0.13945119082927704, 0.0357491560280323, 0.08800754696130753, -0.3908138573169708, 0.14737921953201294, -0.17484533786773682, 0.08801493048667908, 0.04141733795404434, 0.07502899318933487, 0.0043999627232551575, 0.03747422993183136, 0.0771251916885376, -0.02613963931798935, 0.018417103216052055, -0.11454751342535019, -0.01194760948419571, 0.021193161606788635, -0.21037884056568146, 0.13220760226249695, 0.06805814802646637, 0.19698216021060944, -0.01711341179907322, -0.05333608761429787, 0.15595696866512299, -0.09347815066576004, -0.04368454962968826, -0.143595352768898, 0.08049500733613968, 0.060709282755851746, -0.13360647857189178, -0.1694151610136032, -0.09973511099815369, -0.12563350796699524, 0.23347096145153046, 0.07322531938552856, -0.13093793392181396, -0.0088017787784338, 0.09293399751186371, 0.09079718589782715, 0.06777813285589218, 0.004812122322618961, -0.17616552114486694, -0.09628332406282425, -0.14135773479938507, -0.037414342164993286, -0.1058516800403595, -0.07391717284917831, -0.05453602969646454, -0.03435731306672096, -0.027268318459391594, 0.3093487024307251, 0.13795140385627747, -0.17675992846488953, -0.07729212939739227, -0.0479741096496582, -0.06730964779853821, -0.48106399178504944, -0.14195989072322845, 0.12274860590696335, -0.07754096388816833, 0.15321722626686096, 0.19910553097724915, -0.004075906239449978, 0.03482575714588165, 0.023200077936053276, 0.11976584792137146, 0.15574879944324493, -0.03350004181265831, -0.4030757248401642, -0.22290733456611633, -0.10602835565805435, -0.17571228742599487, 0.1812869757413864, 0.0898628830909729, -0.016376284882426262, -0.0787784606218338, -0.024520501494407654, -0.08002931624650955, 0.18983638286590576, -0.030822740867733955, 0.14609141647815704, -0.204117551445961, -0.06607590615749359, 0.35032370686531067, -0.006491451989859343, -0.019015423953533173, 0.13471615314483643, -0.015823224559426308, 0.15105244517326355, 0.008348487317562103, -0.01790551096200943, 0.0520549900829792, 0.08720730990171432, -0.1370740383863449, -0.019294071942567825, 0.10964567214250565, -0.1321561187505722, 0.15597383677959442, -0.30123448371887207, -0.4725026786327362, 0.1104062870144844, 0.062425751239061356, -0.03937629982829094, -0.008136384189128876, -0.12579616904258728, 0.04686351865530014, -0.048940956592559814, 0.028194887563586235, 0.1001449003815651, -0.09847357869148254, -0.08679340034723282, 0.2262757569551468, 0.08661794662475586, 0.011784750036895275, -0.14605258405208588, 0.269323468208313, 0.05062999948859215, 0.09700120985507965, -0.0816730335354805, -0.019778085872530937, 0.031967200338840485, 0.06179042160511017, 0.12189242243766785, -0.03581937402486801, 0.05288713425397873, 0.21210508048534393, 0.13097214698791504, -0.1672551929950714, -0.0797024816274643, -0.051332663744688034, 0.2502555549144745, -0.03008115105330944, -0.000554828264284879, 0.024530380964279175, -0.07652832567691803, 0.09445466846227646, 0.05856402963399887, -0.11048391461372375, -0.06859920918941498, -0.09720052033662796, 0.2507539391517639, -0.017324410378932953, -0.1627170592546463, -0.08454246819019318, -0.09269823879003525, -0.14271937310695648, 0.011088601313531399, -0.04388343170285225, -0.2138568013906479, 0.2977110743522644, -0.12648995220661163, 0.10591334849596024, 0.0012742116814479232, 0.047146353870630264, 0.2427605390548706, 0.14159415662288666, 0.15533815324306488, -0.01920856349170208, 0.30756378173828125, -0.05792109668254852, 0.04327687248587608, -0.30788806080818176, 0.17077067494392395, -0.09282835572957993, 0.10399609804153442, -0.021065011620521545, 0.23395925760269165, 0.32467120885849, 0.0411355085670948, -0.018769949674606323, 0.13567359745502472, -0.05221836641430855, -0.11727073788642883, 0.17739281058311462, -0.07489299774169922, 0.10677896440029144, -0.03100101463496685, 0.046573296189308167, 0.08916313946247101, -0.0032117150258272886, 0.04158800095319748, 0.002018936909735203, 0.0880824476480484, 0.15598827600479126, -0.0861261859536171, 0.11270003765821457, -0.30152273178100586, -0.05913796275854111, 0.047475337982177734, 0.051382072269916534, 0.07292595505714417, -0.20868688821792603, 0.10153467208147049, 0.059354595839977264, 0.061127837747335434, -0.2640633285045624, 0.19580930471420288, -0.06947359442710876, 0.625343918800354, 0.17972347140312195, -0.24985137581825256, 0.020815856754779816, -0.013022792525589466, -0.16969381272792816, -0.0954509750008583, 0.12919482588768005, 0.17834776639938354, -0.07196236401796341, -0.008662472479045391, 0.1337358057498932, 0.00759386969730258, -0.24839700758457184, -0.16677309572696686, -0.1019214317202568, 0.07437766343355179, -0.2932783365249634, -0.10853201150894165, 0.20342910289764404, 0.1916469931602478, 0.014411048963665962, -0.06093640252947807, -0.16250035166740417, 0.22314663231372833, 0.11024988442659378, 0.13141988217830658, -0.2797921597957611, -0.06306327879428864, 0.019373392686247826, 0.20566530525684357, -0.12810422480106354, 0.1766495704650879, -0.2022588849067688, 0.02795424498617649, -0.03704556077718735, 0.22744803130626678, 0.012863965705037117, 0.14565856754779816, -0.042227715253829956, -0.10903635621070862, 0.07741443067789078, -0.04150936007499695, -0.0830969288945198, -0.03083481267094612, 0.1309872269630432, -0.00046917065628804266, 0.07351897656917572, -0.057361140847206116, -0.08140267431735992, 0.07801152020692825, 0.11183910816907883, -0.03478701412677765, 0.1066560298204422, -0.05891406908631325, -0.1940755993127823, -0.04113205894827843, 